#include "unet_stream.h"

#include <string.h>

static const float unet_stream_en1_conv_weights[48] = {
    -0.00432250742f, 0.309714317f, -0.47518295f, -0.424892455f, -0.222367868f, 0.154819965f, -0.0114390878f, 0.457772702f,
    -0.051236134f, 0.152773395f, -0.174481913f, -0.113486499f, -0.551567972f, -0.382366836f, -0.237995923f, 0.021386994f,
    0.22824572f, 0.346421599f, -0.39140749f, -0.251413316f, 0.209702462f, 0.479422301f, -0.118818194f, 0.432035774f,
    -0.0930587724f, 0.0610914752f, 0.522774339f, -0.535588026f, -0.363462061f, -0.146164283f, -0.225049973f, 0.49882853f,
    -0.374224812f, -0.265771955f, -0.403358221f, -0.540721059f, -0.337021023f, 0.49628666f, 0.257622987f, 0.279824406f,
    0.0303635858f, -0.295996457f, 0.0976783484f, -0.539066195f, -0.417171717f, -0.297639877f, 0.364270359f, 0.33851102f
};

static const float unet_stream_en1_conv_bias[16] = {
    -0.256050706f, -0.0208320767f, 0.369248688f, 0.573960185f, 0.229138896f, 0.0779955089f, 0.387103528f, -0.339943498f,
    0.107585251f, -0.4476206f, -0.400151461f, -0.298248172f, 0.261234105f, 0.232186228f, -0.341993183f, 0.174420729f
};

static const float unet_stream_en2_conv_weights[1536] = {
    0.0792368874f, -0.0182178151f, 0.00551100308f, 0.0334435217f, 0.0895431936f, 0.138591394f, -0.111229368f, -0.0528950877f,
    0.0567258149f, 0.119590193f, 0.12560299f, 0.127356574f, 0.0287251379f, -0.125512809f, 0.0132779116f, -0.0902979001f,
    -0.134515315f, 0.12824221f, 0.109747931f, -0.143980041f, 0.0270158183f, -0.0243149903f, -0.0237522349f, -0.0660711825f,
    0.0555056222f, -0.0854912177f, 0.0529126413f, 0.0729923174f, 0.103326641f, 0.053969156f, -0.142855257f, -0.0936308578f,
    0.0720695555f, 0.0302098971f, -0.112594858f, -0.0831119642f, 0.135784775f, 0.0972567424f, -0.0629344955f, -0.0363273881f,
    -0.137495011f, -0.00259432383f, -0.108694144f, -0.111335188f, -0.0079529034f, 0.0216714703f, -0.0591103099f, 0.0856462419f,
    -0.0878346115f, 0.130966932f, 0.0989140272f, -0.121716797f, -0.0359231755f, 0.00651286263f, 0.0210589003f, 0.0342329815f,
    0.0566418618f, 0.0086458046f, -0.070426099f, 0.0682986081f, -0.138454944f, -0.0855494142f, -0.0361318178f, -0.0703084022f,
    -0.0504938439f, -0.118301608f, -0.0307026301f, 0.0308529232f, -0.0940305144f, -0.00740727037f, 0.103323646f, -0.0148378611f,
    0.00401144708f, -0.01245178f, 0.0292110909f, 0.0917750597f, 0.136722535f, 0.0916619599f, 0.13703534f, -0.0104386732f,
    -0.12966089f, -0.0684268102f, 0.0982797146f, -0.000935654156f, -0.0717421025f, -0.110607028f, -0.135077938f, -0.121821478f,
    -0.0292768124f, 0.0791551992f, 0.0780344307f, -0.139203042f, 0.0900347307f, -0.112944946f, -0.0305142961f, -0.0585246421f,
    -0.0278014783f, -0.0283394828f, -0.129520655f, -0.124625899f, -0.0225857552f, 0.00186658464f, -0.0655686036f, 0.0543715768f,
    -0.129911587f, -0.00974090025f, 0.126932606f, -0.0588738434f, 0.130336612f, 0.0522721335f, -0.130258352f, 0.0913215354f,
    -0.0166556742f, -0.0644329563f, 0.115419433f, -0.116637915f, 0.0154880555f, -0.0302196201f, 0.10307277f, 0.04029084f,
    0.0693546161f, 0.0509738438f, -0.0347093605f, -0.0303548239f, -0.118945308f, 0.0782080665f, 0.114600293f, 0.0987588614f,
    -0.10181208f, 0.00643740362f, -0.101747967f, -0.0794551522f, -0.0841058716f, 0.0493263975f, -0.0860122293f, -0.00314903166f,
    0.0060719843f, 0.0930428579f, -0.109107114f, -0.0990890041f, -0.083810851f, 0.101026177f, -0.0518840402f, 0.121746495f,
    0.0521932915f, 0.0182767939f, -0.00107444287f, -0.0285327267f, 0.0181094091f, -0.0329585522f, -0.00101416791f, 0.0184163712f,
    -0.112901017f, -0.0756514743f, 0.116550967f, -0.117136084f, -0.0103642717f, 0.142783582f, 0.0521398112f, 0.00408660807f,
    -0.125083745f, 0.0715012848f, -0.102808356f, -0.0409720726f, -0.0484273694f, -0.0213744696f, 0.00157879991f, 0.119050115f,
    0.0180188417f, 0.129281476f, 0.0882926509f, -0.0912517682f, 0.0647356659f, -0.102031142f, -0.0611735806f, 0.042452734f,
    0.0476588905f, 0.108285539f, -0.046464324f, 0.000231056256f, 0.074308008f, -0.13958703f, 0.104352742f, -0.119355373f,
    0.00198932481f, -0.024539683f, -0.0760183111f, 0.0190771464f, 0.119354844f, -0.0421924777f, -0.0856919289f, -0.0533813685f,
    -0.143059224f, 0.0651527792f, -0.0693197474f, -0.096321784f, -0.0831526592f, 0.0829873383f, 0.076436989f, 0.110781685f,
    0.0523543134f, -0.0482026897f, -0.0403346643f, 0.0426414274f, 0.1186499f, 0.039244052f, -0.0682923049f, -0.0678494871f,
    -0.136466011f, 0.0311836824f, -0.0809993148f, -0.128687248f, 0.126565561f, -0.0937339589f, -0.0164199844f, 0.0413515717f,
    0.00459832652f, -0.0971216261f, -0.116670609f, 0.115048371f, 0.0235036183f, 0.119745404f, -0.0483875684f, 0.0425151996f,
    -0.0330063999f, -0.00641882187f, -0.0879075155f, 0.0488148555f, 0.0456343852f, -0.00297746062f, -0.0324616656f, -0.0889735296f,
    0.099815391f, -0.107447825f, 0.059129823f, -0.0485337712f, -0.0696379095f, 0.0259293951f, -0.074976787f, 0.0332559012f,
    0.0283449963f, -0.107168585f, 0.0240318757f, 0.0614772774f, 0.0571330003f, -0.0181689393f, -0.118325554f, -0.0222501084f,
    0.0501292981f, -0.0526652075f, 0.0547875389f, 0.096122928f, -0.0753657073f, 0.00142342632f, 0.0596831441f, 0.0113128154f,
    0.0120566776f, 0.0180226862f, -0.113470078f, 0.0113431839f, 0.0999489054f, 0.130063921f, 0.0848341063f, 0.0193415806f,
    0.0674073622f, -0.0702169389f, -0.119610265f, -0.124118298f, 0.143991858f, 0.0916234851f, -0.0997704938f, 0.056470722f,
    0.1089985f, 0.144281268f, 0.126207411f, 0.111825533f, -0.0330905616f, -0.0506538078f, 0.118507594f, 0.0808834285f,
    -0.0868588835f, 0.129761308f, 0.0697375908f, 0.0786831304f, -0.0904669166f, 0.0414102077f, -0.0505990759f, 0.112778544f,
    -0.0259720571f, 0.0561921299f, 0.0256373789f, 0.0614107288f, -0.0490496308f, 0.0703745112f, -0.100815088f, 0.0325991958f,
    -0.0976571292f, -0.142393723f, -0.11591053f, 0.113949619f, 0.078091383f, 0.135419101f, 0.115631297f, -0.128899366f,
    -0.0984999537f, -0.0233223233f, -0.0937370062f, 0.100227006f, -0.10911978f, -0.0704221576f, -0.139442578f, -0.081946604f,
    0.118713796f, 0.118177243f, 0.103321753f, 0.111446418f, 0.128342375f, -0.0369593203f, 0.0635085031f, 0.128594086f,
    0.0477493405f, 0.144290119f, 0.0748621672f, 0.089726761f, -0.0505167618f, 0.06925679f, 0.0165852513f, -0.0344701409f,
    -0.0813640952f, -0.0809898004f, -0.111064427f, 0.0968976989f, 0.102613561f, -0.0164273605f, -0.0835257098f, 0.111558743f,
    0.0923018157f, 0.0107291397f, -0.0681465194f, 0.132652447f, 0.0590252019f, -0.109572649f, 0.138142318f, 0.109605625f,
    -0.0526094623f, 0.0811396018f, -0.0820106119f, -0.0226196479f, 0.122556582f, 0.00596387684f, -0.102077633f, -0.0482421257f,
    -0.0391795374f, -0.0278467331f, 0.0138131287f, 0.133486971f, 0.00772783766f, -0.0891193375f, 0.00739788264f, 0.0692076609f,
    0.0715968758f, -0.131915003f, -0.0258279871f, -0.107263133f, -0.0615864508f, 0.0520036146f, -0.10249795f, 0.053653881f,
    0.122509971f, 0.00946680922f, -0.0961987302f, -0.05171372f, 0.0315179899f, -0.110030577f, 0.0717080384f, -0.131039023f,
    -0.138750032f, -0.140246421f, -0.0292806495f, 0.0970568433f, -0.136611789f, 0.11997091f, -0.0577380359f, 0.0422739647f,
    0.00658218237f, -0.130151287f, 0.119702727f, 0.0777172297f, 0.143470198f, 0.0729207322f, -0.0952722728f, 0.120461188f,
    0.00775729725f, 0.0684469044f, -0.115733474f, -0.041515097f, -0.1417211f, -0.0562181175f, 0.0311379507f, -0.113327764f,
    0.0460094139f, 0.0774810016f, 0.0201074667f, -0.0965733752f, -0.111907199f, -0.0445303172f, 0.0633578375f, 0.142373353f,
    0.0829978734f, -0.0162536725f, 0.0506068766f, -0.141603515f, -0.123278283f, 0.0673487112f, -0.0817545801f, 0.0694398209f,
    -0.101892024f, -0.071491614f, -0.118888669f, 0.0753208324f, -0.0147072235f, 0.111081786f, 0.0893260539f, 0.0798677206f,
    0.0046413159f, -0.044625774f, -0.0313834026f, 0.0191824511f, 0.0715491474f, -0.101120934f, 0.121138714f, -0.0156937502f,
    -0.120946422f, -0.0780945793f, 0.127711788f, 0.131999969f, -0.133696273f, 0.101800531f, 0.0723357275f, 0.0854356512f,
    0.122185364f, -0.077790387f, 0.0455780737f, 0.0590674318f, -0.0426505767f, 0.0483027808f, -0.0415276438f, 0.0892378837f,
    -0.0400469229f, -0.0538081527f, 0.0363366567f, 0.0511953644f, -0.0705188885f, 0.0127591295f, 0.0836483538f, -0.0143610416f,
    0.0439266004f, -0.0348121636f, 0.0505900085f, -0.104556769f, -0.0848742202f, -0.0732640177f, 0.132647112f, -0.0388387516f,
    -0.000394089031f, -0.0699305534f, 0.144090027f, 0.1409695f, -0.108856916f, -0.117009528f, -0.109406307f, -0.000696104253f,
    -0.0367920287f, -0.0944750533f, -0.0517695993f, 0.0272696894f, -0.0754146576f, 0.0319825299f, -0.0330987349f, -0.0699403435f,
    0.0198297855f, 0.118682146f, -0.0975831449f, 0.00670219585f, -0.053226769f, 0.141638637f, -0.136941493f, -0.138370141f,
    0.142227352f, -0.0913204774f, 0.027672749f, -0.0124571444f, -0.0304055624f, -0.0322373174f, 0.0917174816f, 0.00689886045f,
    -0.140528455f, -0.0852107182f, -0.0492044762f, 0.072632663f, -0.0934052393f, 0.136098027f, -0.0321480446f, -0.0259174071f,
    0.113096297f, 0.0725448057f, 0.122415021f, 0.0834908336f, -0.0437851436f, -0.0957635194f, -0.0107390936f, 0.119458586f,
    -0.0484423004f, -0.133853644f, 0.0591677725f, 0.140507802f, -0.0410902761f, -0.119514309f, -0.130922124f, 0.0361707173f,
    -0.0109291421f, -0.0728882626f, 0.0291750766f, 0.0548131838f, 0.11479383f, 0.112060554f, -0.021604877f, -0.127271488f,
    -0.130426109f, 0.134765819f, 0.0638048574f, 0.0629175007f, -0.124883272f, 0.133658186f, 0.136736512f, 0.130315989f,
    -0.121760398f, -0.0544616692f, -0.0992696509f, 0.136682034f, -0.0620186515f, -0.0658976436f, 0.0756199285f, -0.0667691231f,
    -0.0710890889f, -0.0126253627f, -0.0138735818f, -0.112435289f, 0.120329015f, -0.0636701137f, 0.0511984192f, 0.125541836f,
    0.0727914497f, 0.0204351861f, 0.122810014f, 0.0194026604f, -0.0667783916f, 0.136542588f, 0.0341617242f, -0.140826687f,
    -0.0410914831f, -0.0983175635f, 0.126547739f, -0.0238366351f, -0.131566629f, -0.00907349493f, 0.0906453952f, 0.0374987796f,
    0.0456399433f, 0.0134050325f, 0.0538114756f, -0.0351679586f, -0.0574172251f, -0.134912878f, -0.108734272f, 0.0625559539f,
    -0.0854637772f, 0.020707503f, 0.0460710898f, 0.0102196122f, -0.0935807601f, 0.13803342f, -0.0839318037f, 0.118717134f,
    -0.114821151f, -0.0347200073f, 0.0785147324f, -0.0589732416f, 0.121249162f, -0.0993263349f, -0.121209972f, -0.0650842413f,
    0.0233321059f, 0.132899001f, -0.0689065382f, 0.05161893f, -0.0361862592f, -0.0313012227f, 0.106131382f, -0.111859016f,
    0.0153304916f, 0.135735691f, -0.0198336449f, 0.112068631f, -0.0444495156f, 0.11618571f, -0.139621407f, -0.0208023563f,
    -0.0253522471f, 0.0467774011f, 0.0566273034f, 0.110824272f, -0.0215041675f, -0.00572368596f, 0.0988435f, -0.0390536711f,
    0.126530513f, -0.096101217f, -0.0156186633f, -0.00775246928f, 0.0644045249f, 0.0986796618f, -0.0228779372f, -0.119580276f,
    0.0715177804f, 0.0431757346f, 0.0579800084f, -0.0890367329f, 0.0928945541f, 0.136709362f, 0.012524304f, -0.1348176f,
    0.101323009f, -0.107018732f, 0.0331790112f, 0.0209747106f, -0.0675549209f, 0.0502574444f, -0.129099593f, 0.0328740776f,
    -0.0915024802f, -0.0156076662f, 0.0185658745f, 0.122966982f, -0.0688660368f, 0.0924673975f, -0.0183356684f, -0.0685495734f,
    -0.125688478f, -0.132431716f, 0.140960917f, -0.0359975472f, 0.00720945839f, 0.0391314887f, 0.0981103927f, 0.123187758f,
    0.117059655f, -0.106936723f, -0.0231251903f, -0.0854095444f, -0.0824671164f, 0.0342377201f, 0.135481477f, -0.115628809f,
    0.0873532966f, -0.0748338476f, -0.0281131044f, 0.114570372f, -0.032644704f, 0.0131426984f, -0.10089615f, 0.122865416f,
    -0.0186583959f, -0.105566591f, 0.0422633104f, -0.102626003f, -0.114532344f, 0.00879287813f, 0.11443653f, -0.0408450179f,
    0.0679345727f, 0.12403173f, 0.0957329869f, -0.0757134855f, -0.0158221815f, -0.0454206206f, -0.116064563f, 5.96341488e-05f,
    0.108604096f, 0.121606037f, 0.0134667233f, 0.0327822268f, -0.0624865443f, 0.108951561f, -0.0600597821f, -0.10026399f,
    0.0222269371f, 0.0865134001f, -0.130132869f, 0.130475819f, 0.051922448f, -0.101124234f, -0.0310912356f, 0.125223756f,
    -0.110740229f, -0.0421863683f, 0.0473396331f, -0.126451358f, 0.0791252032f, 0.0751342028f, 0.0895185024f, -0.0920215398f,
    0.143759638f, -0.0855573341f, 0.144097328f, -0.138518676f, -0.128599793f, 0.0886511505f, 0.0150850704f, 0.00832669716f,
    -0.079927735f, -0.0605457611f, -0.0422022827f, -0.140606523f, 0.00750099821f, 0.0255272593f, -0.000122203812f, 0.0466107465f,
    0.136954159f, 0.0383768678f, -0.0528377332f, -0.0594013482f, -0.0923475176f, -0.100057013f, -0.0232454278f, -0.0255282205f,
    0.0642100498f, -0.0616948791f, 0.115065865f, -0.101278305f, 0.000410226901f, 0.129747272f, 0.143526405f, -0.0836088806f,
    0.0257105734f, 0.0170494504f, -0.067672573f, -0.0498676412f, 0.0390942059f, -0.100366823f, 0.0238149613f, 0.0624581128f,
    -0.0568788424f, 0.119892113f, -0.00949887652f, 0.0654874593f, 0.14293769f, -0.0441192053f, 0.0784338191f, -0.0412845574f,
    -0.0210837107f, -0.0244609304f, -0.000896702695f, -0.0545259006f, 0.0338306688f, 0.00543867331f, 0.0914936587f, -0.0292145479f,
    0.0144741256f, -0.0536919087f, -0.120875426f, 0.0584083982f, 0.0184690468f, -0.0578045547f, -0.0488009974f, 0.0377471633f,
    -0.0260985382f, 0.0943206474f, 0.00817568973f, 0.0545213185f, 0.0628870279f, -0.0354154035f, 0.0624494851f, 0.106510967f,
    0.00664214464f, 0.0282456949f, 0.00524455681f, 0.0999341235f, -0.060938336f, -0.0767251104f, 0.062895298f, -0.125618398f,
    0.00231407909f, -0.0663792267f, 0.0952671617f, -0.134383246f, 0.0875161216f, 0.142800629f, 0.0292051304f, -0.00961668417f,
    0.142077953f, -0.0616826825f, -0.0115662236f, -0.0632058233f, -0.0199244358f, 0.0313700065f, 0.0192778334f, -0.0272616129f,
    -0.144313842f, 0.00739064114f, -0.00427553896f, 0.021713566f, 0.110598132f, 0.140296772f, -0.0856325179f, -0.00900004804f,
    -0.0578319654f, -0.133027419f, -0.105028011f, 0.13546893f, 0.0841571912f, 0.077530697f, 0.0802142173f, -0.114672594f,
    0.0151581457f, 0.134336397f, -0.0805523619f, 0.128401235f, 0.0379372723f, 0.101547256f, -0.0618321188f, 0.0665418431f,
    -0.127952844f, -0.00916474964f, 0.0481437258f, 0.0432858244f, 0.120782249f, 0.141833603f, 0.131311446f, 0.0969066247f,
    0.101477757f, -0.0186237507f, -0.112012155f, -0.0535817519f, -0.0162039027f, -0.0779976919f, 0.07378079f, 0.0506661683f,
    0.0232890267f, 0.0348661132f, 0.126793012f, 0.0525720008f, -0.126574665f, -0.104771338f, 0.0636164173f, 0.0196701195f,
    0.070391871f, -0.14415209f, -0.133204043f, 0.0885111615f, 0.0923244357f, -0.130583122f, 0.054788135f, -0.11270459f,
    0.109307401f, 0.0452915244f, 0.142718375f, -0.142314956f, -0.138949633f, 0.0975864232f, 0.12814559f, 0.0884322897f,
    0.0959594399f, -0.121570781f, 0.10447298f, -0.136275202f, 0.0322450884f, -0.0945456475f, -0.0573299415f, 0.0255575534f,
    -0.0567503646f, -0.0228373986f, -0.136805981f, -0.136091337f, 0.0559107699f, -0.0610946789f, -0.0878130347f, -0.0569527559f,
    -0.118005261f, -0.115382895f, 0.086367175f, 0.0733580664f, 0.0192261711f, -0.0788453892f, 0.0480209999f, 0.00648435671f,
    -0.103153616f, 0.0310598258f, 0.131425023f, -0.141970634f, -0.143527433f, 0.0184931569f, 0.108688854f, -0.0878274888f,
    0.0317738988f, 0.101466671f, 0.0445014089f, 0.0312360451f, 0.144008607f, 0.0940315053f, -0.0811789408f, 0.0124759795f,
    0.0737376958f, 0.127292022f, -0.143605471f, 0.0781591609f, -0.041905582f, -0.141337708f, 0.0320390351f, -0.078578949f,
    0.0204542894f, -0.0937102512f, -0.108617663f, -0.0122471284f, -0.0484864525f, 0.0844175294f, 0.0124444487f, 0.112663358f,
    0.0270491522f, -0.046413146f, 0.097764194f, 0.00788729452f, 0.0270908307f, -0.0464219898f, 0.000517991546f, -0.0277520958f,
    -0.0122711342f, -0.112565316f, -0.000887657749f, -0.119805969f, -0.0310513023f, 0.0836498737f, -0.100364663f, -0.0972905084f,
    -0.0352436639f, -0.0395676456f, 0.0244344138f, 0.0239621699f, 0.0731927082f, -0.0994308442f, -0.0101860249f, 0.0807263404f,
    0.124847263f, -0.01052872f, -0.0835162103f, 0.0414914489f, 0.082196556f, -0.0901744291f, -0.0837577209f, 0.063796632f,
    -0.0101130996f, -0.136325955f, -0.0832224637f, 0.0585333295f, -0.0489555523f, 0.0996254757f, 0.114104025f, 0.02099666f,
    -0.0114133982f, -0.045816429f, -0.00729850773f, 0.0262723286f, -0.110251844f, -0.0344958827f, -0.12005952f, 0.0885874331f,
    -0.0919189379f, 0.131858021f, -0.0372072682f, -0.0826870054f, 0.069347091f, 0.0215176009f, 0.0999469087f, 0.0602562688f,
    -0.139045373f, 0.0912916735f, -0.0271806251f, -0.0637927055f, 0.0916616619f, 0.105269231f, -0.126862079f, -0.0130514149f,
    0.118530363f, 0.0558997579f, 0.121599361f, -0.049464047f, -0.0796223208f, 0.124116637f, 0.0601628982f, 0.138560846f,
    -0.0602890067f, -0.0926738977f, -0.0169181433f, -0.13590467f, 0.0565764606f, 0.106461167f, 0.034649048f, -0.014261472f,
    0.0715631247f, -0.0916180015f, 0.141196534f, -0.14352043f, -0.138266802f, -0.0341070369f, 0.117900766f, 0.0144518334f,
    0.0554319508f, -0.105799891f, 0.0526375957f, -0.0161286984f, 0.0578536168f, 0.101936825f, 0.0627403706f, -0.0122778993f,
    -0.00889103115f, -0.0905252099f, -0.0522069409f, 0.0937955752f, -0.0578785762f, 0.0896389186f, -0.0572341643f, -0.0336158834f,
    0.00307179941f, -0.132452935f, -0.00144120329f, -0.014548542f, -0.0129667018f, -0.0288535394f, 0.113791883f, 0.106518745f,
    -0.0978253409f, 0.0670483336f, -0.113215305f, -0.122877032f, 0.0441211648f, 0.00212124409f, -0.0673340559f, -0.139213428f,
    -0.0558780022f, 0.0482084416f, -0.133598387f, -0.140218258f, 0.0183123779f, -0.103980854f, -0.126450673f, -0.0556109957f,
    -0.0232383572f, -0.131159648f, -0.096377708f, 0.00946385879f, -0.136105552f, -0.0202871803f, -0.0931986868f, -0.100059681f,
    0.0567288548f, -0.111094572f, -0.109383389f, 0.0823126361f, 0.0269861203f, 0.131449431f, -0.0385805815f, -0.0697168708f,
    -0.0133578703f, 0.00073025754f, 0.110077664f, -0.143771037f, -0.0102768922f, 0.0638477132f, -0.0794838518f, -0.0733434409f,
    0.0697533414f, -0.138301432f, 0.0342014506f, -0.111743636f, 0.0717443377f, -0.123413838f, 0.0887389779f, -0.136633962f,
    -0.121324748f, 0.00212707045f, 0.113735765f, -0.123609439f, -0.0643828511f, 0.126768515f, -0.0242049154f, 0.059796527f,
    -0.138851777f, -0.0453911833f, -0.0732988939f, 0.121684805f, 0.0599055402f, -0.105319075f, 0.0232709963f, -0.00165892311f,
    -0.0593036562f, -0.0824274048f, -0.0478965417f, 0.113770127f, -0.103468195f, -0.102817386f, -0.0445306748f, 0.0025109374f,
    0.0392902009f, 0.00433126884f, -0.0347455777f, -0.0875186697f, -0.025898736f, -0.0581032783f, 0.11661388f, -0.140498862f,
    -0.0920665562f, -0.117431037f, -0.0263785366f, 0.112477869f, 0.126516894f, -0.125653207f, -0.00625365833f, 0.0847208425f,
    0.0636233166f, 0.118226863f, -0.00400363887f, -0.0969788805f, 0.0954832286f, -0.049495209f, 0.0747356117f, -0.0355698615f,
    0.0613567457f, 0.129820287f, 0.13421239f, -0.131355911f, -0.0954759791f, -0.0596784949f, -0.0920437574f, 0.138491198f,
    -0.0127476556f, -0.0957444906f, -0.0642283708f, -0.0797265545f, 0.0588879026f, -0.125897974f, -0.13458012f, -0.142281651f,
    0.0621404946f, 0.0713680238f, -0.089644596f, 0.0357924402f, 0.106547236f, 0.0209723413f, -0.0305390172f, 0.010663948f,
    -0.0154769095f, 0.0726734772f, -0.0980063528f, 0.0731935725f, 0.0813516453f, -0.0874500349f, 0.117860205f, 0.141765445f,
    -0.0569017306f, -0.0404279381f, 0.0719310641f, -0.113076434f, 0.0570791624f, 0.0336744748f, 0.0909798071f, -0.125371963f,
    -0.119912855f, 0.0648258775f, 0.0519916788f, -0.134343863f, -0.0804908127f, -0.132065117f, -0.103406228f, -0.0651247278f,
    0.119444281f, -0.0287303757f, 0.0829000324f, 0.137073934f, 0.0657789558f, -0.129211843f, 0.0726335719f, 0.0550550595f,
    0.111870505f, -0.142378792f, 0.0887694657f, 0.118145682f, -0.134285912f, 0.0151014319f, 0.123216487f, -0.104977362f,
    0.047359705f, 0.0637791827f, 0.0378292538f, 0.14351064f, 0.118180074f, 0.123834468f, -0.0179911256f, 0.121057115f,
    -0.13450934f, -0.0778883994f, -0.0308709312f, -0.0428762361f, 0.133323178f, 0.0680786669f, 0.092925936f, 0.0981792808f,
    -0.107820138f, -0.0167172309f, 0.0210767221f, 0.037540935f, 0.0742227137f, -0.0574326105f, -0.0435225293f, 0.120772593f,
    -0.0387377515f, -0.100262336f, 0.097866118f, 0.0977384895f, -0.0452592559f, -0.0288558267f, -0.106503263f, -0.120534793f,
    0.0542778037f, -0.0616596229f, 0.114905916f, -0.115572408f, -0.0199509673f, 0.00311648776f, 0.0741814971f, 0.11681623f,
    0.0977455527f, 0.0635365024f, -0.0662497133f, -0.103077821f, -0.129125595f, 0.00715977838f, 0.139989451f, -0.0274156965f,
    -0.00607636524f, -0.104888722f, 0.0443128049f, 0.0915071592f, -0.142303988f, -0.101630777f, 0.106911421f, 0.0341738537f,
    -0.00899884105f, 0.0258014109f, -0.0219452474f, -0.10088639f, -0.13487266f, 0.0949314833f, -0.0171669461f, -0.0536048636f,
    -0.0372555256f, -0.0787246376f, -0.0427501686f, -0.123900823f, 0.108013533f, 0.0589388646f, -0.072792165f, -0.0492640734f,
    0.0647549182f, -0.0534487143f, 0.0380607136f, 0.0397419296f, -0.090859063f, 0.036156591f, 0.00883112941f, 0.126061469f,
    -0.0522239581f, -0.0371044576f, 0.12436071f, -0.117865808f, 0.0104281083f, 0.139068887f, -0.0647160187f, 0.138373166f,
    0.128075942f, 0.134282306f, -0.0137730744f, 0.130571902f, -0.0628903583f, -0.0494072512f, 0.0545929037f, 0.0304907523f,
    0.079569377f, 0.137166083f, -0.0903532878f, 0.0766034201f, 0.0482899956f, 0.0761475191f, 0.0684405416f, -0.053992074f,
    -0.114077494f, 0.115524992f, -0.0823060051f, 0.0922784656f, -0.137501553f, -0.0249706153f, 0.00152980513f, 0.0249736849f,
    0.011667029f, 0.0454814397f, -0.0160711203f, 0.0353487283f, 0.142833471f, -0.0933934525f, -0.00788032077f, -0.0550967008f,
    0.126645401f, 0.123558082f, -0.00393595826f, -0.0500318594f, -0.0891808495f, 0.103278719f, -0.0099395616f, 0.13593781f,
    0.0823098049f, 0.12633872f, 0.114159398f, -0.0937961787f, 0.0422477089f, -0.0598505586f, 0.0724214688f, -0.0129772965f,
    0.0124952318f, -0.0998246297f, -0.128997535f, 0.0543533526f, 0.03354178f, 0.0125375064f, 0.0980328023f, -0.0602713712f,
    0.0512368046f, -0.0794951916f, 0.0299065858f, -0.0329518914f, 0.101082936f, 0.126220047f, 0.125359982f, 0.00649288017f,
    0.0851144418f, -0.144212484f, -0.0846671537f, 0.0257963445f, 0.000804956711f, -0.113314949f, -0.0638851598f, -0.0674131215f,
    -0.143003479f, 0.0137655195f, 0.0983935595f, 0.058581043f, -0.0685791895f, -0.132539496f, -0.116447642f, 0.00267733773f,
    0.0992912278f, -0.0584524609f, -0.0785401687f, -0.0769974142f, -0.012495053f, -0.137070164f, -0.127369255f, 0.142083824f,
    -0.0688365623f, -0.0260331221f, -0.0386177152f, -0.126800805f, -0.0254455954f, 0.0441839136f, -0.0586090721f, -0.00615161564f,
    -0.00069044187f, -0.143688038f, 0.104891956f, 0.116591379f, 0.0984096527f, -0.0473999828f, 0.0754251257f, -0.135232434f,
    -0.0357070118f, -0.0293558482f, -0.0509725027f, 0.0606214814f, -0.0657682121f, -0.0167291965f, -0.0416777506f, -0.13554427f,
    -0.0238358751f, -0.122322045f, 0.084163405f, 0.0771426857f, 0.135213599f, -0.0484687127f, 0.00733984308f, 0.0282742456f,
    0.144079715f, 0.132301092f, -0.0747000203f, -0.1228166f, -0.130089104f, -0.0695068091f, 0.121356472f, 0.0484754704f,
    0.139263853f, 0.10698548f, 0.00209254469f, -0.0894564241f, 0.140945032f, 0.115782872f, 0.0624896288f, -0.0788459405f,
    0.113705575f, 0.0131369466f, 0.0954404175f, 0.0602413975f, 0.076644063f, -0.126652107f, -0.0800320581f, 0.0865691304f,
    -0.0300705414f, -0.125570133f, 0.131259829f, -0.00312136044f, 0.116434202f, -0.112816095f, 0.0496942885f, -0.054367166f,
    -0.0607391596f, -0.0301043f, -0.053425692f, 0.0790908411f, -0.0274238698f, 0.109438732f, 0.0329352319f, -0.0223022476f,
    -0.0833688751f, -0.132165357f, -0.0421062745f, -0.13366048f, -0.0267413855f, 0.00235908036f, -0.00930161588f, -0.0709006935f,
    0.100178964f, 0.0812876001f, -0.0355612934f, -0.0570283271f, 0.0907431468f, 0.125576556f, -0.13216038f, -0.0311853066f,
    -0.0133947656f, -0.0522587299f, 0.123221673f, -0.0213201996f, 0.122375771f, 0.000713538553f, -0.0156564079f, -0.0841919184f,
    -0.0479929261f, 0.0465095975f, 0.0638455972f, -0.00513552548f, 0.137530327f, -0.099900268f, 0.055340685f, 0.130000681f,
    -0.0250976328f, 0.114590339f, 0.00237930124f, -0.108085901f, -0.0791855603f, 0.0537244081f, -0.0624616146f, 0.0347145982f,
    0.142064303f, 0.0490284041f, -0.0135084605f, 0.036077708f, -0.0831587687f, -0.121279478f, -0.10849794f, -0.121113412f,
    0.0296207368f, 0.0281143859f, -0.0613385439f, -0.141183183f, 0.07818795f, -0.0818980634f, -0.0240967032f, -0.121023834f,
    -0.081428811f, 0.0602115504f, -0.134482533f, -0.0823065937f, 0.108213685f, -0.0740229636f, -0.0600666292f, -0.0405260026f,
    0.0616980977f, -0.0946805775f, 0.0144719947f, 0.058947552f, -0.0104778782f, 0.0260987915f, -0.110107005f, 0.0652545989f,
    0.0539429337f, -0.0181044769f, -0.119347855f, 0.0577312037f, 0.094185777f, -0.0252456591f, 0.0680313855f, 0.0534997582f,
    -0.0577300489f, -0.0100199077f, 0.143678457f, 0.000681426667f, -0.114908509f, -0.0105262464f, 0.0718065202f, -0.0471149571f
};

static const float unet_stream_en2_conv_bias[32] = {
    -0.0755868256f, 0.118901551f, 0.076355882f, -0.0245218091f, 0.00737401145f, -0.0152654629f, 0.0335100405f, 0.00512965443f,
    -0.0873432681f, 0.0267418921f, 0.00377510092f, 0.00933188014f, -0.0550050214f, 0.036982365f, -0.116717428f, 0.0431456193f,
    0.0782151744f, -0.0158847217f, -0.112120889f, -0.000524682167f, 0.000204889948f, -0.124736585f, -0.102088749f, 0.133502737f,
    0.107937776f, 0.0799919069f, 0.0999905989f, 0.0555643328f, 0.0812311396f, 0.0955974162f, -0.0337181948f, -0.018348394f
};

static const float unet_stream_de1_conv_weights[3072] = {
    0.0727746412f, -3.67535285e-05f, -0.0664100796f, -0.0791384205f, 0.0570805185f, 0.0845395699f, 0.0792622641f, 0.016984988f,
    0.0704511181f, -0.0937061161f, -0.0735315755f, -0.0982067436f, 0.0822296068f, -0.000923509768f, -0.0469957516f, 0.0345349088f,
    -0.0382050015f, -0.0654565915f, 0.0393649749f, 0.0186873488f, -0.0730881691f, -0.0672240704f, 0.0478535742f, 0.0776052475f,
    0.00830853265f, -0.0512639917f, 0.0492829159f, 0.0178000927f, -0.089352794f, -0.0661404878f, 0.0223389119f, 0.0631530881f,
    -0.0327886865f, 0.0493501946f, -0.0632080287f, 0.0976661444f, 0.0727233663f, 0.0191168729f, 0.0454064272f, 0.0355334282f,
    -0.060226243f, -0.00088996737f, 0.027215777f, -0.0230367444f, 0.0978714675f, -0.0393586569f, -0.0911480859f, -0.0485890768f,
    -0.0947217867f, 0.0841036364f, -0.0458163843f, -0.0718077868f, -0.0110327275f, -0.0687699467f, -0.05331425f, 0.0520320162f,
    -0.0766273811f, 0.0481314473f, 0.0744272172f, -0.00022892539f, 0.0453190766f, -0.057170663f, 0.0795893148f, 0.0991468355f,
    0.0242535751f, 0.0930062309f, -0.101364061f, -0.0112064444f, 0.0202789251f, -0.0887105688f, 0.0496663935f, -0.0388971418f,
    -0.0369138867f, -0.0809771121f, 0.0417245775f, -0.0742627531f, -0.0216580443f, 0.0453389548f, 0.076887697f, 0.0230786987f,
    -0.0380733199f, -0.0443932451f, 0.0572853945f, 0.0189362708f, 0.0859158337f, 0.0384349525f, 0.0822189823f, -0.082242094f,
    0.0820501521f, -0.0468926132f, -0.0273203086f, 0.000610877469f, -0.0191397909f, 0.0201883651f, 0.0909467414f, -0.0609802715f,
    0.0315357074f, -0.0820273161f, 0.0160252396f, 0.0840794817f, 0.0688184053f, 0.0874017105f, 0.0552484021f, -0.00844405871f,
    0.0266479254f, -0.0426469035f, 0.0866321921f, 0.051102709f, -0.0747009069f, 0.0882481858f, -0.0015145092f, -0.00453685923f,
    -0.0279327426f, -0.0269279554f, 0.00510821911f, -0.0498253927f, -0.0949383676f, -0.0525725186f, -0.0203099716f, 0.0770712197f,
    0.0750821382f, -0.0611504242f, -0.00391888898f, -0.0294566471f, -0.0545997247f, -0.017947264f, -0.0354128778f, 0.0570473634f,
    -0.0506162159f, 0.01570246f, -0.0575948097f, -0.0318539329f, 0.0803452879f, -0.0501057133f, -0.00613701995f, 0.0974737704f,
    0.034932334f, -0.0519492216f, -0.0612780787f, -0.035790354f, -0.0319604985f, 0.0444362611f, -0.0226908233f, 0.086077854f,
    -0.0559993051f, -0.0319150351f, 0.037158601f, 0.081511952f, 0.09763138f, 0.016335763f, 0.00430200342f, -0.0457272045f,
    0.0576666966f, -0.0591598935f, -0.0268264487f, -0.0853027254f, -0.0981161892f, 0.0570474975f, 0.0069337734f, 0.0813608989f,
    0.0812135264f, 0.0535571277f, 0.0408444591f, -0.0264867414f, 0.0542060994f, 0.0490781143f, 0.0353314765f, -0.00294619822f,
    0.0152449068f, 0.000452829117f, -0.0740686804f, 0.0236924291f, -0.0750300884f, 0.0495204069f, -0.0608092584f, -0.0333384611f,
    -0.0484030209f, 0.0805583298f, -0.0718736574f, 0.0521140322f, 0.0511869602f, 0.0721651316f, 0.0255719479f, 0.0556387343f,
    0.08067967f, 0.0201036967f, 0.0347027369f, -0.0798054039f, -0.0273759551f, 0.00925411843f, 0.012365615f, -0.0360584706f,
    -0.101177484f, -0.0265421662f, 0.0390733443f, 0.0878821984f, -0.0921645761f, 0.0487277173f, -0.0968435556f, -0.0976016596f,
    -0.0639154986f, -0.013480626f, 0.028505167f, -0.0776189566f, 0.0786323026f, 0.0922946781f, 0.00627946667f, 0.0830764771f,
    -0.0462048426f, -0.0403750166f, -0.0131705338f, 0.0111517869f, -0.0711967498f, -0.0817245245f, 0.0403177217f, 0.0294270832f,
    0.0998436585f, -0.0416118205f, 0.0360420644f, -0.0411857702f, 0.0503826439f, -0.00565371057f, 0.0756590441f, 0.0567022115f,
    0.0849507079f, 0.0524489805f, 0.00383444456f, 0.0879538432f, -0.0599491075f, 0.0962630585f, 0.0997332409f, 0.0974961221f,
    -0.047675088f, -0.054078158f, 0.00645725941f, 0.0317817517f, 0.0511968397f, 0.0415087342f, 0.0869043469f, -0.0255705174f,
    -0.0334836952f, 0.0342110619f, 0.0284412131f, -0.059535332f, 0.00987186562f, -0.0774902254f, -0.0299417153f, -0.0400564186f,
    0.0894654691f, -0.0918731317f, -0.0602596998f, -0.0998805016f, 0.0257404801f, -0.0785556585f, 0.0330210775f, -0.0708930939f,
    -0.0653786883f, -0.0521407612f, 0.0153162759f, 0.0937824175f, 0.0956023186f, -0.00771072367f, -0.0999689847f, -0.0337185971f,
    -0.0388967916f, -0.0217080601f, 0.0389965624f, 0.0513609461f, 0.0452515148f, 0.0291557498f, -0.0413173735f, -0.00108269055f,
    0.0129891206f, -0.0521320626f, -0.00913005229f, -0.0127402358f, -0.0964290723f, 0.0691898465f, -0.0103186751f, -0.0882281139f,
    0.080748409f, -0.0549166761f, 0.036134284f, 0.101215735f, 0.00472468743f, 0.0293634851f, 0.040551994f, 0.0771372169f,
    -0.0313148126f, -0.057431981f, -0.00798701961f, 0.0798173547f, 0.00877544377f, 0.0709135234f, -0.000758815499f, 0.0313145444f,
    0.00354890991f, 0.00277055893f, -0.0971237794f, -0.0892257094f, 0.00848438777f, 0.0505137146f, 0.0685601234f, 0.00442837179f,
    0.0430211648f, 0.0426859371f, -0.0881048813f, -0.0897053257f, -0.0791330338f, 0.00175471476f, -0.064535208f, -0.0326610357f,
    -0.0152698513f, 0.0398205146f, 0.0236638933f, 0.0946800411f, 0.0920585841f, -0.0651108623f, -0.000321528205f, 0.0168538895f,
    0.089099586f, -0.0316310264f, -0.040110413f, -0.0646515414f, 0.0752051994f, -0.0289148204f, -0.0382246263f, 0.0690313429f,
    0.0939133391f, -0.00430101249f, -0.0719438195f, 0.0831582397f, -0.0349055417f, -0.0470325053f, -0.0717517212f, -0.0490849875f,
    -0.0799310505f, -0.0589113906f, -0.092973806f, -0.0205707867f, 0.0410364158f, -0.0774775371f, -0.000142536344f, -0.037636403f,
    0.0493670031f, 0.0883977041f, -0.0135295829f, -0.0513675585f, -0.0784204528f, -0.059963394f, 0.0294675399f, 0.0234173406f,
    0.054963164f, -0.015165275f, 0.0524426624f, -0.0909289867f, 0.0274361037f, 0.0990807191f, -0.101010166f, -0.0529829636f,
    0.0653366745f, -0.0159571934f, -0.0544032417f, 0.0622641444f, 0.00684154313f, 0.00399744743f, -0.0309995878f, 0.0768972188f,
    0.0566132665f, 0.0182834771f, 0.0155757703f, 0.052775342f, 0.0635853633f, -0.0418657996f, -0.0111820139f, 0.0448073298f,
    -0.0494568534f, 0.095432654f, -0.0699120983f, 0.0470960028f, -0.0733120963f, 0.0327685475f, 0.0712856203f, 0.0123034772f,
    -0.0102294246f, 0.0649023354f, -0.073284395f, -0.0688574389f, -0.0869867131f, -0.0628239065f, 0.0026489289f, -0.0462793894f,
    0.0227377843f, 0.00344405835f, 0.084941484f, -0.0442547314f, -0.0279206354f, 0.0675029084f, -0.0258067232f, 0.0977132022f,
    -0.0405368209f, -0.00111777522f, -0.0241812523f, 0.0476164967f, 0.0391066782f, -0.0543506704f, 0.0672526136f, -0.00648522098f,
    -0.025809085f, -0.00205874909f, 0.0710293055f, 0.100116394f, 0.0496622063f, 0.0178589895f, 0.0666088685f, -0.0426788628f,
    -0.053337682f, -0.0294739325f, -0.0660566911f, 0.0438832976f, 0.00969480351f, -0.0349187665f, -0.0103615299f, -0.00202365685f,
    0.0875107124f, 0.0911069289f, -0.0785718933f, 0.037405245f, 0.0394108258f, 0.0390250385f, -0.0139142098f, 0.0255243834f,
    0.0256824102f, 0.0993363932f, -0.0978186354f, -0.0387298837f, -0.0686672181f, -0.0495070256f, 0.0200385787f, 0.0622456819f,
    -0.0771803856f, 0.0663820431f, 0.0852522478f, -0.0503068641f, 0.0178136826f, -0.0523961186f, 0.0218602289f, -0.0473180674f,
    -0.0397585817f, -0.0683217049f, -0.0851091519f, 0.0814465806f, -0.01288871f, -0.00283140759f, -0.0507929362f, 0.0711372197f,
    -0.058417324f, -0.0412800349f, -0.0796707422f, -0.0858215764f, 0.0906095877f, -0.0788115039f, -0.0140904598f, -0.0295427609f,
    0.0373838916f, 0.0272983145f, -0.0782394707f, 0.0916588753f, -0.10166683f, 0.0100944955f, -0.00852661766f, -0.0236518085f,
    0.0695515648f, 0.0861722827f, 0.0132948915f, -0.0360480472f, 0.0758776292f, 0.0641221926f, 0.0183310863f, -0.0279150028f,
    0.00430290494f, 0.090966858f, 0.01106802f, -0.0201127715f, -0.086410962f, -0.0546930134f, 0.0737124085f, -0.00359395589f,
    -0.00679659424f, 0.0397387557f, -0.0671490654f, -0.00689453166f, -0.0287052672f, 0.05340074f, 0.0830601454f, 0.0640852377f,
    0.0760925785f, -0.0912126154f, -0.036233563f, 0.01208572f, -0.0866864771f, 0.0276865177f, -0.0668994859f, 0.0437346436f,
    0.0826037526f, -0.0873084739f, 0.0855217054f, 0.0476220697f, -0.0673526376f, 0.0976910442f, -0.0883943364f, -0.0687098503f,
    -0.050770089f, -0.00516824052f, 0.0183272194f, -0.0299520697f, -0.0967387706f, -0.0117811272f, 0.0774357468f, 0.0785809979f,
    0.0510912053f, 0.0148182064f, 0.0253597125f, -0.0786802322f, 0.041328758f, -0.101575322f, -0.0421483442f, -0.0268214867f,
    0.0749471039f, -0.00297515839f, -0.046489995f, 0.0178310424f, -0.0846876577f, -0.0270215552f, 0.0282661691f, -0.00675937114f,
    -0.0107184704f, 0.0623774976f, -0.0775288269f, -0.0515334979f, 0.0987926871f, 0.0203091223f, -0.0165248886f, 0.0528664775f,
    0.061398644f, -0.0170546062f, -0.0425128601f, -0.0166827422f, 0.037059404f, -0.0130294729f, 0.0593998879f, -0.0832296982f,
    -0.0500746407f, 0.0778055936f, 0.0133893564f, 0.0205523092f, 0.0335675739f, -0.0241164546f, -0.0408152044f, 0.0292798448f,
    -0.0270494726f, -0.0421614125f, 0.0134841353f, 0.0246867947f, -0.0092153009f, -0.0690237582f, -0.0154319303f, -0.0578410961f,
    0.0537167192f, -0.0676259622f, 0.0813773796f, 0.0406499244f, -0.0873970538f, 0.0757399872f, -0.100932375f, -0.00593398511f,
    -0.0637228638f, -0.0878010392f, 0.0101122577f, -0.0494854413f, 0.0737737417f, -0.0802315921f, 0.0847134218f, 0.0615734346f,
    0.0893916339f, -0.0298869088f, -0.0625591427f, -0.0678061396f, 0.084871389f, -0.0507629476f, -0.0125665776f, -0.0157314204f,
    0.0175584424f, -0.0837496072f, 0.0822962448f, -0.0755192786f, 0.100383617f, -0.0399350785f, -0.0455625504f, -0.0140286135f,
    0.0302057397f, -0.0189104471f, -0.101862386f, 0.0717884451f, 0.101090789f, 0.0514930002f, 0.0998699144f, 0.0278169159f,
    -0.00799751747f, -0.0812915564f, -0.0892023146f, -0.070269078f, -0.0258953683f, 0.0594311655f, -0.0421089604f, -0.00396399433f,
    -0.00144039863f, -0.0667154863f, -0.00276282546f, 0.0985459238f, 0.081573166f, 0.0777320564f, -0.0100659598f, 0.00181006477f,
    0.0557956882f, -0.0339483917f, -0.0413626097f, 0.0873227343f, 0.00582683133f, -0.0689126551f, 0.0859976113f, 0.0169398971f,
    0.0546088181f, -0.088641502f, 0.0189397354f, 0.0624260008f, -0.0147239203f, -0.0580122583f, 0.0816554055f, 0.0474709868f,
    0.0290677138f, 0.0241372418f, 0.00225266442f, 0.0585289188f, -0.0223114491f, -0.0600780025f, 0.0389720201f, 0.0272295754f,
    0.0388597995f, -0.011336091f, -0.0135440147f, -0.00811174884f, 0.0269118696f, -0.078317821f, -0.095127441f, 0.0381910242f,
    -0.0558790863f, -0.00858570077f, 0.028294377f, 0.0143150939f, 0.065795213f, 0.0133785829f, 0.0252679214f, -0.00913562533f,
    0.0150652891f, 0.0374234989f, 0.0696278736f, -0.0967045575f, -0.0425150879f, -0.0915837586f, -0.0406913608f, 0.0622146428f,
    -0.0967035294f, -0.0914490148f, 0.0590959974f, -0.0602711365f, 0.0745933354f, 0.0318012722f, 0.0256191399f, 0.0810789913f,
    -0.0945391282f, 0.074739188f, 0.0330983251f, -0.0683924407f, 0.0248328093f, -0.0284445062f, -0.0409665257f, -0.011053619f,
    -0.0481184535f, 0.0892463773f, 0.0878446028f, -0.0108876871f, -0.090505816f, -0.0062436671f, 0.00674325554f, 0.0682200938f,
    0.00328373746f, 0.0297046155f, 0.0270805191f, -0.0579098873f, -0.0633074269f, -0.0912195817f, -0.00080146984f, 0.0316114798f,
    -0.00725706015f, 0.0990677103f, -0.0194695219f, -0.0665979236f, 0.0170103796f, -0.0287416708f, -0.0139915543f, 0.0988925546f,
    -0.00292839878f, 0.0891550332f, 0.0136298677f, -0.0379691236f, 0.0748273879f, -0.0581372119f, 0.00337689905f, 0.0229407884f,
    0.0458087102f, -0.0941680744f, 0.00500669796f, -0.0264257509f, 0.0661732852f, 0.03433799f, 0.0409059711f, 0.0613655224f,
    -0.0228496473f, -0.00653903652f, 0.0818792656f, -0.0822605118f, -0.0705469623f, 0.00746631622f, -0.0404294021f, 0.00584516721f,
    0.0901570991f, -0.0118313506f, -0.0870212168f, -0.0463948995f, 0.0937299505f, -0.0224218443f, -0.0447517373f, 0.0459406152f,
    0.0126348399f, -0.0899855942f, 0.0849955156f, 0.0574734025f, 0.0887103826f, 0.0446620733f, -0.0344104543f, -0.0333177187f,
    0.0494612977f, -0.0197850298f, 0.0200095288f, -0.0988964513f, -0.0504513085f, 0.0379105248f, -0.00503152329f, -0.0490661673f,
    -0.0890249833f, 0.0648662299f, -0.0205203835f, -0.100278854f, 0.0984674096f, 0.049665872f, -0.0610470064f, -0.0744877309f,
    0.098623395f, 0.000426141283f, -0.0613821149f, 0.0587309934f, -0.0212593284f, 0.00699152285f, -0.0531673022f, -0.0864456147f,
    -0.0677814037f, -0.0112066604f, -0.073887229f, 0.100592777f, 0.00110462494f, -0.039072413f, 0.0403367952f, -0.0904845968f,
    -0.0522036888f, 0.0383344293f, -0.0867179036f, 0.050867781f, 0.00857880153f, -0.0850996748f, -0.10128919f, 0.0322566219f,
    0.0482412688f, -0.0204027537f, -0.0902484879f, -0.0588228144f, 0.0108474549f, 0.00371310487f, 0.026125405f, 0.0180465411f,
    -0.00534969103f, 0.0538605899f, 0.0990011021f, 0.0849982724f, 0.0927408934f, -0.0344461203f, -0.0348351188f, -0.011288139f,
    0.0301651936f, 0.0413123518f, -0.00909737404f, -0.0659242421f, -0.0770054534f, 0.0982565731f, -0.0274398439f, -0.0137955379f,
    -0.0625494719f, -0.0505980253f, 0.0224167705f, 0.0429869518f, -0.0403473377f, -0.037566036f, 0.0808490068f, -0.0525634065f,
    -0.0761465803f, -0.0159231964f, 0.0971160904f, 0.0222074613f, 0.0141021721f, -0.0127079375f, 0.0637771264f, -0.0505869053f,
    0.0691988543f, 0.0241114479f, 0.0113475276f, 0.0140504427f, -0.0629439428f, 0.0758018121f, 0.0536035448f, -0.0798241347f,
    -0.0950276479f, -0.0262736175f, 0.0678048134f, -0.0502481349f, 0.0945944339f, -0.051314082f, -0.0921924561f, 0.0448956043f,
    -0.0616802946f, -0.0160888154f, -0.0318334065f, -0.00810972974f, -0.0889336988f, -0.0936109945f, 0.043873895f, -0.0115651507f,
    -0.0615666471f, -0.00259998627f, -0.0931548998f, 0.0270914566f, 0.048469346f, 0.0989810005f, -0.0831468105f, -0.0123756947f,
    0.0553882942f, 0.0935354158f, -0.0726139471f, 0.0433723107f, 0.0421375595f, 0.0615299381f, -0.0703628957f, 0.0728328153f,
    -0.0444543101f, -0.0628238693f, 0.020265054f, 0.0864604563f, -0.0675873682f, 0.0544914864f, -0.0116886729f, 0.0325818658f,
    0.0796152055f, 0.0277117901f, -0.0847270638f, -0.0307282824f, 0.0202568881f, -0.0860981494f, 0.0169677101f, -0.0548038892f,
    -0.0202875081f, 0.0365116112f, -0.082141161f, -0.0655249953f, 0.0465507098f, -0.100943029f, 0.0702375844f, -0.0786975473f,
    -0.0016433812f, 0.020951584f, 0.0402727202f, -0.0633463189f, 0.0137347188f, 0.0439464189f, 0.0875391737f, -0.0768063664f,
    -0.0507421531f, 0.0297321975f, -0.00327645103f, -0.0688739121f, -0.0859001875f, -0.0906234533f, -0.0714173913f, -0.0434546135f,
    -0.0708714947f, -0.0895332098f, 0.00796682108f, 0.0598546565f, -0.0481206924f, 0.0102059254f, -0.00125818071f, 0.0477069765f,
    -0.070780389f, 0.00484552793f, 0.0952637643f, 0.0728636459f, -0.101154931f, -0.0153643014f, 0.000951389666f, -0.0337003358f,
    -0.06705302f, -0.0710171163f, 0.0678165704f, -0.0330420732f, -0.00656808587f, 0.0299480092f, -0.0626443848f, 0.00909693446f,
    0.0607074872f, -0.0596741922f, 0.0296935141f, -0.00348601979f, 0.0561171211f, 0.0678178817f, 0.0270775091f, 0.00308386935f,
    -0.0878577232f, 0.0406362452f, 0.0622234643f, -0.0370713472f, -0.101341277f, 0.0827071071f, -0.0239567161f, 0.0204196889f,
    -0.0286903586f, 0.0650876313f, 0.0995385274f, 0.0639761314f, -0.0324804559f, 0.0715237111f, 0.0497990884f, 0.00995735265f,
    -0.082208626f, -0.0438245386f, -0.100978352f, 0.0682622045f, 0.100886926f, 0.0594522804f, 0.0326106548f, 0.024121372f,
    0.0982488394f, -0.0517430678f, -0.0342646614f, -0.0916388705f, -0.0101064984f, 0.00700097019f, 0.0279383454f, -0.0710026175f,
    -0.0118104974f, -0.0840988234f, -0.083020933f, 0.0133030787f, -0.0996276289f, 0.0271767657f, -0.0940189734f, -0.0710170716f,
    -0.021177372f, -0.0973954499f, 0.0824282244f, 0.0836247951f, -0.0533097126f, 0.0213798638f, 0.0522121415f, 0.032432422f,
    -0.01367174f, -0.0962656066f, 0.0742129236f, -0.0895178691f, -0.0189017747f, 0.00633103214f, -0.033613164f, -0.0373295024f,
    -0.0882087946f, 0.00562351383f, -0.0115885902f, 0.0889775157f, -0.0336008258f, 0.078884922f, 0.00483159535f, -0.0458544418f,
    -0.024272142f, -0.0115820635f, 0.00105717254f, -0.016814908f, 0.0302891266f, 0.0840493441f, 0.0160423983f, 0.0369680002f,
    0.0630250871f, 0.0219995622f, 0.0470473953f, 0.0535364598f, 0.0955309719f, -0.0931468755f, 0.0349245854f, -0.00462455954f,
    -0.0183292758f, -0.0393490233f, 0.0613594726f, 0.0933646336f, -0.0832914114f, 0.0551418141f, 0.0703765228f, 0.0178377032f,
    0.00120226434f, 0.0785390213f, 0.00302597857f, -0.0254566371f, -0.00753669394f, 0.0327449292f, 0.0255499985f, -0.00550654763f,
    0.0322174169f, 0.0274872892f, -0.0826758817f, 0.0254313722f, 0.0624457747f, 0.0117046097f, -0.00931584649f, 0.078182362f,
    -0.0891692713f, -0.0465846248f, -0.0461308807f, 0.0881865248f, -0.0987161696f, 0.010122234f, -0.0988659263f, -0.00335617177f,
    0.0380421616f, -0.0238675624f, 0.0990747586f, 0.000324895838f, -0.0520340614f, 0.0263181794f, 0.0530785508f, -0.000202766532f,
    0.0873110071f, -0.0645964071f, 0.0435474701f, 0.0579541996f, 0.0506930798f, -3.74389783e-05f, 0.029134918f, -0.0800684541f,
    -0.0800933987f, -0.00634379499f, -0.0127916886f, 0.0757833347f, 0.0741096288f, 0.0692025945f, -0.0467475615f, -0.0801221058f,
    -0.0957336351f, 0.0369371846f, -0.0919658691f, -0.101883829f, -0.0515798926f, -0.0861709714f, -0.040221218f, -0.0642525032f,
    -0.052361127f, 0.0970324203f, -0.0192331672f, 0.0846640095f, 0.00226448826f, -0.0131244743f, -0.0298818126f, -0.0729563832f,
    -0.0820011571f, 0.0706696585f, -0.0314512476f, -0.0995079502f, 0.0936649218f, 0.001893198f, -0.06829454f, -0.0802258551f,
    -0.0857097805f, -0.0894932076f, 0.0923576802f, 0.0703707859f, 0.00834762584f, -0.0869844556f, -0.0266943797f, -0.0958760977f,
    0.0351724662f, -0.0270993467f, -0.0218406115f, -0.0318445899f, 0.0478517115f, 0.0552448556f, 0.0223575681f, -0.0127806542f,
    -0.0100861359f, -0.00178339181f, -0.0760015771f, 0.0995885953f, -0.0440173708f, 0.0593801141f, -0.0572154969f, 0.000685151957f,
    0.0349384584f, -0.0937109366f, 0.0468156226f, -0.0781224966f, 0.0142423091f, -0.0202387385f, 0.0585040636f, 0.0991937444f,
    0.0230011828f, -0.00291427248f, -0.0505658686f, 0.0380522348f, -0.0491245314f, 0.0421582572f, -0.0442362987f, 0.0692297891f,
    0.078284882f, 0.062582612f, 0.0010223561f, 0.0473304093f, -0.0930018276f, 0.0827691704f, -0.0265168417f, 0.0372072086f,
    -0.0172829591f, -0.0342709422f, -0.0479286686f, 0.0658320487f, -0.0555265173f, -0.0179980919f, 0.0514849685f, 0.0102864588f,
    -0.0858745426f, -0.101487443f, -0.0496195778f, 0.0941330567f, -0.0725684091f, 0.0562497228f, 0.0730572715f, -0.0423042513f,
    -0.0450710766f, -0.073426798f, 0.0159197319f, -0.0142678646f, 0.00495864218f, 0.0442702956f, 0.0428495184f, -0.0322001241f,
    0.00700970227f, 0.0242443662f, 0.0021725113f, 0.0204235632f, -0.0413440913f, 0.0836571753f, -0.010468483f, -0.0130582992f,
    -0.0916015431f, -0.0739811808f, 0.00317480322f, -0.0157841705f, -0.0513144992f, 0.0534241945f, -0.00913713034f, 0.0358938426f,
    0.0859630108f, -0.0469224937f, -0.0502318665f, -0.0205089841f, -0.00864268281f, -0.0510473773f, -0.0245033689f, -0.00294181728f,
    0.045780845f, 0.0944235846f, 0.07557749f, 0.0108016785f, -0.00643159216f, 0.026143346f, -0.00416632136f, -0.0133942291f,
    0.0350959487f, -0.0830373093f, -0.0867969021f, 0.000413408299f, -0.0309346635f, -0.0504818335f, -0.0950134769f, 0.0683669448f,
    -0.00406652875f, -0.0548351482f, -0.0415741764f, 0.0268322974f, -0.0740186051f, 0.00655501056f, -0.00125860539f, 0.0347685702f,
    0.0404873863f, -0.0666849166f, 0.0440692492f, 0.0770685226f, 0.00657067122f, 0.051995717f, -0.0386392325f, 0.0202724151f,
    0.0298222303f, -0.0471404269f, 0.0630145967f, -0.096498929f, -0.0383380055f, -0.0600517727f, -0.0605875328f, -0.0618443526f,
    -0.0961716697f, 0.0175154749f, -0.0201894827f, -0.0859369338f, -4.19763601e-05f, -0.0170015581f, 0.042103108f, -0.0799434036f,
    -0.0287125017f, 0.0210077837f, 0.0432625487f, 0.00772094587f, 0.0276585035f, 0.102024205f, -0.0353553519f, 0.0695595369f,
    0.0879146382f, -0.0902853161f, 0.024688106f, 0.0578127131f, -0.0159202907f, 0.0563276112f, 0.00347150606f, 0.0776977539f,
    0.0021975378f, -0.0653420985f, 0.0775094777f, 0.0303535424f, 0.0868308544f, 0.0253361091f, 0.0541954152f, 0.0636365488f,
    0.017185811f, -0.02372583f, 0.0210792329f, -0.071162425f, 0.00348674995f, -0.0328040645f, 0.00645277416f, -0.0808081329f,
    0.0623619407f, -0.0941632837f, 0.0437069871f, 0.0672137067f, -0.093539007f, 0.0922136605f, -0.0758709386f, -0.020041462f,
    0.0528880842f, -0.0323640071f, 0.0909557417f, -0.045024734f, -0.0136644458f, -0.0667161345f, -0.0473493487f, 0.0995963588f,
    0.0767567754f, 0.00751484884f, 0.00839175563f, -0.0866089612f, 0.0770511329f, -0.0153019335f, -0.0425692536f, -0.0812228844f,
    0.0839131027f, 0.0483963154f, 0.061474625f, 0.0105680069f, -0.0692559555f, 0.0418079346f, 0.011770674f, 0.0342492834f,
    -0.0254141912f, -0.0481644087f, 0.0837855786f, 0.0342127308f, -0.0414226279f, 0.00911398884f, -0.0221856758f, -0.00872796867f,
    0.0572319739f, -0.081232667f, 0.0923690945f, 0.0686931312f, 8.77003476e-05f, -0.0417466536f, 0.0208094865f, -0.0675554052f,
    0.0662941709f, -0.0539763495f, 0.0195013881f, -0.100411326f, 0.0488746986f, 0.069090426f, 0.0766054019f, 0.00833078753f,
    0.0602609627f, 0.0347990282f, 0.0684441179f, 0.0575941466f, -0.0892965347f, 0.0107594263f, -0.0347945429f, -0.0487340055f,
    0.0714392066f, -0.0146074975f, 0.0158545692f, 0.0642609671f, 0.0686999112f, 0.0544674061f, -0.0178188309f, -0.0909771398f,
    -0.0979775488f, 0.032080967f, -0.00121118268f, -0.0644837245f, 0.0445736349f, 0.0926402509f, 0.0590298511f, -0.0143976836f,
    0.013791075f, -0.0651014447f, 0.0481723212f, -0.0790924802f, 0.0704625323f, -0.0466165356f, -0.040478956f, -0.0854879543f,
    -0.0246805958f, -0.00987232756f, -0.0470433347f, 0.0726523921f, 0.0585735179f, -0.090075843f, -0.0102093006f, 0.0343144313f,
    0.0984687209f, -0.0244042166f, 0.0626586527f, -0.00571778556f, -0.0391449966f, 0.0624576956f, -0.0909460559f, 0.0855072215f,
    0.101942025f, -0.0278652925f, 0.0403165594f, 0.101776242f, 0.0307700131f, 0.0399128571f, 0.0374763682f, -0.0417559855f,
    0.0249130521f, -0.0543961264f, 0.0871518031f, -0.0437348336f, 0.023331793f, -0.0295650605f, 0.05104075f, 0.00168231037f,
    0.0561188795f, -0.027636569f, -0.0598909184f, 0.0391297005f, -0.0574383326f, -0.0837956741f, 0.0394325368f, -0.0613830425f,
    -0.038362354f, -0.0254842918f, 0.00724713597f, -0.0353479236f, -0.0367321558f, -0.025651997f, 0.0715239048f, 0.0305600278f,
    -0.0491363071f, -0.0705480352f, 0.00236478751f, 0.0326969773f, -0.00213574292f, 0.0597458482f, 0.0858450234f, 0.0299133211f,
    0.0336597227f, 0.0592124015f, -0.0349642076f, 0.0181038361f, 0.0825151876f, -0.0488736145f, 0.0079433592f, -0.039901901f,
    -0.0784775615f, 0.0540590547f, 0.0815527216f, -0.0551372692f, 0.0382513441f, 0.0312965438f, 0.0398514345f, 0.0561812222f,
    0.0952837914f, 0.0774647743f, -0.0893049315f, -0.0400109142f, 0.0542051755f, -0.0582640246f, 0.0200404786f, -0.0437542014f,
    0.0202704929f, 0.0497999825f, 0.0320791639f, 0.0741411746f, -0.0122815873f, 0.0554062799f, 0.0329953581f, -0.0321648978f,
    -0.0720826462f, 0.0933740065f, -0.0304298215f, 0.0768753439f, 0.0643331334f, -0.00410984643f, -0.0843036994f, 0.00821642205f,
    -0.0493386425f, 0.026557954f, -0.0405682698f, 0.0786642209f, -0.0920836255f, -0.0274754353f, 0.0160949547f, 0.0097363703f,
    0.0838472843f, -0.0322478153f, -0.0814711154f, 0.0675732568f, 0.0285190698f, 0.067232348f, -0.0604057014f, -0.0599453971f,
    -0.0412274636f, 0.00725630764f, 0.0345844999f, -0.0586501583f, -0.00960920379f, -0.0176396612f, 0.09312471f, -0.0368075259f,
    0.0989048481f, -0.0625974387f, -0.0420556217f, -0.0767648891f, 0.0751887783f, -0.0701855496f, 0.0422466658f, -0.0375038162f,
    0.101705298f, 0.0143964617f, -0.0886319727f, 0.0175651703f, 0.0124085741f, -0.0987147912f, 0.0204828028f, 0.097376518f,
    0.0293708909f, -0.00054276461f, -0.0211575907f, 0.0271218549f, -0.0454700105f, 0.100506693f, 0.0882279649f, 0.047679767f,
    -0.0380157493f, -0.0958312005f, -0.0587540753f, 0.0992339179f, -0.093680121f, -0.0974496901f, -0.00735595124f, 0.0324709117f,
    -0.101581082f, -0.0947561637f, 0.000554886647f, -0.0342349261f, 0.0711042434f, 0.0293029863f, -0.0885917395f, -0.0919890329f,
    0.070090957f, -0.018097667f, -0.044647567f, 0.0321474411f, -0.0200586803f, 0.0488106832f, 0.0258818008f, -0.0441899672f,
    -0.0818012729f, 0.05525022f, -0.0613196902f, -0.0112884222f, 0.0139547037f, -0.0593964495f, 0.0555954464f, -0.0717888474f,
    0.0250669811f, 0.0109155746f, 0.0374475047f, -0.100164972f, 0.00589563744f, 0.0497556217f, -0.0653415546f, 0.0252552554f,
    0.000399907905f, 0.0865839273f, -0.02161121f, 0.000697273994f, -0.0443903878f, -0.0251533687f, 0.0292178858f, -0.098432757f,
    0.0774246603f, 0.0733925775f, 0.0432226285f, 0.0764030293f, -0.031770397f, 0.0232470967f, 0.0051923506f, -0.0705750212f,
    -0.039237123f, -0.0362328999f, -0.0252350718f, -0.0906244069f, -0.0717788637f, -0.00969204679f, -0.0155259194f, -0.0926460102f,
    0.0218072254f, 0.0555719621f, 0.0849982724f, 0.0858953893f, -0.0713171661f, -0.0327089056f, -0.0484176949f, 0.0187191628f,
    0.0273492448f, 0.0227073114f, 0.0596417487f, 0.0538454056f, -0.0547812246f, 0.0700634196f, 0.068847537f, 0.0135063222f,
    -0.0887960196f, -0.0625969619f, 0.028442122f, 0.0352869965f, 0.095167309f, 0.0519445315f, 0.0369915441f, -0.003481013f,
    0.0695927069f, -0.0371489823f, 0.0415561497f, -0.0486106239f, -0.00095260411f, 0.0603178404f, 0.0468310006f, -0.0229030959f,
    -0.00129231904f, -0.0566577651f, 0.0472747684f, 0.0686753392f, 0.0351318754f, -0.0987611338f, -0.073061116f, 0.0683257133f,
    -0.0146136293f, 0.062678948f, 0.075230293f, -0.0298966616f, -0.0598817579f, -0.0960188881f, 0.0390404612f, 0.0523457602f,
    -0.0176939964f, -0.0990839377f, -0.0657389164f, -0.00549913431f, 0.0465812273f, -0.0341990441f, -0.0658866167f, -0.0710527152f,
    0.0913174972f, 0.0369588211f, -0.0828654915f, -0.0630304366f, -0.0866395533f, 0.0147664631f, -0.0414436646f, -0.000345496606f,
    -0.0161459614f, -0.0893387645f, -0.0912048444f, -0.0791618749f, -0.042744454f, 0.0158741195f, -0.0479971878f, -0.00363795878f,
    -0.0122252535f, 0.0933393762f, -0.0465267934f, 0.0958902836f, -0.0783512965f, -0.0851535201f, 0.0331897698f, -0.0593993329f,
    0.0523498431f, -0.0564652868f, 0.0803698897f, 0.0988253951f, 0.00653394032f, 0.0218125824f, 0.0951540619f, 0.0605037622f,
    -0.0890985206f, -0.0032670931f, -0.0921286792f, 0.0779634714f, -0.0186942033f, -0.000711422588f, -0.0627055615f, -0.0554964058f,
    0.0132456059f, 0.0842080638f, -0.0513015389f, 0.00964416936f, 0.092386812f, 0.0914689526f, -0.0199536346f, 0.0956583768f,
    0.0371676311f, 0.0929538906f, 0.00302813179f, -0.0864966512f, -0.0277815554f, 0.0306113772f, 0.0544267856f, -0.101674542f,
    0.0793885514f, -0.0915569514f, 0.0597999692f, 0.100700676f, 0.0251514539f, -0.0192622095f, 0.0561956465f, -0.0302921217f,
    -0.0756003335f, -0.07243184f, 0.0479875058f, 0.0779468715f, 0.00413275696f, -0.0989578664f, -0.100286506f, -0.0230462588f,
    0.0550948009f, -0.0680133328f, 0.0275097601f, -0.0557837971f, 0.0830387771f, -0.0267433003f, -0.0212695431f, -0.0895162076f,
    -0.0914156958f, 0.00689780246f, 0.0165024549f, 0.0551405326f, -0.0892456025f, 0.0178832933f, -0.0147437612f, 0.0598688871f,
    -0.0464069806f, 0.0304068886f, 0.0411277153f, 0.0512693636f, -0.0350060128f, 0.0328445137f, -0.0200022645f, 0.0274830721f,
    -0.0627579689f, -0.0810990781f, -0.08348497f, -0.0641586706f, -0.0431952775f, 0.0151920673f, -0.0223246664f, -0.0581011847f,
    0.000857371255f, -0.0322307087f, 0.0629138499f, -0.0840584636f, -0.0376718082f, -0.0655881315f, 0.0125934668f, 0.00556804426f,
    -0.00587119209f, 0.101265103f, -0.0389348343f, -0.0146692256f, 0.0263683517f, 0.0851817951f, 0.0773602575f, 0.0116593624f,
    -0.0386126116f, 0.033529114f, 0.0642156526f, -0.00217812904f, 0.0560352392f, 0.0835293382f, -0.0546813756f, -0.0225633886f,
    -0.0918876007f, 0.0234285761f, 0.0727382824f, -0.0198194515f, 0.0162858516f, 0.03261213f, -0.0021768997f, 0.0793468282f,
    0.0148725584f, -0.10032098f, -0.0842810199f, -0.101119064f, 0.00420660665f, 0.0551711991f, -0.013465032f, 0.0917648673f,
    -0.0183611717f, 0.0208665282f, 0.0920330584f, 0.0516525321f, -0.00325605879f, 0.0983080417f, -0.0609781556f, 0.0380154438f,
    0.0644556507f, -0.0631956756f, -0.0958708823f, 0.0326456279f, -0.0387210175f, -0.0515045188f, 0.0203005914f, -0.0740383416f,
    0.0917945653f, -0.0091616502f, -0.0326854661f, 0.0853215531f, 0.0284181759f, 0.0194450095f, -0.0487987921f, 0.0972722992f,
    -0.0310847536f, 0.0848876759f, -0.00750239147f, 0.0511979125f, 0.0717618018f, -0.0759850815f, -0.0680243522f, -0.100924f,
    0.0736131892f, 0.0877714828f, -0.0373004004f, -0.0499876365f, 0.0170841105f, 0.0549478307f, 0.0251924172f, -0.0212706383f,
    -0.0649187863f, 0.0872899815f, -0.0660964698f, -0.0986219943f, -0.0407503806f, 0.0203518961f, 0.0379353501f, 0.0394638591f,
    -0.0591241382f, -0.0391701944f, -0.0453847088f, -0.0494242832f, -0.0859637335f, 0.0208919644f, -0.0296812803f, -0.098234877f,
    -0.0595955104f, -0.0612926669f, -0.044025559f, -0.0630642697f, -0.0176994354f, 0.0365750752f, -0.0825998411f, -0.00874306355f,
    -0.0293722693f, -0.0521798171f, -0.0226625931f, -0.0432568789f, 0.0032810478f, -0.073673144f, 0.0193548352f, 0.0937060192f,
    0.0845693424f, -0.045760233f, 0.0314582661f, -0.0964690149f, 0.0859300643f, -0.10171096f, -0.0912048891f, -0.0916134343f,
    -0.0947798714f, 0.0138221812f, -0.0269884076f, 0.0244281702f, -0.00631497614f, -0.0021923969f, -0.0368729457f, -0.0605525896f,
    -0.0854516178f, 0.0514986031f, -0.0526228771f, -0.0207571611f, 0.0495707728f, -0.0252767503f, -0.0257332604f, -0.0680388808f,
    -0.0873239338f, 0.0489861742f, -0.0230269395f, 0.0641768202f, 0.00671733543f, -0.000129639448f, -0.0921412855f, 0.00225332007f,
    -0.0230655782f, -0.0582398362f, -0.0236209054f, 0.0053356546f, -0.0769015849f, 0.0169711672f, 0.0710159689f, 0.0201619752f,
    0.0974231586f, 0.0476262271f, -0.0804907456f, -0.0401728898f, -0.0245603882f, 0.0305309556f, -0.00291094952f, 0.0821286067f,
    0.0118561089f, -0.0646366701f, -0.037417382f, -0.084911257f, -0.0281413868f, 0.0501792766f, 0.000985565362f, -0.0973263532f,
    -0.0883136466f, 0.0370020196f, -0.0895797014f, -0.0814063251f, -0.060850624f, 0.0972767547f, -0.0290207751f, -0.0420801155f,
    -0.068913281f, 0.0652895123f, -0.016479753f, 0.0196810272f, 0.0243814848f, 0.0287840869f, 0.0653284341f, 0.00529633043f,
    0.0105569949f, -0.00662788423f, -0.079308711f, -0.0233566184f, 0.0971375331f, -0.0723333135f, -0.0644119903f, -0.101277106f,
    0.00618877867f, -0.095460467f, -0.0522753373f, 0.0940437242f, 0.0422703139f, 0.0543754958f, 0.017476121f, -0.0867298543f,
    -0.0474912599f, -0.082624808f, -0.0631106794f, 0.0347564705f, -0.0283071995f, 0.0997410193f, -0.0743985027f, -0.0871003568f,
    0.100775838f, -0.0881664902f, 0.0868473798f, 0.0274829082f, -0.0930241495f, 0.088893503f, -0.0277856681f, -0.0420837998f,
    -0.0796181411f, -0.0863283575f, 0.0227237921f, -0.100251034f, 0.0419397503f, -0.0252203494f, 0.0358181f, -0.0249888543f,
    0.0352947749f, -0.00278792623f, 0.0299976151f, -0.0415230393f, -0.0702026337f, 0.0129980613f, -0.0651437193f, -0.063268967f,
    -0.098139137f, -0.0325318947f, -0.0681963414f, 0.0794807598f, 0.0735505149f, 0.0242156219f, 0.0829255432f, 0.0491440818f,
    -0.0961442962f, -0.0102117816f, -0.0165668633f, -0.0619680397f, 0.0290682502f, -0.0318547674f, -0.0488036796f, -0.00118976983f,
    -0.0678576827f, 0.0844713971f, 0.0645825788f, 0.0966108218f, -0.0180771407f, 0.0333328061f, -0.00410512276f, -0.0844538584f,
    0.0461743996f, -0.0712891892f, -0.0368423089f, -0.0457056463f, -0.0995681137f, 0.00366078713f, 0.0167201143f, -0.0075876927f,
    0.0750615448f, 0.00489359861f, -0.0185903423f, -0.0556687601f, -0.0606148988f, -0.014510164f, -0.0599003695f, -0.0673272535f,
    -0.0134989163f, -0.0180205926f, -0.062300697f, 0.0596335232f, 0.0865560621f, -0.06958846f, 0.0447039157f, -0.0473576225f,
    -0.0105974665f, 0.0952749252f, 0.0130597968f, -0.0973130167f, 0.0938240513f, -0.00431816373f, -0.051105693f, -0.0538997389f,
    0.0875211433f, 0.00172252092f, 0.0563721657f, 0.0670777336f, -0.0396133102f, 0.00866275374f, -0.0660190731f, 0.085226886f,
    -0.0539695583f, 0.0677913576f, 0.0258592404f, 0.0629584789f, -0.0719095021f, -0.00317399856f, 0.052884195f, -0.00407382287f,
    -0.00146441918f, 0.049735073f, -0.0762810037f, -0.0204622168f, 0.0464882031f, 0.0500559695f, 0.0947929919f, -0.0201894231f,
    0.0241823476f, -0.0502170287f, -0.0171294697f, -0.0512366407f, 0.0756347254f, 0.000621703162f, 0.0415199548f, 0.0561385639f,
    0.0190190021f, 0.0108612757f, -0.00747004151f, -0.086453788f, 0.0164439008f, -0.0226111393f, -0.0857856423f, 0.0950891078f,
    -0.0108806174f, -0.0509375744f, -0.0993586853f, -0.0940034464f, 0.0388653874f, -0.0465915576f, -0.0440878533f, -0.0590550043f,
    0.0823848173f, -0.0245344378f, 0.0661544949f, 0.0810247362f, -0.0791285038f, 0.0761425272f, -0.0194894522f, 0.0977513939f,
    0.0521312878f, -0.0988652855f, 0.0189608652f, 0.0358772576f, -0.0370251238f, 0.0773943514f, -0.0845197439f, -0.0323847383f,
    0.0972472951f, 0.0996781513f, 0.0509840511f, -0.0609252676f, -0.0878138989f, -0.0829830691f, -0.0255141016f, 0.0578174815f,
    0.0323127098f, -0.0123944478f, 0.0917891264f, 0.080145672f, -0.0477017574f, -0.0441983975f, -0.00119743648f, 0.0211795997f,
    -0.000730637519f, 0.0394022577f, 0.0704171583f, -0.0184029397f, 0.0501216091f, 0.0138809355f, 0.0391765498f, 0.0420167446f,
    -0.0272792783f, -0.0455051623f, 0.0436246879f, -0.0653450638f, 0.053582564f, -0.0654848292f, 0.0700177923f, 0.0409511216f,
    -0.0250035394f, 0.0583377406f, -0.0336115323f, 0.0217436366f, 0.030049352f, 0.0104233921f, 0.0204956103f, -0.00202613045f,
    -0.0294851754f, 0.056941133f, 0.0402562544f, 0.0380684622f, 0.0689033121f, -0.0534006469f, -0.023712799f, -0.00290905708f,
    0.0823621079f, -0.0812727213f, -0.0585424453f, -0.0243110713f, -0.087181069f, -0.0806357414f, 0.0699143186f, 0.00476104626f,
    -0.0821061432f, -0.0168523099f, -0.00335546397f, -0.0362845249f, -0.0853692517f, 0.0555456169f, -0.0126057826f, 0.0996460691f,
    -0.0781656057f, -0.0560305268f, -0.00530240266f, -0.0710732341f, 0.0743796676f, 0.0789268091f, 0.0924610943f, -0.0644275472f,
    0.0726168528f, 0.070864737f, -0.0406097956f, 0.011199262f, 0.0486344509f, 0.0730342045f, -0.0953251868f, 0.10160993f,
    -0.0256605279f, 0.0415844619f, -0.0633893088f, -0.0785407946f, -0.0691196546f, 0.0601504855f, -0.0503435582f, 0.059329465f,
    0.0308546517f, 0.0405977108f, -0.0227009561f, -0.0322844498f, -0.0477526039f, -0.0570491776f, 0.0941039547f, -0.00554664619f,
    -0.0437676236f, -0.094958581f, 0.00444000214f, -0.101310149f, -0.00120180985f, 0.0644424483f, -0.0587842837f, 0.0560766943f,
    -0.0325566381f, -0.0784965977f, -0.101085745f, 0.050702095f, -0.078086555f, 0.0498342998f, 0.0146130556f, 0.0554698892f,
    -0.0767187774f, 0.0892522335f, -0.101656511f, -0.0774683207f, 0.0612050667f, 0.00346865994f, -0.05731114f, -0.0214089043f,
    -0.0908281505f, -0.0888250992f, -0.0218969081f, 0.0778578967f, 0.0304801725f, 0.0192458332f, -0.0270492118f, 0.0928936303f,
    0.000977474032f, 0.0344613716f, 0.00162218441f, 0.0159262884f, 0.0340341702f, 0.0783200786f, 0.0587474592f, 0.0130617041f,
    0.0408042111f, -0.0306931082f, 0.0697629079f, 0.0286506321f, 0.0770238638f, -0.0159352962f, -0.0833307952f, 0.0201618187f,
    0.0415102094f, 0.0824678764f, 0.0395581685f, 0.0377092995f, 0.081221126f, -0.0350745879f, 0.0901130065f, 0.0523263738f,
    0.0681613535f, 0.0727892891f, -0.0833830088f, 0.0531596281f, 0.0950537771f, -0.0717004016f, -0.00874736998f, -0.0622875206f,
    -0.0246448778f, 0.0152100157f, 0.0545936339f, -0.0296300799f, -0.0966443717f, 0.0551094785f, 0.0572596602f, -0.0185024627f,
    0.0873725638f, 0.0786787346f, -0.0224949643f, 0.00394124072f, 0.0179781765f, -0.0199998654f, -0.0251442567f, -0.0460705571f,
    -0.0580410324f, 0.0509709083f, -0.0303061958f, -0.0489628464f, 0.0899055004f, 0.0163179934f, 0.0736396834f, 0.093008019f,
    -0.0143774329f, 0.0152239036f, 0.0946252644f, -0.0702219456f, -0.0306008495f, 0.0145232175f, -0.00692417007f, 0.0271726828f,
    0.0536668152f, -0.0419900231f, 0.00794700999f, 0.0923365653f, -0.057751853f, -0.0692107007f, -0.0782711878f, 0.0610081926f,
    -0.0936141238f, -0.049632635f, 0.0689318031f, -0.0611839443f, 0.0829979479f, -0.047710117f, 0.0161461551f, 0.0133600309f,
    -0.00250340486f, 0.0635684654f, 0.0866831243f, -0.0637233928f, 0.0572395287f, 0.0272695106f, -0.00190187036f, -0.071362257f,
    0.0302753579f, 0.0740801096f, -0.0876034424f, -0.0942593738f, -0.100335091f, 0.0235824753f, -0.0293258298f, -0.0317031331f,
    0.0950354785f, -0.026032377f, -0.0648139268f, 0.00918056723f, -0.0560176522f, -0.029903464f, 0.0539118946f, 0.0235551763f,
    -0.070036754f, 0.0971665159f, 0.0690510422f, -0.0695738196f, 0.0444562435f, 0.04193905f, -0.0732343793f, -0.0717281997f,
    -0.0845094398f, 0.045463305f, 0.01778166f, 0.0431331471f, -0.044828061f, 0.0767425299f, 0.0130321402f, -0.0814376995f,
    -0.0256889742f, 0.0520857945f, 0.0224415734f, -0.0156136341f, -0.0713060051f, -0.0634892732f, 0.0880314186f, -0.058464516f,
    0.0723251477f, -0.0341616124f, 0.00102016563f, -0.0993865207f, -0.03317656f, 0.086035803f, -0.0916308314f, 0.0513534956f,
    -0.0858934224f, 0.0148859546f, -0.0925327241f, -0.0807954371f, -0.082394056f, -0.0353898704f, 0.0138964402f, -0.0748286918f,
    0.025866095f, 0.0614706315f, 0.0832004696f, 0.0903700069f, 0.0671962276f, -0.0300534051f, -0.00940589327f, 0.0903014913f,
    0.0507714301f, -0.0270659756f, 0.0770563781f, -0.0891941339f, 0.0873512253f, 0.0571040474f, -0.0748582035f, -0.0832427442f,
    0.0798147768f, 0.10068503f, 0.00890620798f, -0.039879065f, 0.058115162f, 0.0460444316f, -0.0127375014f, 0.0817122385f,
    0.0661537051f, 0.0254440382f, 0.0529932566f, -0.0956007019f, -0.0478065275f, 0.0111878254f, 0.0277549122f, -0.0139529007f,
    0.0385371596f, 0.0310909525f, -0.0943257064f, 0.0321920849f, -0.00829813909f, -0.0702332035f, 0.00344437873f, -0.0251009483f,
    -0.054198768f, -0.0930022746f, 0.0853809044f, -0.0619816296f, 0.0137080085f, 0.0817615017f, -0.0128579764f, -0.0668925717f,
    -0.0987402424f, 0.0169578902f, -0.0512106307f, 0.0074429363f, 0.0326006263f, -0.0289175473f, 0.0692027137f, -0.0132813165f,
    -0.0407314375f, -0.0674828812f, 0.0309656505f, -0.0631000772f, 0.0214542113f, -0.0128811775f, 0.0701423213f, -0.0500349998f,
    -0.0502777956f, -0.0131898904f, -0.0623373315f, 0.0389103591f, -0.0373850688f, 0.0418733507f, 0.05923374f, 0.0595973134f,
    -0.0187365897f, 0.0556986965f, -0.054044459f, -0.101688974f, -0.00971319154f, -0.0740014389f, -0.0790699571f, 0.0259436555f,
    0.0872140601f, -0.0401646309f, -0.00577339623f, -0.0739430338f, 0.0178380385f, 0.0290974416f, -0.0156669803f, 0.0776514411f,
    -0.0821419507f, -0.0136934575f, -0.0566513538f, 0.0896161944f, 0.0864476264f, 0.100393258f, 0.0939011499f, 0.0404221639f,
    -0.078150019f, -0.0692299753f, 0.0244665407f, -0.0911208913f, 0.0646134987f, 0.0443705171f, 0.0243513267f, -0.0890815854f,
    0.0742444843f, -0.0108017456f, -0.0428288877f, 0.0532873422f, 0.00862477906f, -0.0454011001f, 0.0238878131f, -0.068060562f,
    0.0948574543f, 0.0894566774f, 0.0470689423f, 0.0539934002f, -0.101455018f, -0.0567347445f, -0.0982104912f, -0.0531950928f,
    -0.084616594f, 0.0751246065f, 0.0550634637f, 0.0601053946f, -0.0453086905f, 0.077790007f, -0.0147478739f, -0.0264429916f,
    0.0549532548f, 0.0675883815f, -0.0733547732f, 0.0971656218f, -0.0103010247f, 0.0271830987f, -0.101626441f, 0.0113620562f,
    -0.0505119227f, -0.0639049038f, -0.0426133722f, -0.000475411711f, -0.0290754251f, -0.0653800368f, 0.0730745122f, 0.0303632282f,
    -0.0949830338f, 0.0214092098f, 0.0250713322f, 0.00375030539f, 0.0247831587f, -0.00854504295f, 0.044635877f, -0.0718492642f,
    -0.0435171872f, 0.0764549449f, -0.0632312894f, 0.0500746109f, 0.0944347456f, -0.0933261886f, -0.0447136462f, 0.0870967135f,
    -0.00617135968f, 0.0201483406f, 0.0145253558f, 0.0420594774f, -0.0420525931f, 0.0132498601f, 0.0695223883f, -0.00861018337f,
    -0.0936370119f, 0.0352781303f, -0.0260548852f, -0.0215317719f, 0.0532287061f, 0.0178866461f, -0.0617423579f, -0.0470983908f,
    -0.0155143412f, -0.0252158567f, -0.0216064043f, -0.0697600022f, 0.073936075f, 0.0529313572f, 0.0201414414f, 0.0231089182f,
    0.0119481608f, 0.0763149187f, 0.0230945982f, 0.0155472495f, -0.0561043657f, 0.034046866f, -0.0954833552f, 0.0321890451f,
    -0.0884658769f, -0.0422403999f, 0.0538822412f, -0.0607890971f, 0.0812688842f, -0.0563910939f, 0.0966717824f, 0.0314565971f,
    -0.0442288034f, 0.0622451901f, -0.0903849751f, -0.0646550655f, -0.0639425814f, 0.0134353787f, 0.0100268368f, -0.087783888f,
    0.0984853953f, -9.75425137e-05f, -0.0545005389f, 0.00243786257f, -0.043810267f, 0.0281579718f, 0.036947228f, -0.0289508961f,
    0.00594999641f, 0.0607274547f, -0.0663840324f, -0.0227585044f, -0.0150565943f, -0.0675252452f, 0.00831263047f, 0.0037510281f,
    -0.0824380517f, 0.0209365934f, 0.097414352f, 0.05428591f, -0.0553620756f, 0.0934237465f, -0.0701565072f, -0.0518927686f,
    0.0450186543f, 0.0811941996f, 0.0973959342f, 0.0878672972f, -0.056199763f, 0.0233543981f, -0.0640858933f, 0.00225385651f,
    0.0845585093f, 0.0502542704f, -0.0942409784f, -0.0439244993f, -0.0861135349f, 0.0480782799f, -0.0129562039f, -0.0746093467f,
    -0.0326131582f, 0.0334929638f, 0.00944881607f, 0.0957651138f, -0.00135501544f, 0.0321041681f, -0.0309172068f, 0.0121788075f,
    0.00365619757f, 0.0876689777f, 0.0427648686f, -0.058164075f, -0.0906875655f, -0.0971053466f, -0.0370644927f, 0.0131930048f,
    0.0960160568f, -0.010028014f, 0.0399051234f, 0.0518702641f, -0.0781791955f, -0.0844269097f, 0.0386727601f, 0.0475718379f,
    -0.0475234538f, 0.0159938727f, -0.099929601f, 0.00128645555f, 0.0250176135f, 0.000966074702f, -0.0162002221f, 0.0424810462f,
    -0.0280533154f, 0.0759739801f, -0.0879086331f, -0.0583278649f, -0.0852043554f, -0.0923047364f, 0.0756636932f, -0.0252574682f,
    -0.0801720992f, 0.0211685505f, -0.0772867128f, 0.00527590094f, 0.0485182367f, -0.0215815939f, 0.0524673946f, 0.0209475905f,
    -0.0818983093f, 0.0200875513f, 0.0657931119f, -0.0236598849f, 0.00964576378f, 0.013020413f, 0.00877648685f, 0.0265307892f,
    -0.0977197811f, 0.0774356723f, 0.0445136428f, 0.0126036443f, 0.0185711347f, -0.0823093802f, -0.0291407146f, -0.00443934649f,
    0.024260981f, -0.0559867844f, 0.0108291786f, -0.0316745676f, 0.0742885172f, -0.0876056924f, 0.0106687834f, 0.0691461712f,
    -0.0792693943f, -0.00292522484f, 0.0471618958f, 0.0411844142f, 0.0120024597f, 0.0412569381f, -0.0711467937f, 0.0850055739f,
    0.00227630488f, 0.0659733564f, 0.0225780513f, -0.0113540841f, 0.043716792f, 0.0968871042f, 0.10067524f, -0.0859099329f,
    0.00618997077f, -0.0733186081f, 0.0594660044f, 0.0732694343f, -0.0716673806f, -0.00589871453f, 0.0706244186f, 0.0674939975f,
    -0.0767369792f, 0.0685272217f, -0.0180689301f, -0.0868005306f, 0.0203305725f, 0.0475466251f, 0.0612084642f, -0.0693939999f,
    -0.0739214122f, -0.0685742646f, 0.0578395352f, -0.0891998783f, -0.000860634609f, -0.0299918931f, 0.0445605516f, 0.0200432502f,
    -0.0515385978f, 0.0178267509f, 0.0939239636f, 0.0168037917f, -0.0505760051f, 0.00341701298f, -0.0936157033f, -0.0654823035f,
    -0.0189577285f, -0.0635998324f, 0.0864272714f, 0.0198111963f, 0.0790510252f, -0.0232403316f, -0.0141942315f, 0.0257445481f,
    -0.0303469412f, -0.0347900204f, -0.100119896f, 0.0768877566f, 0.0923686773f, -0.101053432f, -0.0337679349f, -0.0771981329f,
    -0.041429393f, 0.0777005702f, 0.0545948707f, -0.00791915972f, 0.0435906686f, 0.0304797404f, 0.0557376184f, -0.0820167065f,
    0.0315479711f, -0.0966618061f, -0.06712237f, -0.0380336605f, -0.00994379353f, -0.09631598f, 0.00254002423f, 0.0162947923f,
    -0.0405047759f, 0.0331040025f, 0.0891837776f, -0.017433608f, -0.0543558039f, -0.090409033f, -0.0745256394f, -0.0564489737f,
    -0.0754514858f, -0.0401255377f, 0.0562241673f, 0.0319373198f, 0.0919905454f, 0.101331502f, -0.0367530696f, -0.0399692543f,
    0.0139666172f, -0.0812698007f, 0.0555132218f, -0.0183688235f, -0.0854591057f, -0.0770546049f, -0.0703273937f, 0.0280518476f,
    0.0782373771f, 0.0808585435f, -0.0281031579f, -0.0592830665f, -0.0452984832f, -0.069720231f, -0.0263136867f, -0.0921761096f,
    0.0545516573f, -0.0960598588f, -0.063487865f, 0.0684935451f, -0.0763429925f, 0.0243993215f, 0.0764465258f, 0.100603476f,
    0.0516421013f, -0.0273898505f, 0.0583216026f, -0.00336830877f, -0.0314696804f, 0.000332391093f, 0.0228933357f, 0.068434298f,
    0.0428417847f, 0.0487334244f, 0.01526816f, -0.00513691874f, 0.0428553298f, 0.0245480947f, -0.0976617113f, 0.0165008232f,
    -0.0453247167f, -0.0541230291f, 0.0394702964f, 0.0208704323f, 0.0172834508f, -0.0484163202f, 0.0471600033f, 0.0957778096f,
    0.0124859186f, 0.0419500023f, -0.0895414725f, 0.0606751069f, 0.0354549587f, 0.0459815934f, 0.0425609313f, -0.0268447027f,
    -0.00612625387f, 0.0987208486f, 0.0746821165f, -0.0731565505f, 0.0809780657f, 0.101574883f, 0.0134222507f, -0.0796266049f,
    0.0197836813f, -0.0206124354f, 0.0733809248f, -0.0980591252f, 0.0261179097f, -0.0011970714f, 0.00803457666f, 0.0702073351f,
    0.00184371893f, -0.0821678042f, -0.0595363304f, -0.040865846f, 0.0108849006f, 0.0393855534f, -0.0190504882f, -0.0402814671f,
    0.0447852612f, -0.0992352664f, 0.0713187009f, -0.0118643716f, 0.0710174292f, 0.0771191418f, 0.0109029235f, 0.0322848596f,
    -0.0577266812f, 0.0731254891f, 0.0597361326f, -0.0160296727f, 0.0397812687f, -0.00571679464f, 0.0797396898f, 0.0420131236f,
    0.0744076669f, -0.0927718133f, 0.0994413123f, 0.0380262323f, 0.049620498f, 0.0227422994f, 0.0670327172f, 0.0960829481f,
    -0.00869466458f, -0.0837435871f, 0.0937193856f, -0.0215239115f, -0.0492218658f, 0.0628276467f, 0.0569583736f, 0.0136642223f,
    -0.00640664017f, -0.01952447f, 0.093581222f, 0.0621845573f, 0.0607813224f, 0.0650824308f, -0.0534148701f, 0.0213099625f,
    -0.088292405f, 0.0592956543f, -0.101164214f, -0.102000751f, -0.100886017f, 0.0629380494f, 0.0106215393f, 0.000232091872f,
    0.0162333772f, -0.0386253223f, -0.0309923608f, -0.0687478632f, -0.0249251593f, -0.0628022105f, 0.00268529495f, 0.0801904052f,
    -0.0843734965f, 0.0501909591f, -0.0759131908f, -0.0422865488f, 0.019957561f, 0.017561445f, 0.0836982429f, -3.81765822e-05f,
    -0.0388720259f, -0.0422094241f, 0.00299223512f, -0.0765287057f, -0.0800222158f, -0.0436683893f, 0.00262178667f, -0.0689263791f,
    -0.0582601316f, 0.072871469f, 0.0943170264f, -0.0319692828f, -0.0875624493f, -0.0390746258f, 0.041192282f, 0.033123564f,
    -0.0316390507f, -0.0898876041f, -0.0306886919f, -0.0228204336f, 0.0587734617f, -0.0506092682f, 0.0612537637f, 0.0141578279f,
    -0.0171053372f, -0.0909552276f, 0.100762039f, -0.0181992929f, 0.0642169937f, -0.0527932234f, -0.0993906856f, -0.0813534707f,
    -0.0523050502f, -0.0325033665f, -0.0144124655f, 0.0851208046f, -0.0941271484f, 0.0509406328f, 0.0858775228f, 0.000656892022f,
    -0.0636498854f, 0.00326435873f, 0.0242129695f, 0.0451582335f, -0.0310235638f, -0.0350246094f, -0.0481496602f, -0.0987153873f,
    0.0358449221f, -0.077160053f, -0.0490305312f, -0.00105028821f, 0.0786796734f, 0.0907466039f, -0.0742355138f, 0.0885166749f,
    0.0914248154f, 0.0824490115f, 0.00888569653f, 0.0819703266f, 0.049588237f, -0.073235251f, -0.0537943244f, 0.00191943871f,
    -0.07232894f, -0.0336070322f, 0.0822862908f, 0.0475177765f, 0.0888832957f, 0.000782426272f, -0.0520412736f, 0.0675492361f,
    0.00752420677f, 0.0171875469f, -0.0432432778f, 0.0419239253f, -0.0753771886f, 0.0814427212f, 0.0892878175f, 0.0368260704f,
    0.0794780031f, 0.0619481243f, -0.0389790833f, -0.0885214135f, 0.0134302974f, 0.064082019f, -0.0104410499f, 0.00858758576f,
    0.0756473318f, 0.0421404503f, 0.0763001963f, 0.0149864471f, 0.0114405695f, -0.0244128667f, -0.0172227509f, -0.0542422161f,
    0.0682359785f, 0.0930851474f, 0.0378765799f, 0.0028999527f, -0.0336910374f, -0.100768633f, -0.0188982803f, -0.0724541396f,
    -0.075348191f, -0.0202098675f, -0.0200776495f, 0.0205884445f, -0.0739762187f, 0.073347427f, -0.0929221138f, -0.0483356677f,
    -0.0387478545f, 0.00629241578f, 0.0421902798f, -0.0268964842f, 0.0159286354f, -0.024161553f, -0.0401418395f, -0.0142760528f,
    0.0205492694f, -0.0991376042f, -0.0710392594f, 0.0797357112f, 0.0461507067f, -0.00272888062f, 0.0032231349f, 0.0140880756f,
    0.023721382f, -0.069681339f, -0.0278207082f, -0.0936696455f, -0.0802393481f, -0.0192034245f, -0.0134758949f, 0.0798270553f,
    0.0175796319f, -0.0165488496f, -0.00282756309f, 0.0570006035f, -0.0309169758f, -0.0190797765f, -0.0204742569f, -0.0822996795f,
    -0.0142643927f, -0.0943499729f, -0.0548599772f, -0.0649635941f, 0.0760282949f, -0.0940174982f, 0.0983395725f, 0.0382677205f
};

static const float unet_stream_de1_conv_bias[32] = {
    -0.068972528f, 0.0845569447f, -0.0224902406f, -0.0864446238f, -0.0141735114f, 0.0504398644f, -0.0992333218f, -0.00764831062f,
    0.0415271223f, -0.0397759788f, 0.00929554366f, -0.0400002562f, -0.0684728846f, 0.079928562f, -0.0724685788f, -0.00119654241f,
    0.033992596f, -0.0570369028f, 0.049279578f, -0.0847579315f, 0.0974739939f, 0.0454540215f, -0.0144492555f, -0.084898822f,
    0.00314745959f, 0.0362021886f, -0.0554305986f, -0.0128532527f, -0.101712152f, -0.102031246f, -0.0110843517f, 0.0853995755f
};

static const float unet_stream_de2_conv_weights[1536] = {
    -0.00480358116f, 0.0319975205f, -0.0407956168f, -0.0333258174f, -0.0112184547f, -0.0515953675f, 0.0624529123f, 0.0636455044f,
    -0.0793427154f, 0.0313042477f, -0.0421621427f, -0.0586898923f, -0.0124513479f, -0.0316556506f, -0.0581128672f, 0.0150414323f,
    0.0582540557f, -0.0157487877f, -0.00713932654f, 0.007680221f, -0.0438638628f, 0.0540325604f, 0.0941700265f, -0.00932802819f,
    0.00693794573f, 0.082234703f, 0.0835944414f, -0.0759236068f, -0.0472649708f, -0.100115165f, 0.0625118315f, 0.0796593875f,
    -0.0371464789f, 0.0327386409f, 0.0247227959f, -0.0878094584f, 0.0407566167f, 0.0500796922f, 0.00224458054f, 0.0104664192f,
    0.0237164795f, 0.0735259727f, 0.0901785865f, 0.0146689946f, 0.0435044244f, -0.0267019197f, 0.0608495548f, -0.0401460752f,
    -0.0841282308f, 0.0478846878f, 0.0378532596f, 0.0224645436f, 0.0434239879f, 0.0121449819f, 0.0347355194f, 0.0415883511f,
    -0.0550567396f, -0.00546847517f, 0.0153808417f, -0.0154952826f, -0.0858117193f, 0.00968148187f, 0.0623739213f, -0.0545823723f,
    0.100204937f, 0.0232758541f, 0.0434074625f, -0.0394106023f, -0.083487682f, -0.0379832648f, 0.00311816414f, -0.04650677f,
    0.0908926055f, -0.0653228313f, -0.0687410384f, -0.0362018161f, 0.0915647298f, -0.0466681607f, 0.0944203958f, 0.0490475819f,
    -0.0155075388f, 0.0527870394f, 0.0485209189f, -0.0519485138f, -0.0210118964f, 0.09885934f, 0.0585139878f, -0.0498489588f,
    -0.0274432264f, 0.0572046898f, 0.0518131331f, 0.0080902176f, -0.0656708255f, -0.0752771348f, -0.0215420462f, 0.0375246778f,
    -0.0108808037f, -0.085331887f, -0.0250132028f, 0.101874366f, -0.084355846f, -0.0792094991f, 0.0641589239f, 0.10155198f,
    -0.0981794447f, -0.0923084095f, -0.0319131948f, 0.101758942f, -0.0579257049f, 0.00872621778f, 0.083315596f, -0.0361307003f,
    -0.0312987566f, -0.06850712f, 0.00391871016f, 0.0952620655f, 0.0417342931f, 0.0717380643f, -0.00676171063f, -0.0162113085f,
    -0.0182337146f, 0.0582104847f, -0.0133831128f, -0.0871805474f, -0.0358387381f, 0.0399423018f, 0.0995072946f, -0.0185580887f,
    -0.0888613164f, -0.0751497522f, -0.0803027153f, 0.0411413796f, 0.0752325132f, 0.0301831346f, 0.0351903029f, 0.0664911047f,
    0.0697815642f, 0.0609442666f, 0.0570727997f, 0.027616825f, 0.0526804216f, -0.070031099f, -0.0660598427f, 0.0274486952f,
    0.0158830378f, -0.0897245705f, -0.0743516833f, -0.0812486932f, 0.0810597539f, 0.0667276904f, -0.0537201427f, 0.0153991403f,
    -0.0234749038f, 0.088724792f, -0.0924407095f, -0.0744580179f, -0.0849729106f, 0.0593976229f, -0.0510193072f, 0.0607888773f,
    0.0345001295f, -0.0498869307f, -0.0274943896f, -0.0413025431f, 0.0450269394f, -0.0409299769f, 0.034636531f, 0.00729125086f,
    -0.0815070197f, -0.0641571209f, -0.0707668066f, 0.0534797311f, 0.0221148301f, -0.00256623537f, -0.0607716627f, -0.101123355f,
    -0.0361181982f, -0.0781120509f, -0.10151694f, -0.0973422676f, -0.0666660443f, -0.0992181972f, 0.0318152197f, 0.03818864f,
    0.0411377288f, -0.101601765f, 0.063110739f, 0.0198982861f, 0.0521879867f, -0.0250843633f, 0.0490114465f, -0.0967967212f,
    0.0347629078f, 0.0809311271f, 0.0429031476f, -0.0962045416f, -0.0286510717f, -0.0126744173f, 0.0534755439f, -0.038620308f,
    0.0146791795f, -0.035828799f, -0.0162133351f, -0.00203166623f, -0.0586054325f, -0.0708402619f, 0.0842555985f, 0.0857520401f,
    -0.00308988942f, 0.088341333f, 0.0786471739f, -0.0642866939f, -0.0405550823f, -0.0701006725f, 0.032997489f, 0.0025811512f,
    -0.0139964195f, 0.0757773295f, -0.0398928486f, -0.0558573678f, -0.072553128f, -0.051921688f, 0.0983698666f, -0.0496213697f,
    -0.0280825738f, 0.0460006073f, -0.078386642f, -0.0619471483f, 0.0751181543f, -0.0391449966f, -0.0529604927f, -0.0132045532f,
    -0.0145429764f, 0.018652115f, 0.0374179408f, -0.0786941797f, 0.0927496552f, -0.0970353633f, 0.0345667079f, -0.0287973192f,
    -0.0431001484f, 0.0954704881f, -0.0983519554f, 0.00697039301f, 0.0653994828f, 0.09124244f, -0.086284399f, 0.0122967716f,
    0.100977659f, -0.0999722704f, 0.024928743f, -0.0639488101f, 0.0165683385f, -0.0923233032f, 0.0502146371f, -0.0226412546f,
    0.060996376f, -0.00153475231f, -0.0145478193f, -0.0247788299f, -0.0934517756f, -0.0433517657f, 0.00338950544f, -0.0789595693f,
    0.0895693302f, -0.0663773492f, -0.0397623777f, -0.0136485761f, -0.0826762617f, -0.000806372322f, -0.0491470508f, -0.085429512f,
    0.00250341976f, 0.0903539136f, 0.025132589f, 0.0841793045f, -0.000998082221f, -0.0356234759f, 0.0822573379f, -0.0543496124f,
    -0.0944176763f, 0.0223374739f, 0.0508649051f, -0.0610088035f, 0.0359220356f, -0.0362097286f, -0.0123834731f, -0.0225982722f,
    -0.0218302254f, -0.0830437392f, 0.02501362f, -0.0268466547f, 0.0780398995f, 0.0170352347f, -0.0834681094f, -0.077643767f,
    -0.0531907715f, 0.0488749519f, -0.0658956021f, -0.0466904007f, 0.0185292326f, -0.070759058f, -0.0502576977f, 0.0925479084f,
    -0.0539593026f, -0.0340040252f, 0.0729944929f, 0.0228703823f, 0.0801080763f, -0.089915216f, 0.0510150157f, -0.0156111233f,
    -0.0653853714f, -0.0437126048f, -0.0987215191f, 0.0706036612f, -0.0195836928f, -0.100075901f, 0.0872847512f, 0.0661058277f,
    0.0422006808f, 0.0998907462f, 0.0921671093f, 0.0953825116f, 0.0913987383f, 0.0829431266f, 0.0267186016f, -0.00854720362f,
    0.00388133083f, -0.042414505f, 0.0479544103f, 0.00295678526f, 0.0240789782f, -0.0657427162f, -0.0384290889f, 0.0765158311f,
    0.00992665719f, 0.0352206118f, -0.0891005024f, -0.0437054262f, -0.00259752758f, -0.0107098874f, 0.0651504695f, -0.0308006275f,
    0.0851803198f, -0.0197394993f, 0.0396967344f, -0.0718542039f, 0.0173232574f, -0.0995035917f, -0.0875676572f, -0.0653199404f,
    0.0285728481f, 0.00791048724f, 0.0098779751f, -0.011164356f, 0.0857571959f, 0.0999795124f, 0.043344371f, 0.0811649635f,
    -0.00504409242f, -0.0375210792f, 0.0198417138f, 0.0671091303f, -0.0157737844f, -0.0783661157f, 0.0337043963f, -0.0260170959f,
    -0.049129542f, 0.0644643828f, -0.00346419727f, -0.0583409183f, -0.0610707924f, 0.0961175337f, 0.0663856938f, -0.07318414f,
    4.8786158e-05f, -0.00220807292f, 0.0486490987f, -0.0874119103f, 0.00151685614f, 0.0340059176f, 0.0519394353f, 0.0106718605f,
    -0.0505889356f, -0.0979805887f, 0.055165641f, 0.0931784585f, -0.0308144111f, -0.0912077278f, 0.0298617631f, -0.0715552196f,
    -0.0666834563f, 0.0278205369f, -0.00969203189f, -0.00694228942f, 0.0915439427f, -0.0179018304f, 0.0621258952f, -0.0317639448f,
    0.0759444311f, 0.0311361626f, 0.0909468755f, 0.0355969816f, -0.036151994f, 0.0444839299f, 0.0869542509f, 0.0193440616f,
    0.047053311f, -0.0718026906f, 0.0553006753f, -0.0964776725f, 0.0902246162f, 0.0421538465f, 0.00671650842f, -0.095524855f,
    0.0928108245f, 0.0650786608f, 0.0940873399f, 0.0401215032f, 0.0343720391f, -0.0264373589f, -0.0418250076f, 0.0404575095f,
    0.0353954881f, -0.00330883847f, 0.0162337646f, 0.0350595303f, -0.0986278728f, -0.0902574807f, -0.0271691885f, 0.0695100501f,
    0.049794022f, -0.0974138826f, -0.0306438468f, -0.0107884463f, 0.0335212015f, 0.0834987313f, 0.00223224983f, -0.0794432983f,
    0.00626239786f, -0.0394121893f, -0.0623741001f, 0.0565308928f, -0.0137121733f, 0.0482259355f, 0.0794710889f, 0.0100307781f,
    0.0574860387f, -0.0482021868f, 0.0569723658f, 0.00407738425f, 0.0678229183f, 0.0975769162f, -0.0772049129f, 0.0968891755f,
    0.0779099166f, -0.0822176263f, 0.0299184769f, -0.0830891281f, 0.0331073552f, 0.0157827996f, -0.0974291414f, 0.0370502695f,
    -0.028034294f, 0.101732656f, 0.099612914f, 0.0352326818f, 0.0804493129f, 0.0368626639f, 0.0965602174f, -0.00942299981f,
    0.025224559f, -0.0168588292f, -0.00178488938f, -0.0307885427f, -0.0403913558f, 0.0590403564f, 0.0437973775f, -0.045053836f,
    -0.089947015f, 0.0499037392f, -0.0938835442f, -0.00451634778f, -0.0878181383f, 0.0854592994f, 0.0831063837f, -0.083878465f,
    -0.0948900208f, -0.0603436157f, 0.0281629935f, -0.0510385297f, -0.0243055578f, -0.0258704908f, 0.0187214501f, -0.0482757092f,
    0.0464191213f, -0.0730339065f, -0.00908488687f, 0.0855506882f, -0.056356214f, 0.0783035085f, 0.0531189628f, -0.0329677463f,
    0.0353913158f, -0.0689503327f, 0.00821417943f, 0.0289100148f, 0.0882792994f, -0.057111498f, -0.0580446571f, -0.0509394258f,
    -0.0994255692f, 0.0206396524f, -0.0844834894f, -0.0273978077f, -0.0455379859f, 0.00570637127f, 0.0309602562f, -0.0741666704f,
    -0.0301300716f, -0.00981208216f, -0.0589999892f, 0.023577394f, 0.0377828218f, -0.0727373585f, 0.0802526921f, 0.0725249425f,
    -0.0306618027f, 0.0151858833f, 0.0124268131f, -0.0140816532f, -0.0684974045f, 0.0841008052f, 0.0502247959f, -0.0852896646f,
    -0.0790993199f, 0.0970559493f, 0.0162895247f, -0.0234482009f, 0.0691709816f, 0.0293201525f, 0.0366371237f, 0.0809694529f,
    -0.00796568859f, 0.0972519442f, -0.0716915801f, -0.0621044785f, 0.0172931589f, -0.0123907598f, 0.0582415834f, -0.0277533103f,
    0.016049007f, -0.0212071668f, 0.0766223595f, -0.00669447705f, 0.00156658108f, 0.074769631f, 0.0992220268f, 0.0976581126f,
    -0.099788025f, -0.0576709807f, -0.022162497f, -0.0210699271f, 0.0590362735f, 0.0460957959f, -0.00839474332f, 0.00241781306f,
    0.0218674634f, 0.0879828557f, 0.0528896637f, -0.0514808297f, -0.0522829555f, 0.0322766937f, -0.0103231082f, -0.065476656f,
    -0.0987829119f, 0.0146193663f, -0.0298043415f, -0.0593830794f, 0.0191987976f, 0.0993859544f, 0.0847704634f, 0.0581915304f,
    -0.0769750848f, 0.0582495704f, 0.0527880974f, 0.034052141f, -0.0254238471f, -0.00177720049f, -0.0553580485f, -0.0229901113f,
    -0.016800819f, -0.0144577194f, -0.101570547f, 0.0360060483f, -0.0835058615f, -0.0763250962f, 0.0414747894f, -0.0835454911f,
    0.0973651186f, 0.0977286249f, -0.032433331f, -0.0175893549f, -0.078082718f, 0.00630967878f, 0.0186605118f, -0.0559873953f,
    0.032004822f, -0.00392784458f, -0.030085599f, -0.000353103591f, -0.0989308134f, -0.0718954578f, 0.0135096451f, 0.0985631347f,
    -0.0604942031f, 0.0654298663f, 0.00934061222f, -0.0439100824f, 0.000111825204f, 0.0489308909f, 0.0121423146f, 0.0903468207f,
    -0.0193159133f, -0.0681547597f, 0.0922267437f, -0.0291488506f, 0.0647581071f, 0.06731949f, 0.0180755612f, -0.0837667659f,
    -0.100198224f, 0.0484523736f, 0.0249531511f, 0.0593859106f, -0.0899576843f, -0.0140612312f, 0.0881813243f, 0.0536211729f,
    0.0848166421f, 0.080130741f, -0.0250425804f, -0.0695022568f, -0.0608581193f, 0.0346628316f, -0.0405118912f, 0.000404773105f,
    0.0162873715f, 0.0633574501f, 0.0569200926f, 0.058250688f, 0.00414808234f, 0.057618808f, -0.0477802083f, -0.0408499166f,
    -0.01615973f, -0.0592697337f, 0.0910387114f, -0.0156394504f, 0.0296717882f, -0.00317317899f, -0.00139589654f, -0.0543978885f,
    -0.00749307079f, -0.0912935734f, -0.0488068201f, 0.0785425827f, -0.095728755f, 0.0167953428f, 0.016259633f, -0.0976845995f,
    0.019934129f, 0.0473887026f, 0.0739213526f, 0.0191034544f, 0.0797791332f, 0.00384161924f, 0.0388877243f, 0.0301294904f,
    -0.0752533302f, -0.0224039778f, -0.0718724728f, 0.0793016329f, 0.0486893617f, -0.0432849824f, -0.0186767764f, 0.0272458475f,
    -0.0889898613f, 0.00288190739f, 0.048685234f, 0.0127883954f, -0.00939072482f, 0.0656156391f, 0.0443954617f, -0.0907322019f,
    0.0600645803f, -0.0804987773f, 0.0573307239f, 0.0859406441f, 0.00940598268f, -0.0344938487f, -0.0527194925f, -0.0453193747f,
    -0.0188132096f, -0.0423128642f, 0.101317778f, -0.044023782f, 0.0423748158f, -0.0946443975f, 0.051730074f, 0.0868455172f,
    -0.0731646195f, -0.0260403119f, 0.0243253242f, -0.0976961106f, -0.064576298f, 0.0354954451f, 0.0961057916f, -0.0304902755f,
    -0.000929485075f, -0.0985235274f, -0.0979635343f, 0.0887606442f, 0.086610198f, -0.0311052054f, -0.0403570347f, -0.0066070077f,
    0.0473556519f, -0.0986311361f, -0.0565341152f, -0.0336467288f, -0.044423297f, -0.00269619515f, 0.0744445175f, 0.0222839564f,
    -0.0923638046f, 0.0943949446f, 0.0821788833f, 0.0321346112f, 0.0499571152f, 0.0381532796f, 0.0836561769f, -0.098162435f,
    -0.063534759f, -0.0129611436f, -0.0194141492f, -0.0677819848f, -0.0978768468f, -0.0779469386f, -0.015851574f, 0.0866374224f,
    0.0676647797f, 0.0294185746f, -0.0626845509f, -0.0410589688f, 0.00983207207f, -0.0946014524f, -0.00465912279f, 0.0207543448f,
    0.0922724903f, -0.026790984f, 0.100181289f, 0.00769992033f, -0.0708089322f, 0.0964608118f, 0.0884850845f, -0.0806446671f,
    -0.0592053831f, 0.0488007143f, -0.0627991706f, 0.0693969652f, -0.0486968122f, -0.0316761993f, -0.0292985234f, 0.0973699912f,
    -0.0345130861f, -0.0198454391f, 0.0617550798f, -0.0698299482f, -0.000491616665f, -0.0788348019f, -0.0942006633f, -0.0233018417f,
    0.0112824617f, 0.0870348215f, -0.0978762135f, -0.0293677393f, 0.0268582702f, 0.0385395437f, 0.0596297979f, -0.0820665881f,
    -0.0249513332f, 0.0235998053f, -0.0818132535f, 0.0514301024f, -0.0973838419f, 0.0636849031f, 0.0331817083f, -0.0289904289f,
    0.0331109129f, 0.0864439905f, 0.0750805885f, 0.0619057603f, -0.0594130941f, 0.0293283034f, 0.076591216f, 0.0180007219f,
    0.0675717965f, -0.0632967949f, 0.0717342794f, -0.00338547467f, -0.0915682316f, -0.0264569689f, 0.0902067944f, -0.0356545448f,
    -0.0176767111f, -0.040828567f, -0.055493705f, 0.0176818445f, 0.0619139262f, 0.0120682856f, -0.00629491173f, 0.00590394484f,
    -0.0765349641f, -0.0537760146f, 0.00510711642f, -0.081577234f, 0.0505513251f, 0.0155562051f, 0.00107468129f, -0.00654963125f,
    0.0862008482f, 0.0931438729f, 0.0498339869f, 0.0506909639f, -0.0494874977f, 0.0417212546f, -0.0690308958f, 0.0441084988f,
    -0.0724721178f, -0.000558254309f, 0.073972702f, 0.0677720308f, 0.0902434215f, 0.0348155089f, 0.0396180414f, 0.0273694806f,
    0.0745268017f, 0.0535570681f, 0.0301152598f, -0.0356109664f, -0.0493940972f, -0.0252332464f, 0.0487077348f, -0.0555563271f,
    0.0278840009f, 0.0892939121f, 0.0864202976f, -0.0751425475f, 0.0290910192f, 0.0667352453f, -0.0927047133f, 0.065229252f,
    -0.0635935888f, -0.07379549f, -0.043263182f, -0.0383888632f, -0.042196501f, 0.0293834228f, 0.0395387523f, 0.039665889f,
    0.0704662576f, -0.0645752773f, -0.0969104618f, -0.0818766654f, -0.0560956039f, -0.0466838814f, 0.0448472053f, -0.0738579929f,
    -0.074621357f, 0.0546572171f, -0.0649408177f, 0.0191429053f, -0.0778208673f, 0.0389420837f, 0.0637751594f, -0.0858489871f,
    0.034716595f, -0.053508006f, 0.0647722036f, 0.0917948335f, -0.0861015767f, 0.0381759591f, 0.0689266473f, 0.0927913785f,
    0.0770827532f, 0.0200725384f, 0.00596664101f, 0.0210286435f, -0.0608471185f, -0.0199968256f, -0.00157399429f, -0.0645832494f,
    -0.00452531083f, -0.0135581633f, -0.0357302129f, -0.0313472003f, -0.101645797f, 0.0972642079f, 0.0503064245f, 0.0737870932f,
    -0.0868786499f, -0.0999188945f, 0.0758996233f, -0.0179222971f, 0.0159092415f, 0.0511776768f, 0.00652196724f, -0.00338014751f,
    0.0606448427f, 0.0815351829f, -0.028442055f, -0.0871360451f, -0.0559641421f, 0.0729357675f, 0.00887477398f, 0.0873894319f,
    -0.0357026458f, -0.096705623f, 0.031694714f, -0.043492306f, -0.0610183775f, 0.063629441f, 0.00709755905f, -0.00871501956f,
    0.0993946567f, 0.0889094919f, -0.0833762735f, -0.0938208476f, -0.0504695103f, -0.0792426988f, -0.0536501259f, 0.0688563436f,
    -0.0679114461f, 0.0936061367f, 0.0318436809f, 0.00443293154f, 0.0174575988f, 0.0215422995f, 0.0328388512f, -0.0830061138f,
    -0.00177506218f, 0.0677058026f, 0.101398647f, -0.00539922249f, -0.0729093477f, 0.0469054468f, -0.0933810249f, 0.0909702107f,
    0.0627286881f, 0.0459699556f, 0.0139411883f, 0.0741916299f, -0.0412287191f, -0.0851279572f, -0.0564183258f, 0.0759483203f,
    -0.0510088429f, -0.0813806579f, 0.0223552883f, -0.0633986667f, -0.00432004873f, -0.0647802055f, 0.021564234f, -0.0166616049f,
    0.0134661719f, 0.0471767373f, -0.0657169521f, -0.034797553f, -0.0680568367f, 0.084990032f, -0.0365429111f, 0.0384361893f,
    0.023554625f, -0.100692034f, -0.0724552721f, -0.0262298156f, -0.0782413557f, 0.0541181676f, 0.0641557947f, -0.000187232159f,
    0.0124971094f, 0.0268957615f, 0.0339453444f, -0.019740751f, -0.0401593596f, -0.0631072968f, 0.00406404026f, 0.080704987f,
    -0.0126863979f, 0.0878188834f, 0.0356997997f, -0.0525142029f, 0.0396430008f, 0.0408811308f, -0.0454233028f, -0.0178894699f,
    -0.0105993962f, 0.0360282063f, 0.0796384066f, -0.0224464163f, 0.0663675144f, 0.0550310686f, -0.088434346f, 0.0746118724f,
    -0.00413376279f, 0.078776665f, 0.0794992819f, -0.0988307148f, -0.0849978253f, -0.0116176922f, 0.0327964127f, -0.0162431076f,
    -0.0982562378f, 0.0555166639f, -0.0583615042f, 0.046333544f, 0.0720894039f, -0.0344242081f, 0.0614661314f, 0.0135719543f,
    -0.0320409425f, 0.00662080618f, 0.0367020331f, 0.0522433594f, -0.058565367f, 0.0762859359f, -0.0482711941f, -0.0879185125f,
    -0.04412058f, -0.0903574079f, 0.0285772886f, 0.00687083136f, -0.00497004157f, -0.0690743476f, 0.0538028032f, 0.0167145487f,
    -0.025614975f, 0.0180825051f, 0.0359960794f, -0.0613180585f, -0.0293958131f, -0.0463481061f, 0.0903321579f, 0.0252364501f,
    -0.0770246014f, 0.0720790029f, -0.0162060037f, 0.00702463277f, 0.0132053802f, -0.0119199231f, 0.0966208354f, 0.0442100205f,
    0.0219739471f, -0.0371054634f, 0.023490401f, -0.0743120909f, -0.0352867357f, 0.0517498031f, -0.100449272f, -0.00256767333f,
    -0.0376162268f, 0.0521426424f, -0.0637520626f, 0.0176654328f, -0.0294236634f, 0.0856235772f, -0.0152290892f, -0.0745307654f,
    -0.0317078941f, 0.0719492286f, 0.0390755944f, 0.0218521077f, 0.063642107f, 0.039412763f, -0.0130856875f, -0.0540556982f,
    -0.0976686105f, 0.0490822569f, 0.079593502f, -0.0390081182f, -0.0458725691f, 0.0175969843f, -0.00942987669f, 0.0783646479f,
    -0.00176680693f, -0.00307419105f, -0.0948853716f, 0.0311512128f, 0.000354660762f, 0.0240778159f, 0.0623984635f, 0.0434193239f,
    0.000194399574f, -0.00786354952f, -0.0515500717f, 0.0921652168f, 0.0849503949f, -0.00041354241f, 0.101942129f, 0.0896227956f,
    0.0586759783f, 0.0524639376f, 0.0404061154f, -0.017903477f, 0.010142439f, 0.0830320567f, -0.0171968676f, 0.0318521895f,
    -0.0329381451f, 0.0167489182f, 0.0592758954f, 0.0634753481f, 0.0499406941f, 0.0485647433f, -0.0245011263f, 0.0929363072f,
    0.0717081428f, 0.0966193452f, -0.0825206563f, -0.0462489352f, -0.0847470462f, 0.00904107746f, 0.0779845417f, -0.0697559193f,
    0.0267108232f, -0.00204221625f, -0.0950245932f, -0.00400784099f, -0.0119832233f, -0.0495010875f, -0.0636927858f, 0.0603377931f,
    -0.0104736164f, -0.0202279948f, -0.0283755139f, -0.0130496342f, -0.0281510577f, -0.0611430518f, 0.0435455777f, -0.00150880206f,
    -0.091269277f, -0.0512510724f, -0.0208223462f, -0.0389280915f, 0.0240765642f, 0.0954812318f, -0.0736606345f, -0.00149763376f,
    0.0886804163f, -0.0594925322f, -0.0796581507f, 0.0272223484f, -0.00118914398f, -0.00133512251f, 0.0641208664f, -0.0873295069f,
    -0.0610600747f, 0.0708353519f, -0.0716523528f, -0.0137023162f, 0.0473840982f, -0.0557368062f, -0.0791449174f, -0.0609488115f,
    -0.0759505257f, -0.0874601975f, -0.0167263355f, -0.0947384834f, -0.0620769933f, 0.00753208948f, 0.0950384289f, 0.100636631f,
    0.0853103325f, 0.0112989349f, 0.0635482296f, -0.0319094099f, -0.0656188279f, 0.0512197129f, 0.0402631238f, 0.0359245092f,
    0.0474927872f, -0.0256465357f, 0.0750799626f, 0.0556225069f, -0.0444071032f, 0.0750073045f, 0.0367810093f, 0.00347876293f,
    0.00153312064f, 0.0877230689f, 0.00331590907f, 0.0358926505f, 0.0744807869f, 0.00551665807f, 0.0924594402f, -0.0604134277f,
    -0.00997173972f, 0.00825322047f, 0.00553446449f, -0.0741859376f, 0.0973952189f, -0.0572699457f, 0.0736651868f, -0.0407159254f,
    0.0405814089f, -0.0562364794f, -0.0444474258f, 0.026907891f, 0.0701832995f, -0.00820266828f, 0.0382745452f, -0.0562977418f,
    0.0322618969f, -0.0114672948f, -0.0232535694f, 0.0502505749f, -0.0338786691f, -0.0623312965f, -0.0289502256f, 0.0508976877f,
    0.0977059305f, 0.0922612548f, 0.0712934881f, -0.0629853904f, 0.0911428705f, 0.0415491909f, 0.0181405526f, -0.0591666438f,
    -0.054224439f, 0.0263300259f, -0.00904914644f, -0.0288328566f, -0.0779063255f, 0.0869916826f, 0.0315966681f, 0.0134105086f,
    0.00958906487f, 0.0549200848f, -0.0615480058f, -0.00407561846f, 0.0900848284f, -0.0158426929f, -0.087387003f, -0.0608853251f,
    0.0632747933f, 0.0537476242f, 0.0704446211f, -0.0360705778f, -0.0474537872f, -0.0902303755f, 0.00704155304f, -0.0220609177f,
    0.0968355462f, -0.045979321f, -0.0648529157f, 0.0413897187f, -0.0372380093f, -0.00947550405f, 0.101815537f, 0.0636578575f,
    -0.101723649f, 0.00492223864f, 0.00321196648f, 0.099816598f, -0.0882372633f, 0.0628294647f, -0.100216195f, -0.100330859f,
    -0.0523177274f, -0.09761516f, -0.00627869181f, 0.0824180618f, -0.0283144936f, -0.0773996711f, -0.0087802941f, -0.0830684751f,
    0.0692419335f, 0.0147562558f, 0.0905174986f, 0.0432964191f, 0.0364939086f, 0.0343904421f, 0.09480156f, -0.0638472512f,
    -0.0624123998f, 0.0784921274f, 0.0370397791f, 0.0935901031f, 0.0237879902f, 0.0369510427f, 0.0629026592f, 0.0665015504f,
    0.0560028143f, -0.0800369754f, 0.0295441467f, -0.069844678f, 0.0131741101f, 0.055872459f, -0.0341136381f, 0.0885502249f,
    0.0908710584f, 0.0293827523f, -0.0738335699f, 0.00213013263f, 0.0794119909f, 0.0183312949f, 0.0889128596f, 0.00738539593f,
    -0.047267504f, 0.0666011646f, 0.0337748043f, 0.0563501865f, -0.0609833263f, -0.0773856118f, 0.0683580637f, 0.0357045233f,
    0.0746683776f, -0.0850924477f, -0.0469637774f, -0.00323431799f, -0.0530095845f, 0.0637640432f, 0.081059128f, 0.0884616449f,
    0.0143320439f, -0.092680335f, -0.036608126f, 0.0236777514f, -0.0275437869f, 0.0435871221f, -0.0272746738f, 0.0843364075f,
    0.0884084031f, 0.101125896f, 0.0338010304f, -0.0690923035f, -0.0264148656f, -0.0544661209f, 0.0459055528f, -0.00895450264f,
    0.0408648141f, 0.0296254754f, -0.0313251317f, 0.014140185f, -0.0156759508f, 0.017670529f, -0.0675644726f, 0.00188945036f,
    0.0777950436f, 0.0528046228f, -0.0633953214f, 0.0851532593f, -0.0390197486f, 0.0912232026f, -0.0208104327f, 0.09845303f,
    0.0600192361f, -0.00843684655f, 0.0687656999f, 0.0866882801f, -0.079828918f, 0.0183460396f, 0.0698663965f, -0.0105685657f,
    0.0646014139f, 0.0796118602f, -0.080947049f, 0.0556495227f, -0.0937762335f, 0.063901715f, -0.0564341657f, -0.0317656957f,
    0.0249607507f, -0.087883614f, -0.00351830292f, -0.0357063189f, 0.0322919823f, -0.00604959531f, -0.0927515179f, -0.0251983181f,
    0.0159193445f, 0.055883605f, -0.0582684763f, -0.0620505884f, 0.0459808335f, -0.0612640269f, -0.0403405242f, -0.102011956f,
    -0.0245865844f, -0.0813817009f, 0.0159898642f, 0.0826493502f, 0.0453246497f, -0.0850864351f, 0.0914884731f, -0.0912084058f,
    -0.0391601808f, 0.0572610162f, 0.0484282337f, 0.0562453419f, -0.0242881607f, -0.0893784314f, -0.0999293774f, 0.00836281013f,
    -0.0987374485f, -0.0672782734f, 0.066696845f, -0.0157122575f, 0.0356215984f, -0.0802931041f, 0.0161779989f, 0.0919660479f,
    0.018554952f, 0.0180022791f, -0.0629829988f, -0.0737956464f, 0.0594983399f, -0.0913736597f, -0.00625210861f, -0.0817804039f,
    0.00717313727f, -0.10000895f, 0.0337875597f, 0.00017366471f, -0.0671123043f, -0.0380025245f, -0.040785715f, -0.0458143614f,
    -0.0254507363f, 0.018804187f, -0.0587230958f, 0.0257577952f, -0.0841007009f, 0.0961155817f, -0.0611717291f, 0.0433988944f,
    -0.0698604584f, -0.0696627721f, -0.0149811944f, -0.0581412502f, -0.0285551902f, -0.0443943888f, -0.02854353f, -0.0788982287f,
    0.0995399132f, 0.0575632118f, -0.0364600308f, 0.0741144568f, -0.0454716533f, -0.083374314f, 0.0326904804f, -0.0351206474f,
    0.0767584145f, -0.0274641775f, -0.083098501f, 0.0860609412f, 0.0229092129f, 0.0309752021f, -0.00987047981f, -0.0811538398f,
    0.0328563899f, 0.000275647762f, -0.0675738975f, 0.0581610426f, -0.0955720395f, -0.0633423254f, -0.0237970501f, -0.0956639946f,
    -0.0918812007f, -0.0306629576f, -0.0192393735f, 0.0748675913f, 0.0476269871f, 0.0948940516f, 0.0317019112f, 0.0136499172f,
    -0.019668689f, -0.0430559069f, -0.091432251f, -0.0932219177f, 0.0434268489f, -0.0646027476f, -0.0418682098f, 0.0476966053f,
    -0.0630913898f, 0.0377348997f, -0.00564772775f, 0.0210603308f, -0.0464911498f, 0.0744193047f, -0.0834789947f, -0.0952823982f,
    0.0796302408f, -0.06895262f, 0.0979736894f, 0.0453325324f, 0.0393905453f, -0.0126388781f, 0.019197233f, 0.0261730738f,
    -0.0479932204f, 0.075123623f, 0.0627289116f, 0.00600083126f, 0.0292633194f, -0.0123874368f, -0.0368653536f, -0.0786715969f,
    -0.0392078273f, -0.0977395698f, -0.0320960991f, 0.0533977449f, 0.0990248546f, -0.0933931768f, -0.084843047f, 0.0842381492f,
