#include "resnetv2_stream.h"

#include <string.h>

static const float resnetv2_stream_stem_weights[48] = {
    -0.00432252884f, 0.309715867f, -0.475185335f, -0.424894571f, -0.222368985f, 0.15482074f, -0.0114391446f, 0.457774997f,
    -0.0512363911f, 0.152774155f, -0.174482793f, -0.113487065f, -0.551570714f, -0.382368743f, -0.237997115f, 0.0213871002f,
    0.228246868f, 0.346423328f, -0.391409457f, -0.251414567f, 0.209703505f, 0.479424715f, -0.11881879f, 0.43203795f,
    -0.0930592418f, 0.0610917807f, 0.522776961f, -0.535590708f, -0.363463879f, -0.146165013f, -0.225051105f, 0.498831034f,
    -0.374226689f, -0.265773296f, -0.403360248f, -0.540723741f, -0.337022722f, 0.496289134f, 0.257624269f, 0.279825807f,
    0.0303637385f, -0.295997947f, 0.0976788402f, -0.539068878f, -0.417173803f, -0.297641367f, 0.364272177f, 0.338512719f
};

static const float resnetv2_stream_stem_bias[16] = {
    -0.256051987f, -0.020832181f, 0.369250536f, 0.573963046f, 0.229140043f, 0.0779958963f, 0.387105465f, -0.339945197f,
    0.107585788f, -0.447622836f, -0.400153458f, -0.298249662f, 0.261235416f, 0.23218739f, -0.341994882f, 0.174421608f
};

static const float resnetv2_stream_block1_bn_scale[16] = {
    0.999994993f, 0.999994993f, 0.999994993f, 0.999994993f, 0.999994993f, 0.999994993f, 0.999994993f, 0.999994993f,
    0.999994993f, 0.999994993f, 0.999994993f, 0.999994993f, 0.999994993f, 0.999994993f, 0.999994993f, 0.999994993f
};

static const float resnetv2_stream_block1_bn_bias[16] = {
    0.0f, 0.0f, 0.0f, 0.0f, 0.0f, 0.0f, 0.0f, 0.0f,
    0.0f, 0.0f, 0.0f, 0.0f, 0.0f, 0.0f, 0.0f, 0.0f
};

static const float resnetv2_stream_block1_conv1_weights[768] = {
    0.0792368874f, -0.0182178151f, 0.00551100308f, 0.0334435217f, 0.0895431936f, 0.138591394f, -0.111229368f, -0.0528950877f,
    0.0567258149f, 0.119590193f, 0.12560299f, 0.127356574f, 0.0287251379f, -0.125512809f, 0.0132779116f, -0.0902979001f,
    -0.134515315f, 0.12824221f, 0.109747931f, -0.143980041f, 0.0270158183f, -0.0243149903f, -0.0237522349f, -0.0660711825f,
    0.0555056222f, -0.0854912177f, 0.0529126413f, 0.0729923174f, 0.103326641f, 0.053969156f, -0.142855257f, -0.0936308578f,
    0.0720695555f, 0.0302098971f, -0.112594858f, -0.0831119642f, 0.135784775f, 0.0972567424f, -0.0629344955f, -0.0363273881f,
    -0.137495011f, -0.00259432383f, -0.108694144f, -0.111335188f, -0.0079529034f, 0.0216714703f, -0.0591103099f, 0.0856462419f,
    -0.0878346115f, 0.130966932f, 0.0989140272f, -0.121716797f, -0.0359231755f, 0.00651286263f, 0.0210589003f, 0.0342329815f,
    0.0566418618f, 0.0086458046f, -0.070426099f, 0.0682986081f, -0.138454944f, -0.0855494142f, -0.0361318178f, -0.0703084022f,
    -0.0504938439f, -0.118301608f, -0.0307026301f, 0.0308529232f, -0.0940305144f, -0.00740727037f, 0.103323646f, -0.0148378611f,
    0.00401144708f, -0.01245178f, 0.0292110909f, 0.0917750597f, 0.136722535f, 0.0916619599f, 0.13703534f, -0.0104386732f,
    -0.12966089f, -0.0684268102f, 0.0982797146f, -0.000935654156f, -0.0717421025f, -0.110607028f, -0.135077938f, -0.121821478f,
    -0.0292768124f, 0.0791551992f, 0.0780344307f, -0.139203042f, 0.0900347307f, -0.112944946f, -0.0305142961f, -0.0585246421f,
    -0.0278014783f, -0.0283394828f, -0.129520655f, -0.124625899f, -0.0225857552f, 0.00186658464f, -0.0655686036f, 0.0543715768f,
    -0.129911587f, -0.00974090025f, 0.126932606f, -0.0588738434f, 0.130336612f, 0.0522721335f, -0.130258352f, 0.0913215354f,
    -0.0166556742f, -0.0644329563f, 0.115419433f, -0.116637915f, 0.0154880555f, -0.0302196201f, 0.10307277f, 0.04029084f,
    0.0693546161f, 0.0509738438f, -0.0347093605f, -0.0303548239f, -0.118945308f, 0.0782080665f, 0.114600293f, 0.0987588614f,
    -0.10181208f, 0.00643740362f, -0.101747967f, -0.0794551522f, -0.0841058716f, 0.0493263975f, -0.0860122293f, -0.00314903166f,
    0.0060719843f, 0.0930428579f, -0.109107114f, -0.0990890041f, -0.083810851f, 0.101026177f, -0.0518840402f, 0.121746495f,
    0.0521932915f, 0.0182767939f, -0.00107444287f, -0.0285327267f, 0.0181094091f, -0.0329585522f, -0.00101416791f, 0.0184163712f,
    -0.112901017f, -0.0756514743f, 0.116550967f, -0.117136084f, -0.0103642717f, 0.142783582f, 0.0521398112f, 0.00408660807f,
    -0.125083745f, 0.0715012848f, -0.102808356f, -0.0409720726f, -0.0484273694f, -0.0213744696f, 0.00157879991f, 0.119050115f,
    0.0180188417f, 0.129281476f, 0.0882926509f, -0.0912517682f, 0.0647356659f, -0.102031142f, -0.0611735806f, 0.042452734f,
    0.0476588905f, 0.108285539f, -0.046464324f, 0.000231056256f, 0.074308008f, -0.13958703f, 0.104352742f, -0.119355373f,
    0.00198932481f, -0.024539683f, -0.0760183111f, 0.0190771464f, 0.119354844f, -0.0421924777f, -0.0856919289f, -0.0533813685f,
    -0.143059224f, 0.0651527792f, -0.0693197474f, -0.096321784f, -0.0831526592f, 0.0829873383f, 0.076436989f, 0.110781685f,
    0.0523543134f, -0.0482026897f, -0.0403346643f, 0.0426414274f, 0.1186499f, 0.039244052f, -0.0682923049f, -0.0678494871f,
    -0.136466011f, 0.0311836824f, -0.0809993148f, -0.128687248f, 0.126565561f, -0.0937339589f, -0.0164199844f, 0.0413515717f,
    0.00459832652f, -0.0971216261f, -0.116670609f, 0.115048371f, 0.0235036183f, 0.119745404f, -0.0483875684f, 0.0425151996f,
    -0.0330063999f, -0.00641882187f, -0.0879075155f, 0.0488148555f, 0.0456343852f, -0.00297746062f, -0.0324616656f, -0.0889735296f,
    0.099815391f, -0.107447825f, 0.059129823f, -0.0485337712f, -0.0696379095f, 0.0259293951f, -0.074976787f, 0.0332559012f,
    0.0283449963f, -0.107168585f, 0.0240318757f, 0.0614772774f, 0.0571330003f, -0.0181689393f, -0.118325554f, -0.0222501084f,
    0.0501292981f, -0.0526652075f, 0.0547875389f, 0.096122928f, -0.0753657073f, 0.00142342632f, 0.0596831441f, 0.0113128154f,
    0.0120566776f, 0.0180226862f, -0.113470078f, 0.0113431839f, 0.0999489054f, 0.130063921f, 0.0848341063f, 0.0193415806f,
    0.0674073622f, -0.0702169389f, -0.119610265f, -0.124118298f, 0.143991858f, 0.0916234851f, -0.0997704938f, 0.056470722f,
    0.1089985f, 0.144281268f, 0.126207411f, 0.111825533f, -0.0330905616f, -0.0506538078f, 0.118507594f, 0.0808834285f,
    -0.0868588835f, 0.129761308f, 0.0697375908f, 0.0786831304f, -0.0904669166f, 0.0414102077f, -0.0505990759f, 0.112778544f,
    -0.0259720571f, 0.0561921299f, 0.0256373789f, 0.0614107288f, -0.0490496308f, 0.0703745112f, -0.100815088f, 0.0325991958f,
    -0.0976571292f, -0.142393723f, -0.11591053f, 0.113949619f, 0.078091383f, 0.135419101f, 0.115631297f, -0.128899366f,
    -0.0984999537f, -0.0233223233f, -0.0937370062f, 0.100227006f, -0.10911978f, -0.0704221576f, -0.139442578f, -0.081946604f,
    0.118713796f, 0.118177243f, 0.103321753f, 0.111446418f, 0.128342375f, -0.0369593203f, 0.0635085031f, 0.128594086f,
    0.0477493405f, 0.144290119f, 0.0748621672f, 0.089726761f, -0.0505167618f, 0.06925679f, 0.0165852513f, -0.0344701409f,
    -0.0813640952f, -0.0809898004f, -0.111064427f, 0.0968976989f, 0.102613561f, -0.0164273605f, -0.0835257098f, 0.111558743f,
    0.0923018157f, 0.0107291397f, -0.0681465194f, 0.132652447f, 0.0590252019f, -0.109572649f, 0.138142318f, 0.109605625f,
    -0.0526094623f, 0.0811396018f, -0.0820106119f, -0.0226196479f, 0.122556582f, 0.00596387684f, -0.102077633f, -0.0482421257f,
    -0.0391795374f, -0.0278467331f, 0.0138131287f, 0.133486971f, 0.00772783766f, -0.0891193375f, 0.00739788264f, 0.0692076609f,
    0.0715968758f, -0.131915003f, -0.0258279871f, -0.107263133f, -0.0615864508f, 0.0520036146f, -0.10249795f, 0.053653881f,
    0.122509971f, 0.00946680922f, -0.0961987302f, -0.05171372f, 0.0315179899f, -0.110030577f, 0.0717080384f, -0.131039023f,
    -0.138750032f, -0.140246421f, -0.0292806495f, 0.0970568433f, -0.136611789f, 0.11997091f, -0.0577380359f, 0.0422739647f,
    0.00658218237f, -0.130151287f, 0.119702727f, 0.0777172297f, 0.143470198f, 0.0729207322f, -0.0952722728f, 0.120461188f,
    0.00775729725f, 0.0684469044f, -0.115733474f, -0.041515097f, -0.1417211f, -0.0562181175f, 0.0311379507f, -0.113327764f,
    0.0460094139f, 0.0774810016f, 0.0201074667f, -0.0965733752f, -0.111907199f, -0.0445303172f, 0.0633578375f, 0.142373353f,
    0.0829978734f, -0.0162536725f, 0.0506068766f, -0.141603515f, -0.123278283f, 0.0673487112f, -0.0817545801f, 0.0694398209f,
    -0.101892024f, -0.071491614f, -0.118888669f, 0.0753208324f, -0.0147072235f, 0.111081786f, 0.0893260539f, 0.0798677206f,
    0.0046413159f, -0.044625774f, -0.0313834026f, 0.0191824511f, 0.0715491474f, -0.101120934f, 0.121138714f, -0.0156937502f,
    -0.120946422f, -0.0780945793f, 0.127711788f, 0.131999969f, -0.133696273f, 0.101800531f, 0.0723357275f, 0.0854356512f,
    0.122185364f, -0.077790387f, 0.0455780737f, 0.0590674318f, -0.0426505767f, 0.0483027808f, -0.0415276438f, 0.0892378837f,
    -0.0400469229f, -0.0538081527f, 0.0363366567f, 0.0511953644f, -0.0705188885f, 0.0127591295f, 0.0836483538f, -0.0143610416f,
    0.0439266004f, -0.0348121636f, 0.0505900085f, -0.104556769f, -0.0848742202f, -0.0732640177f, 0.132647112f, -0.0388387516f,
    -0.000394089031f, -0.0699305534f, 0.144090027f, 0.1409695f, -0.108856916f, -0.117009528f, -0.109406307f, -0.000696104253f,
    -0.0367920287f, -0.0944750533f, -0.0517695993f, 0.0272696894f, -0.0754146576f, 0.0319825299f, -0.0330987349f, -0.0699403435f,
    0.0198297855f, 0.118682146f, -0.0975831449f, 0.00670219585f, -0.053226769f, 0.141638637f, -0.136941493f, -0.138370141f,
    0.142227352f, -0.0913204774f, 0.027672749f, -0.0124571444f, -0.0304055624f, -0.0322373174f, 0.0917174816f, 0.00689886045f,
    -0.140528455f, -0.0852107182f, -0.0492044762f, 0.072632663f, -0.0934052393f, 0.136098027f, -0.0321480446f, -0.0259174071f,
    0.113096297f, 0.0725448057f, 0.122415021f, 0.0834908336f, -0.0437851436f, -0.0957635194f, -0.0107390936f, 0.119458586f,
    -0.0484423004f, -0.133853644f, 0.0591677725f, 0.140507802f, -0.0410902761f, -0.119514309f, -0.130922124f, 0.0361707173f,
    -0.0109291421f, -0.0728882626f, 0.0291750766f, 0.0548131838f, 0.11479383f, 0.112060554f, -0.021604877f, -0.127271488f,
    -0.130426109f, 0.134765819f, 0.0638048574f, 0.0629175007f, -0.124883272f, 0.133658186f, 0.136736512f, 0.130315989f,
    -0.121760398f, -0.0544616692f, -0.0992696509f, 0.136682034f, -0.0620186515f, -0.0658976436f, 0.0756199285f, -0.0667691231f,
    -0.0710890889f, -0.0126253627f, -0.0138735818f, -0.112435289f, 0.120329015f, -0.0636701137f, 0.0511984192f, 0.125541836f,
    0.0727914497f, 0.0204351861f, 0.122810014f, 0.0194026604f, -0.0667783916f, 0.136542588f, 0.0341617242f, -0.140826687f,
    -0.0410914831f, -0.0983175635f, 0.126547739f, -0.0238366351f, -0.131566629f, -0.00907349493f, 0.0906453952f, 0.0374987796f,
    0.0456399433f, 0.0134050325f, 0.0538114756f, -0.0351679586f, -0.0574172251f, -0.134912878f, -0.108734272f, 0.0625559539f,
    -0.0854637772f, 0.020707503f, 0.0460710898f, 0.0102196122f, -0.0935807601f, 0.13803342f, -0.0839318037f, 0.118717134f,
    -0.114821151f, -0.0347200073f, 0.0785147324f, -0.0589732416f, 0.121249162f, -0.0993263349f, -0.121209972f, -0.0650842413f,
    0.0233321059f, 0.132899001f, -0.0689065382f, 0.05161893f, -0.0361862592f, -0.0313012227f, 0.106131382f, -0.111859016f,
    0.0153304916f, 0.135735691f, -0.0198336449f, 0.112068631f, -0.0444495156f, 0.11618571f, -0.139621407f, -0.0208023563f,
    -0.0253522471f, 0.0467774011f, 0.0566273034f, 0.110824272f, -0.0215041675f, -0.00572368596f, 0.0988435f, -0.0390536711f,
    0.126530513f, -0.096101217f, -0.0156186633f, -0.00775246928f, 0.0644045249f, 0.0986796618f, -0.0228779372f, -0.119580276f,
    0.0715177804f, 0.0431757346f, 0.0579800084f, -0.0890367329f, 0.0928945541f, 0.136709362f, 0.012524304f, -0.1348176f,
    0.101323009f, -0.107018732f, 0.0331790112f, 0.0209747106f, -0.0675549209f, 0.0502574444f, -0.129099593f, 0.0328740776f,
    -0.0915024802f, -0.0156076662f, 0.0185658745f, 0.122966982f, -0.0688660368f, 0.0924673975f, -0.0183356684f, -0.0685495734f,
    -0.125688478f, -0.132431716f, 0.140960917f, -0.0359975472f, 0.00720945839f, 0.0391314887f, 0.0981103927f, 0.123187758f,
    0.117059655f, -0.106936723f, -0.0231251903f, -0.0854095444f, -0.0824671164f, 0.0342377201f, 0.135481477f, -0.115628809f,
    0.0873532966f, -0.0748338476f, -0.0281131044f, 0.114570372f, -0.032644704f, 0.0131426984f, -0.10089615f, 0.122865416f,
    -0.0186583959f, -0.105566591f, 0.0422633104f, -0.102626003f, -0.114532344f, 0.00879287813f, 0.11443653f, -0.0408450179f,
    0.0679345727f, 0.12403173f, 0.0957329869f, -0.0757134855f, -0.0158221815f, -0.0454206206f, -0.116064563f, 5.96341488e-05f,
    0.108604096f, 0.121606037f, 0.0134667233f, 0.0327822268f, -0.0624865443f, 0.108951561f, -0.0600597821f, -0.10026399f,
    0.0222269371f, 0.0865134001f, -0.130132869f, 0.130475819f, 0.051922448f, -0.101124234f, -0.0310912356f, 0.125223756f,
    -0.110740229f, -0.0421863683f, 0.0473396331f, -0.126451358f, 0.0791252032f, 0.0751342028f, 0.0895185024f, -0.0920215398f,
    0.143759638f, -0.0855573341f, 0.144097328f, -0.138518676f, -0.128599793f, 0.0886511505f, 0.0150850704f, 0.00832669716f,
    -0.079927735f, -0.0605457611f, -0.0422022827f, -0.140606523f, 0.00750099821f, 0.0255272593f, -0.000122203812f, 0.0466107465f,
    0.136954159f, 0.0383768678f, -0.0528377332f, -0.0594013482f, -0.0923475176f, -0.100057013f, -0.0232454278f, -0.0255282205f,
    0.0642100498f, -0.0616948791f, 0.115065865f, -0.101278305f, 0.000410226901f, 0.129747272f, 0.143526405f, -0.0836088806f,
    0.0257105734f, 0.0170494504f, -0.067672573f, -0.0498676412f, 0.0390942059f, -0.100366823f, 0.0238149613f, 0.0624581128f,
    -0.0568788424f, 0.119892113f, -0.00949887652f, 0.0654874593f, 0.14293769f, -0.0441192053f, 0.0784338191f, -0.0412845574f,
    -0.0210837107f, -0.0244609304f, -0.000896702695f, -0.0545259006f, 0.0338306688f, 0.00543867331f, 0.0914936587f, -0.0292145479f
};

static const float resnetv2_stream_block1_conv1_bias[16] = {
    0.0144741256f, -0.0536919087f, -0.120875426f, 0.0584083982f, 0.0184690468f, -0.0578045547f, -0.0488009974f, 0.0377471633f,
    -0.0260985382f, 0.0943206474f, 0.00817568973f, 0.0545213185f, 0.0628870279f, -0.0354154035f, 0.0624494851f, 0.106510967f
};

static const float resnetv2_stream_block1_conv2_weights[768] = {
    0.0066421777f, 0.0282458365f, 0.00524458289f, 0.0999346226f, -0.0609386414f, -0.0767254978f, 0.0628956109f, -0.125619024f,
    0.00231409073f, -0.066379562f, 0.0952676386f, -0.134383917f, 0.0875165612f, 0.142801344f, 0.0292052776f, -0.0096167326f,
    0.142078668f, -0.0616829917f, -0.0115662813f, -0.0632061362f, -0.0199245363f, 0.031370163f, 0.0192779303f, -0.0272617489f,
    -0.144314557f, 0.00739067793f, -0.00427556038f, 0.0217136741f, 0.110598683f, 0.140297472f, -0.0856329501f, -0.00900009274f,
    -0.057832256f, -0.13302809f, -0.10502854f, 0.135469615f, 0.0841576159f, 0.0775310844f, 0.0802146196f, -0.114673167f,
    0.0151582211f, 0.134337068f, -0.0805527642f, 0.128401875f, 0.0379374623f, 0.101547763f, -0.061832428f, 0.0665421784f,
    -0.127953485f, -0.00916479528f, 0.048143968f, 0.0432860404f, 0.120782852f, 0.141834319f, 0.131312102f, 0.096907109f,
    0.101478264f, -0.0186238438f, -0.112012714f, -0.0535820201f, -0.0162039846f, -0.0779980794f, 0.0737811625f, 0.0506664217f,
    0.023289144f, 0.0348662883f, 0.126793653f, 0.0525722653f, -0.126575306f, -0.10477186f, 0.0636167377f, 0.0196702182f,
    0.0703922212f, -0.144152805f, -0.133204713f, 0.0885116011f, 0.0923248976f, -0.130583778f, 0.0547884107f, -0.112705156f,
    0.109307945f, 0.0452917516f, 0.14271909f, -0.142315671f, -0.138950333f, 0.0975869149f, 0.128146231f, 0.0884327292f,
    0.0959599167f, -0.121571392f, 0.104473501f, -0.136275887f, 0.0322452486f, -0.0945461243f, -0.0573302284f, 0.0255576819f,
    -0.0567506477f, -0.0228375122f, -0.136806667f, -0.136092022f, 0.0559110492f, -0.0610949844f, -0.0878134742f, -0.0569530427f,
    -0.118005849f, -0.115383476f, 0.0863676071f, 0.0733584315f, 0.0192262679f, -0.0788457841f, 0.048021242f, 0.00648438931f,
    -0.10315413f, 0.0310599804f, 0.131425679f, -0.14197135f, -0.143528149f, 0.01849325f, 0.108689398f, -0.0878279284f,
    0.0317740589f, 0.101467177f, 0.0445016325f, 0.0312362015f, 0.144009322f, 0.0940319747f, -0.0811793506f, 0.0124760419f,
    0.0737380683f, 0.127292663f, -0.143606186f, 0.0781595558f, -0.0419057906f, -0.141338408f, 0.0320391953f, -0.0785793439f,
    0.0204543918f, -0.0937107205f, -0.108618207f, -0.0122471899f, -0.0484866947f, 0.0844179541f, 0.0124445111f, 0.112663925f,
    0.0270492882f, -0.0464133769f, 0.0977646858f, 0.00788733363f, 0.0270909667f, -0.0464222208f, 0.000517994165f, -0.0277522355f,
    -0.0122711957f, -0.112565883f, -0.000887662172f, -0.119806573f, -0.0310514569f, 0.083650291f, -0.100365162f, -0.0972909927f,
    -0.035243839f, -0.0395678431f, 0.0244345367f, 0.0239622891f, 0.0731930733f, -0.0994313434f, -0.0101860762f, 0.0807267427f,
    0.124847889f, -0.0105287731f, -0.0835166276f, 0.0414916575f, 0.0821969658f, -0.0901748836f, -0.0837581381f, 0.0637969524f,
    -0.0101131499f, -0.136326641f, -0.083222881f, 0.0585336238f, -0.0489557981f, 0.0996259749f, 0.114104599f, 0.0209967643f,
    -0.011413455f, -0.0458166599f, -0.00729854405f, 0.0262724608f, -0.110252395f, -0.0344960541f, -0.120060124f, 0.0885878801f,
    -0.0919193998f, 0.131858677f, -0.0372074544f, -0.0826874226f, 0.0693474412f, 0.0215177089f, 0.0999474078f, 0.0602565706f,
    -0.139046073f, 0.091292128f, -0.0271807611f, -0.0637930259f, 0.0916621238f, 0.10526976f, -0.12686272f, -0.0130514801f,
    0.118530959f, 0.0559000373f, 0.121599972f, -0.0494642928f, -0.0796227232f, 0.124117255f, 0.0601631999f, 0.138561547f,
    -0.0602893084f, -0.0926743597f, -0.0169182271f, -0.135905355f, 0.0565767437f, 0.106461704f, 0.0346492231f, -0.0142615438f,
    0.0715634823f, -0.0916184634f, 0.141197234f, -0.143521145f, -0.138267487f, -0.0341072083f, 0.117901355f, 0.0144519061f,
    0.0554322302f, -0.10580042f, 0.0526378602f, -0.0161287785f, 0.0578539073f, 0.101937339f, 0.0627406836f, -0.0122779608f,
    -0.00889107585f, -0.0905256644f, -0.0522072017f, 0.0937960446f, -0.0578788668f, 0.0896393657f, -0.0572344512f, -0.0336160511f,
    0.00307181478f, -0.132453606f, -0.00144121051f, -0.0145486146f, -0.012966767f, -0.0288536847f, 0.113792449f, 0.106519282f,
    -0.0978258327f, 0.0670486689f, -0.113215871f, -0.12287765f, 0.0441213846f, 0.0021212548f, -0.0673343912f, -0.139214128f,
    -0.0558782816f, 0.0482086837f, -0.133599058f, -0.140218958f, 0.0183124691f, -0.103981376f, -0.126451299f, -0.0556112751f,
    -0.0232384726f, -0.131160304f, -0.0963781923f, 0.00946390629f, -0.136106238f, -0.0202872828f, -0.0931991562f, -0.10006018f,
    0.0567291379f, -0.11109513f, -0.109383941f, 0.0823130459f, 0.0269862562f, 0.131450087f, -0.0385807753f, -0.069717221f,
    -0.0133579373f, 0.000730261207f, 0.110078216f, -0.143771753f, -0.0102769434f, 0.0638480335f, -0.0794842467f, -0.073343806f,
    0.0697536916f, -0.138302118f, 0.034201622f, -0.111744195f, 0.0717446953f, -0.123414457f, 0.0887394249f, -0.136634648f,
    -0.121325359f, 0.00212708116f, 0.113736331f, -0.123610057f, -0.0643831715f, 0.126769155f, -0.0242050365f, 0.0597968251f,
    -0.138852477f, -0.0453914106f, -0.0732992589f, 0.121685416f, 0.0599058419f, -0.105319604f, 0.0232711136f, -0.00165893137f,
    -0.0593039542f, -0.0824278146f, -0.0478967801f, 0.113770694f, -0.103468716f, -0.1028179f, -0.0445308983f, 0.00251094997f,
    0.0392903984f, 0.00433129072f, -0.0347457528f, -0.0875191092f, -0.0258988664f, -0.0581035689f, 0.116614461f, -0.140499562f,
    -0.0920670182f, -0.117431626f, -0.0263786688f, 0.112478435f, 0.126517534f, -0.125653833f, -0.00625368953f, 0.0847212672f,
    0.063623637f, 0.118227452f, -0.00400365889f, -0.0969793648f, 0.0954837054f, -0.0494954586f, 0.0747359842f, -0.0355700403f,
    0.0613570511f, 0.129820943f, 0.13421306f, -0.131356567f, -0.095476456f, -0.059678793f, -0.0920442194f, 0.138491899f,
    -0.0127477199f, -0.0957449675f, -0.0642286912f, -0.0797269568f, 0.0588881969f, -0.1258986f, -0.134580791f, -0.142282367f,
    0.0621408075f, 0.0713683814f, -0.089645043f, 0.035792619f, 0.106547773f, 0.0209724456f, -0.0305391699f, 0.0106640011f,
    -0.0154769868f, 0.0726738423f, -0.0980068445f, 0.0731939375f, 0.0813520551f, -0.0874504745f, 0.117860794f, 0.141766161f,
    -0.0569020137f, -0.0404281393f, 0.0719314218f, -0.113077f, 0.0570794493f, 0.0336746424f, 0.0909802616f, -0.125372589f,
    -0.119913459f, 0.0648262054f, 0.0519919395f, -0.134344533f, -0.080491215f, -0.132065773f, -0.103406742f, -0.0651250556f,
    0.119444877f, -0.0287305191f, 0.0829004496f, 0.13707462f, 0.0657792836f, -0.129212484f, 0.072633937f, 0.0550553352f,
    0.111871064f, -0.142379507f, 0.0887699127f, 0.118146271f, -0.134286582f, 0.0151015073f, 0.123217106f, -0.104977891f,
    0.0473599434f, 0.0637795031f, 0.0378294438f, 0.143511355f, 0.118180662f, 0.123835087f, -0.017991215f, 0.121057719f,
    -0.13451001f, -0.0778887868f, -0.0308710858f, -0.0428764522f, 0.133323848f, 0.0680790097f, 0.0929263979f, 0.0981797725f,
    -0.107820675f, -0.0167173147f, 0.0210768282f, 0.0375411212f, 0.0742230862f, -0.0574328974f, -0.0435227454f, 0.120773196f,
    -0.0387379453f, -0.100262836f, 0.0978666097f, 0.0977389812f, -0.0452594832f, -0.028855972f, -0.1065038f, -0.120535396f,
    0.0542780757f, -0.0616599321f, 0.11490649f, -0.115572989f, -0.0199510679f, 0.00311650336f, 0.0741818696f, 0.116816819f,
    0.0977460444f, 0.0635368228f, -0.0662500486f, -0.103078336f, -0.129126236f, 0.00715981424f, 0.139990151f, -0.0274158344f,
    -0.00607639551f, -0.104889244f, 0.0443130285f, 0.0915076137f, -0.142304704f, -0.101631284f, 0.106911957f, 0.0341740251f,
    -0.00899888575f, 0.0258015394f, -0.0219453573f, -0.100886896f, -0.134873331f, 0.0949319601f, -0.0171670318f, -0.0536051318f,
    -0.0372557119f, -0.0787250325f, -0.0427503809f, -0.123901442f, 0.108014077f, 0.0589391589f, -0.0727925301f, -0.0492643192f,
    0.064755246f, -0.0534489825f, 0.0380609035f, 0.0397421271f, -0.0908595175f, 0.0361567736f, 0.00883117318f, 0.126062095f,
    -0.0522242188f, -0.0371046439f, 0.124361336f, -0.117866397f, 0.0104281604f, 0.139069587f, -0.0647163391f, 0.138373852f,
    0.128076583f, 0.134282976f, -0.0137731433f, 0.130572557f, -0.0628906712f, -0.049407497f, 0.0545931756f, 0.030490905f,
    0.0795697719f, 0.137166768f, -0.0903537422f, 0.0766038001f, 0.0482902378f, 0.076147899f, 0.0684408844f, -0.0539923459f,
    -0.114078067f, 0.115525573f, -0.0823064148f, 0.0922789276f, -0.137502238f, -0.0249707401f, 0.00152981281f, 0.0249738097f,
    0.0116670877f, 0.0454816669f, -0.0160712004f, 0.0353489071f, 0.142834187f, -0.0933939219f, -0.00788035989f, -0.0550969765f,
    0.126646042f, 0.1235587f, -0.00393597782f, -0.050032109f, -0.0891812965f, 0.103279233f, -0.00993961096f, 0.135938495f,
    0.0823102146f, 0.126339346f, 0.114159971f, -0.0937966481f, 0.0422479212f, -0.0598508567f, 0.0724218339f, -0.0129773617f,
    0.0124952942f, -0.0998251289f, -0.128998175f, 0.0543536246f, 0.0335419476f, 0.0125375688f, 0.0980332941f, -0.0602716729f,
    0.0512370616f, -0.0794955865f, 0.0299067348f, -0.0329520553f, 0.101083443f, 0.126220673f, 0.125360608f, 0.00649291277f,
    0.0851148665f, -0.1442132f, -0.0846675783f, 0.025796473f, 0.000804960728f, -0.113315515f, -0.0638854802f, -0.0674134567f,
    -0.143004194f, 0.0137655884f, 0.0983940512f, 0.0585813373f, -0.0685795322f, -0.132540166f, -0.116448224f, 0.00267735124f,
    0.0992917269f, -0.0584527552f, -0.0785405636f, -0.0769978017f, -0.0124951154f, -0.13707085f, -0.127369896f, 0.142084539f,
    -0.0688369051f, -0.0260332525f, -0.038617909f, -0.126801446f, -0.025445722f, 0.0441841334f, -0.0586093664f, -0.00615164638f,
    -0.000690445304f, -0.143688753f, 0.104892477f, 0.11659196f, 0.0984101444f, -0.0474002212f, 0.0754255056f, -0.135233104f,
    -0.0357071906f, -0.0293559954f, -0.0509727597f, 0.0606217831f, -0.0657685399f, -0.0167292804f, -0.0416779593f, -0.135544956f,
    -0.0238359943f, -0.122322656f, 0.0841638297f, 0.0771430731f, 0.135214269f, -0.0484689549f, 0.00733987987f, 0.0282743871f,
    0.14408043f, 0.132301748f, -0.0747003928f, -0.122817218f, -0.13008976f, -0.0695071593f, 0.121357083f, 0.0484757125f,
    0.139264554f, 0.106986016f, 0.00209255517f, -0.0894568712f, 0.140945733f, 0.115783453f, 0.0624899417f, -0.0788463354f,
    0.113706142f, 0.0131370127f, 0.0954408944f, 0.0602416992f, 0.0766444504f, -0.126652747f, -0.0800324604f, 0.0865695626f,
    -0.0300706923f, -0.125570759f, 0.131260484f, -0.00312137604f, 0.116434783f, -0.112816662f, 0.0496945381f, -0.054367438f,
    -0.0607394651f, -0.0301044509f, -0.0534259602f, 0.079091236f, -0.0274240077f, 0.109439284f, 0.0329353958f, -0.0223023593f,
    -0.0833692923f, -0.132166013f, -0.0421064869f, -0.133661151f, -0.0267415196f, 0.00235909224f, -0.00930166245f, -0.0709010512f,
    0.100179464f, 0.0812880099f, -0.0355614722f, -0.057028614f, 0.0907436013f, 0.125577182f, -0.132161036f, -0.0311854631f,
    -0.0133948326f, -0.0522589907f, 0.123222291f, -0.0213203058f, 0.122376382f, 0.000713542104f, -0.0156564862f, -0.0841923431f,
    -0.0479931682f, 0.0465098321f, 0.0638459176f, -0.0051355511f, 0.137531012f, -0.0999007672f, 0.0553409606f, 0.130001336f,
    -0.0250977576f, 0.114590913f, 0.00237931311f, -0.108086444f, -0.0791859552f, 0.0537246764f, -0.0624619275f, 0.0347147733f,
    0.142065018f, 0.0490286499f, -0.0135085285f, 0.0360778868f, -0.0831591859f, -0.121280089f, -0.108498484f, -0.121114016f,
    0.0296208858f, 0.0281145275f, -0.0613388494f, -0.141183883f, 0.0781883448f, -0.0818984732f, -0.0240968242f, -0.121024437f,
    -0.0814292207f, 0.0602118522f, -0.134483203f, -0.0823070034f, 0.108214229f, -0.0740233362f, -0.0600669309f, -0.0405262038f,
    0.0616984069f, -0.0946810544f, 0.0144720674f, 0.0589478463f, -0.0104779303f, 0.0260989219f, -0.110107556f, 0.0652549267f,
    0.0539432019f, -0.0181045681f, -0.119348451f, 0.0577314943f, 0.0941862464f, -0.0252457857f, 0.0680317283f, 0.0535000265f,
    -0.0577303395f, -0.010019958f, 0.143679172f, 0.000681430101f, -0.114909083f, -0.0105262995f, 0.0718068779f, -0.0471151918f,
    -0.0755872056f, 0.118902147f, 0.076356262f, -0.024521932f, 0.00737404823f, -0.0152655393f, 0.0335102081f, 0.00512968004f,
    -0.0873437077f, 0.0267420262f, 0.00377511978f, 0.0093319267f, -0.0550052971f, 0.0369825512f, -0.116718009f, 0.0431458354f
};

static const float resnetv2_stream_block1_conv2_bias[16] = {
    0.0782155693f, -0.0158848017f, -0.112121448f, -0.000524684787f, 0.000204890966f, -0.124737211f, -0.102089263f, 0.133503407f,
    0.107938319f, 0.0799923092f, 0.099991098f, 0.0555646122f, 0.0812315494f, 0.095597893f, -0.0337183625f, -0.0183484852f
};

static const float resnetv2_stream_block2_proj_weights[512] = {
    -0.184983283f, 0.00560766459f, -0.0350195765f, 0.0112961233f, -0.0717253685f, 0.198488921f, -0.0130671859f, 0.103300303f,
    0.107657582f, 0.227784544f, 0.0898939371f, -0.24921608f, -0.207256109f, -0.236191958f, -0.245093584f, -0.208002061f,
    -0.00364390016f, 0.23661226f, -0.161801398f, 0.105176032f, -0.114068151f, 0.193671286f, 0.162594467f, 0.116160125f,
    0.220242053f, -0.188558429f, -0.212284118f, -0.127723604f, 0.0506694615f, 0.221012741f, 0.165059894f, 0.0781442523f,
    -0.0443821847f, -0.141946226f, 0.248627365f, -0.218825608f, -0.172452301f, 0.147127509f, 0.195027053f, 0.0657061338f,
    -0.00436753035f, -0.029702723f, 0.0325616598f, -0.125787944f, 0.247163087f, 0.249681622f, -0.0967510045f, 0.173576027f,
    -0.0594219267f, -0.181352317f, 0.0429209769f, -0.0477802157f, 0.207897961f, 0.0173250139f, -0.0548349023f, -0.198589683f,
    0.163547993f, 0.166858703f, 0.0351625383f, -0.0219016671f, -0.0837552249f, 0.057947129f, 0.239913344f, -0.0411892235f,
    0.0228098631f, -0.238184839f, 0.0638228357f, -0.107112646f, -0.0592738986f, -0.132581949f, 0.231517404f, 0.17023778f,
    -0.10766086f, -0.0613151491f, 0.0761469901f, 0.0940769017f, -0.117697358f, 0.101529717f, 0.0397495627f, 0.143661022f,
    -0.135097116f, -0.161421001f, 0.116237819f, -0.00975480676f, -0.108940244f, 0.196214914f, -0.0278099179f, -0.16696015f,
    -0.035682261f, -0.11582619f, -0.0863410234f, -0.205805868f, 0.199561089f, 0.219973505f, -0.210899115f, 0.156390518f,
    0.0730724931f, -0.101377726f, -0.0733237565f, 0.0426156521f, 0.053037405f, 0.212248683f, 0.238886893f, 0.0144282877f,
    0.235158265f, -0.147854626f, 0.00211635232f, -0.206475496f, 0.119758755f, 0.0498623252f, -0.151437998f, -0.190758646f,
    -0.0496403277f, -0.0944247246f, -0.101878196f, -0.217735708f, -0.159284234f, 0.207494557f, -0.122957379f, 0.101758957f,
    0.0170268118f, -0.0341233611f, 0.0817869008f, 0.188249588f, 0.0778996944f, 0.0271013081f, 0.202930927f, 0.0206870735f,
    0.0549508333f, 0.243754506f, -0.180984408f, 0.181621701f, -0.120095313f, -0.01284042f, -0.144682348f, 0.164958924f,
    -0.201075256f, -0.110757232f, 0.0431952477f, -0.0956788957f, 0.0268635452f, 0.229560047f, -0.221123427f, -0.162441581f,
    -0.194405675f, 0.23906216f, 0.0606743991f, -0.180627972f, -0.217422634f, 0.185286909f, 0.229589194f, -0.151279539f,
    0.0639849007f, -0.0620647967f, 0.148273438f, -0.139893681f, 0.170739233f, 0.249617338f, 0.151405722f, -0.0427739918f,
    0.0326964855f, 0.107870132f, -0.144131571f, -0.116467893f, -0.244556963f, 0.176583529f, -0.116159707f, 0.214799911f,
    -0.0490347743f, -0.0923682749f, 0.127285451f, -0.024318248f, -0.169485778f, 0.0268539488f, -0.116409123f, -0.180919707f,
    -0.157737911f, 0.0867681503f, 0.0210407972f, -0.10132432f, 0.0892387629f, -0.0782583356f, -0.192952693f, 0.0858583152f,
    -0.0851324201f, -0.0740804374f, 0.179698914f, 0.186864674f, -0.24469775f, 0.21441263f, 0.223573148f, -0.180278808f,
    -0.249251544f, -0.195158392f, -0.0663709641f, -0.0112401247f, 0.068900913f, 0.0596250892f, 0.0484342277f, -0.195171148f,
    0.24062112f, 0.215356082f, 0.121801406f, 0.0546037257f, -0.139599651f, 0.0182693899f, -0.178408444f, 0.229783446f,
    -0.222026139f, 0.212776542f, 0.235370904f, -0.121028036f, -0.223078817f, 0.0881961882f, -0.19187668f, -0.23065877f,
    -0.150615424f, 0.176729321f, -0.156695217f, -0.100054026f, -0.101388603f, 0.177683532f, 0.0968683958f, 0.143299818f,
    -0.0467041433f, -0.147824049f, 0.0901024342f, 0.10086596f, 0.206926018f, -0.234257638f, -0.183443606f, 0.164021522f,
    0.0646665692f, 0.165974051f, -0.063218087f, 0.249281138f, 0.097702384f, -0.09676525f, -0.120775759f, 0.0656823218f,
    -0.00615656376f, -0.12116459f, -0.134001255f, 0.084235847f, 0.1234065f, 0.238099158f, -0.105497539f, -0.147592664f,
    -0.157604188f, -0.169352978f, 0.246953338f, -0.122261524f, -0.117601663f, 0.183410913f, 0.198804587f, -0.228798121f,
    -0.0275574625f, 0.0751233101f, 0.0382328928f, -0.142130584f, -0.201463044f, -0.180395633f, 0.08327353f, -0.11639142f,
    -0.227318734f, 0.246475071f, 0.114557087f, -0.0745862722f, 0.0398928225f, -0.0888432264f, -0.164803147f, -0.230979562f,
    0.162964642f, -0.230865419f, -0.188568294f, 0.208610356f, -0.157447159f, -0.0839372277f, 0.00115451217f, -0.246879786f,
    -0.22698921f, -0.202788293f, -0.0376863778f, -0.0904788077f, 0.185668945f, 0.160816997f, 0.243226528f, -0.216324389f,
    -0.119118989f, 0.170302987f, 0.0866661966f, -0.162849545f, 0.187438011f, -0.127685219f, 0.237384319f, -0.199532747f,
    0.129582286f, -0.0142123699f, -0.216394156f, 0.129356444f, -0.0917525887f, 0.00435051322f, -0.0763248205f, -0.0558850169f,
    -0.063983798f, 0.112234384f, -0.0201917589f, 0.17081067f, 0.100985348f, -0.00147691369f, 0.100227267f, -0.0840985775f,
    -0.192648739f, -0.164673567f, -0.171196878f, -0.20181334f, 0.0400006175f, -0.0222442746f, -0.224797398f, 0.129722118f,
    0.154920399f, 0.21236974f, 0.0102515519f, -0.0183032453f, 0.147041887f, -0.216803461f, 0.0154544115f, 0.163593173f,
    0.173013985f, 0.0294585526f, -0.0207323432f, 0.0893326998f, 0.0531451702f, -0.0083937943f, 0.198022395f, 0.213408411f,
    -0.142020792f, 0.22498855f, -0.0652651787f, 0.0537850559f, 0.222659349f, -0.118134111f, 0.11669001f, -0.0340863168f,
    -0.141468942f, -0.0152201355f, 0.213705242f, 0.139511824f, -0.129284948f, 0.226294428f, 0.0508595109f, 0.213384956f,
    0.23779279f, -0.0727830529f, 0.199589968f, -0.0370573699f, 0.0394642055f, 0.00813290477f, 0.00344112515f, -0.0193983614f,
    -0.22914809f, 0.0217519999f, 0.229398519f, 0.0819989443f, -0.230999649f, 0.0466709733f, -0.0404952765f, 0.0736934841f,
    -0.229588896f, 0.0417918861f, -0.178669333f, 0.0355722606f, 0.150467843f, 0.175021172f, -0.0413149595f, 0.222076058f,
    -0.0147048533f, -0.143885851f, 0.116851151f, 0.01082775f, -0.197246313f, 0.158952117f, 0.240930229f, 0.136893094f,
    -0.0398090482f, -0.209742695f, 0.214179099f, -0.133146912f, 0.0376571417f, -0.226204425f, 0.154220819f, 0.050191164f,
    0.237994909f, 0.121322066f, -0.238760948f, 0.197553635f, -0.202026874f, -0.119485348f, 0.129080176f, -0.136062145f,
    0.0655552447f, 0.0257489681f, 0.0177100599f, -0.135785609f, 0.174963832f, 0.0359359682f, 0.0928173065f, 0.0291094184f,
    -0.124367833f, -0.0939663649f, 0.166414142f, -0.218398511f, -0.0864042938f, -0.228846759f, -0.149458647f, 0.0335967839f,
    -0.056953311f, 0.0833094716f, 0.190493613f, 0.0525843501f, 0.237433463f, -0.000660479069f, 0.241186678f, 0.0403338373f,
    -0.00641679764f, 0.0698724985f, -0.197116703f, 0.20386678f, 0.228747457f, -0.219866306f, -0.148789972f, 0.197585344f,
    0.062838763f, -0.0903807282f, -0.124560982f, -0.0572812557f, -0.0470544994f, 0.230622113f, -0.152004957f, 0.0351590812f,
    0.0708606839f, -0.124006689f, -0.0155876577f, -0.045195967f, 0.190747947f, 0.178871036f, -0.0120611489f, -0.128114522f,
    -0.143526465f, -0.10643658f, 0.216877311f, 0.203226537f, 0.0497106314f, -0.232931465f, 0.0798379183f, -0.046463877f,
    0.13977772f, 0.12994054f, 0.20973146f, 0.0182044804f, 0.0191323161f, 0.00181180239f, 0.172716498f, 0.188774109f,
    0.117793083f, -0.0499895215f, -0.0725792944f, 0.231671602f, -0.129322767f, 0.0430017412f, 0.0786016881f, 0.129458517f,
    -0.151631445f, -0.0482642055f, -0.00730255246f, -0.0228035152f, -0.214562774f, 0.107875675f, -0.191149354f, -0.063131094f,
    0.0766307712f, 0.196577728f, -0.0434806645f, -0.138418615f, -0.111481041f, -0.00229981542f, -0.136673003f, 0.0617638826f,
    0.1130279f, 0.235939801f, 0.210237831f, -0.0510932803f, 0.106260657f, 0.0327996016f, 0.118526459f, -0.113637775f,
    0.234803945f, 0.00166243315f, 0.158340842f, 0.185417831f, -0.0529557765f, 0.191566318f, -0.0646984577f, 0.124368578f,
    -0.0388004184f, -0.197706282f, -0.0637319982f, 0.0949349999f, 0.199700713f, -0.203999102f, -0.14507401f, 0.130296797f
};

static const float resnetv2_stream_block2_proj_bias[32] = {
    -0.127715379f, 0.0130274594f, -0.174394995f, 0.0157929957f, -0.120965183f, 0.0558328927f, 0.0985756218f, 0.0479449928f,
    -0.196610451f, 0.187441468f, 0.210433751f, -0.224161237f, 0.204757184f, -0.215474278f, 0.117514908f, -0.0147644281f,
    -0.0199804604f, -0.121727556f, 0.196883053f, 0.0404031873f, -0.017383486f, -0.00884285569f, 0.181200624f, 0.247722924f,
    -0.142420202f, -0.221738547f, -0.169130176f, -0.135737985f, -0.204244733f, -0.0902221203f, -0.0967154205f, -0.00178736448f
};

static const float resnetv2_stream_block2_bn_scale[16] = {
    0.999994993f, 0.999994993f, 0.999994993f, 0.999994993f, 0.999994993f, 0.999994993f, 0.999994993f, 0.999994993f,
    0.999994993f, 0.999994993f, 0.999994993f, 0.999994993f, 0.999994993f, 0.999994993f, 0.999994993f, 0.999994993f
};

static const float resnetv2_stream_block2_bn_bias[16] = {
    0.0f, 0.0f, 0.0f, 0.0f, 0.0f, 0.0f, 0.0f, 0.0f,
    0.0f, 0.0f, 0.0f, 0.0f, 0.0f, 0.0f, 0.0f, 0.0f
};

static const float resnetv2_stream_block2_conv1_weights[1536] = {
    0.102918871f, -5.19749883e-05f, -0.0939180329f, -0.111918621f, 0.0807240456f, 0.119557023f, 0.112093754f, 0.0240204018f,
    0.0996329114f, -0.132520452f, -0.10398934f, -0.138885304f, 0.116290197f, -0.00130605046f, -0.0664620176f, 0.0488397256f,
    -0.0540300272f, -0.0925695971f, 0.0556704737f, 0.0264278967f, -0.103362285f, -0.0950691849f, 0.0676751807f, 0.109750375f,
    0.0117500434f, -0.0724982321f, 0.069696568f, 0.0251731351f, -0.126363933f, -0.0935367569f, 0.0315919891f, 0.0893119425f,
    -0.0463702008f, 0.069791697f, -0.089389652f, 0.13812077f, 0.102846362f, 0.0270353388f, 0.064214386f, 0.0502518564f,
    -0.085172765f, -0.00125860539f, 0.0384889245f, -0.0325788781f, 0.138411149f, -0.0556615479f, -0.128902853f, -0.0687153265f,
    -0.133956835f, 0.118940502f, -0.0647941455f, -0.10155154f, -0.0156026296f, -0.0972553864f, -0.0753977299f, 0.0735843852f,
    -0.108367465f, 0.0680681467f, 0.105255984f, -0.000323755899f, 0.0640908405f, -0.0808515251f, 0.112556279f, 0.140214816f,
    0.0342997238f, 0.131530672f, -0.143350422f, -0.0158483032f, 0.0286787208f, -0.125455692f, 0.0702388957f, -0.0550088584f,
    -0.0522041172f, -0.114518918f, 0.0590074696f, -0.105023384f, -0.0306290947f, 0.064118959f, 0.108735614f, 0.0326382071f,
    -0.0538438037f, -0.0627815276f, 0.0810137838f, 0.0267799199f, 0.121503338f, 0.0543552302f, 0.116275176f, -0.116307877f,
    0.11603643f, -0.066316165f, -0.038636744f, 0.000863905414f, -0.0270677488f, 0.0285506602f, 0.128618106f, -0.0862391293f,
    0.0445982218f, -0.116004139f, 0.0226631071f, 0.118906349f, 0.0973239169f, 0.123604663f, 0.0781330243f, -0.0119417012f,
    0.0376858599f, -0.0603118204f, 0.122516409f, 0.0722701475f, -0.105643027f, 0.124801785f, -0.0021418375f, -0.00641609496f,
    -0.0395028628f, -0.0380818807f, 0.00722410623f, -0.0704637468f, -0.134263128f, -0.0743487701f, -0.0287226345f, 0.108995162f,
    0.106182165f, -0.0864797533f, -0.00554214604f, -0.0416579843f, -0.0772156641f, -0.0253812596f, -0.050081376f, 0.0806771517f,
    -0.0715821311f, 0.0222066268f, -0.081451349f, -0.0450482555f, 0.113625407f, -0.0708601698f, -0.00867906306f, 0.137848735f,
    0.0494017825f, -0.0734672919f, -0.0866602808f, -0.0506151989f, -0.0451989658f, 0.0628423691f, -0.0320896693f, 0.121732458f,
    -0.0791949704f, -0.0451346673f, 0.0525502004f, 0.115275286f, 0.138071626f, 0.0231022574f, 0.00608394993f, -0.0646680295f,
    0.0815530196f, -0.0836647227f, -0.0379383229f, -0.120636262f, -0.138757229f, 0.0806773454f, 0.00980583858f, 0.115061693f,
    0.114853285f, 0.075741224f, 0.0577627793f, -0.0374579132f, 0.0766589791f, 0.0694069341f, 0.0499662496f, -0.00416655233f,
    0.0215595476f, 0.000640404003f, -0.104748935f, 0.0335061513f, -0.106108554f, 0.0700324252f, -0.0859972686f, -0.0471477024f,
    -0.0684522092f, 0.113926671f, -0.101644695f, 0.0737003684f, 0.0723892972f, 0.102056883f, 0.0361641906f, 0.0786850527f,
    0.114098273f, 0.0284309164f, 0.0490770712f, -0.112861887f, -0.038715452f, 0.0130872969f, 0.0174876172f, -0.0509943701f,
    -0.143086568f, -0.0375362858f, 0.055258058f, 0.124284208f, -0.130340382f, 0.0689113885f, -0.136957467f, -0.13802959f,
    -0.0903901532f, -0.0190644804f, 0.040312402f, -0.109769776f, 0.111202873f, 0.130524397f, 0.00888051093f, 0.117487855f,
    -0.0653435066f, -0.0570988916f, -0.018625956f, 0.0157710128f, -0.1006874f, -0.115575917f, 0.0570178591f, 0.0416161716f,
    0.141200259f, -0.0588479973f, 0.0509711616f, -0.0582454652f, 0.0712518096f, -0.00799555052f, 0.106998056f, 0.0801890343f,
    0.120138429f, 0.0741740614f, 0.00542271417f, 0.124385506f, -0.0847808346f, 0.136136502f, 0.141044095f, 0.137880355f,
    -0.0674227551f, -0.0764780641f, 0.00913195219f, 0.0449461788f, 0.0724032745f, 0.0587022044f, 0.122901298f, -0.0361621715f,
    -0.0473530889f, 0.0483817421f, 0.0402219519f, -0.084195666f, 0.0139609324f, -0.109587714f, -0.0423439778f, -0.0566483289f,
    0.126523271f, -0.129928216f, -0.0852200836f, -0.141252369f, 0.0364025198f, -0.111094467f, 0.0466988422f, -0.10025797f,
    -0.0924594253f, -0.0737381652f, 0.0216604881f, 0.132628337f, 0.135202095f, -0.0109046148f, -0.141377479f, -0.0476852953f,
    -0.0550083593f, -0.0306998286f, 0.0551494583f, 0.0726353452f, 0.0639953092f, 0.0412324555f, -0.0584315844f, -0.00153114623f,
    0.0183693897f, -0.0737258643f, -0.0129118366f, -0.0180174112f, -0.136371285f, 0.0978492051f, -0.0145928133f, -0.124773391f,
    0.114195488f, -0.0776639059f, 0.0511015914f, 0.143140674f, 0.00668172166f, 0.0415262282f, 0.0573491715f, 0.109088503f,
    -0.0442858264f, -0.0812210813f, -0.0112953512f, 0.11287877f, 0.0124103548f, 0.100286879f, -0.00107311667f, 0.0442854464f,
    0.00501892436f, 0.00391816627f, -0.137353763f, -0.12618421f, 0.0119987419f, 0.0714371651f, 0.0969586447f, 0.00626265863f,
    0.0608411059f, 0.0603670143f, -0.124599107f, -0.126862466f, -0.111910999f, 0.00248153764f, -0.091266565f, -0.0461896732f,
    -0.0215948261f, 0.0563147068f, 0.033465784f, 0.133897796f, 0.130190492f, -0.0920806602f, -0.000454706664f, 0.0238350034f,
    0.126005858f, -0.0447330251f, -0.0567246899f, -0.0914310738f, 0.106356211f, -0.040891733f, -0.0540577807f, 0.097625047f,
    0.132813498f, -0.00608254923f, -0.101743922f, 0.117603518f, -0.0493638888f, -0.0665140003f, -0.101472251f, -0.0694166496f,
    -0.113039576f, -0.0833132789f, -0.131484807f, -0.0290914886f, 0.0580342636f, -0.109569773f, -0.000201567003f, -0.0532259122f,
    0.0698154792f, 0.125013232f, -0.0191337261f, -0.0726446882f, -0.110903256f, -0.0848010406f, 0.0416733772f, 0.0331171267f,
    0.0777296573f, -0.0214469396f, 0.0741651058f, -0.128592998f, 0.0388004929f, 0.140121296f, -0.142849937f, -0.0749292225f,
    0.0924000144f, -0.0225668754f, -0.0769377947f, 0.0880547985f, 0.00967540964f, 0.00565324863f, -0.0438400321f, 0.108749084f,
    0.0800632387f, 0.025856737f, 0.0220274571f, 0.0746355951f, 0.0899232924f, -0.0592071787f, -0.0158137474f, 0.0633671209f,
    -0.0699425489f, 0.134962156f, -0.0988706276f, 0.0666038021f, -0.103678957f, 0.0463417247f, 0.100813076f, 0.0173997451f,
    -0.0144665856f, 0.0917857587f, -0.103639781f, -0.0973791182f, -0.12301778f, -0.0888464078f, 0.00374614797f, -0.0654489323f,
    0.0321560837f, 0.00487064384f, 0.120125376f, -0.062585637f, -0.0394857414f, 0.0954635292f, -0.0364962183f, 0.138187349f,
    -0.0573277213f, -0.00158078177f, -0.0341974571f, 0.0673398897f, 0.0553051904f, -0.0768634453f, 0.0951095521f, -0.00917148497f,
    -0.0364995562f, -0.00291150832f, 0.100450605f, 0.141585946f, 0.0702329502f, 0.0252564326f, 0.0941991732f, -0.060357023f,
    -0.0754308701f, -0.0416824296f, -0.0934182629f, 0.062060345f, 0.0137105193f, -0.0493825972f, -0.0146534154f, -0.00286188768f,
    0.12375883f, 0.128844634f, -0.11111743f, 0.0528989919f, 0.0557353236f, 0.0551897362f, -0.0196776669f, 0.0360969268f,
    0.0363204144f, 0.140482888f, -0.13833645f, -0.0547723249f, -0.097110115f, -0.0700135082f, 0.0283388272f, 0.0880286768f,
    -0.109149545f, 0.0938783959f, 0.120564871f, -0.0711446479f, 0.0251923576f, -0.0740992948f, 0.0309150312f, -0.0669178516f,
    -0.0562271178f, -0.0966214687f, -0.120362505f, 0.115182869f, -0.0182273816f, -0.00400422001f, -0.0718320608f, 0.100603208f,
    -0.0826145634f, -0.0583787858f, -0.11267145f, -0.121370032f, 0.128141299f, -0.111456282f, -0.0199269168f, -0.0417797714f,
    0.052868817f, 0.0386056304f, -0.110647321f, 0.129625201f, -0.143778607f, 0.0142757623f, -0.0120584657f, -0.0334487073f,
    0.098360762f, 0.121866003f, 0.0188018177f, -0.0509796254f, 0.107307166f, 0.0906824544f, 0.0259240605f, -0.0394777767f,
    0.00608523143f, 0.128646567f, 0.0156525485f, -0.0284437537f, -0.122203544f, -0.077347599f, 0.104245096f, -0.00508261146f,
    -0.00961182639f, 0.0561990887f, -0.094963111f, -0.00975034758f, -0.0405953713f, 0.0755200461f, 0.117464788f, 0.0906302109f,
    0.10761115f, -0.128994122f, -0.0512419902f, 0.0170917846f, -0.122593187f, 0.0391546302f, -0.0946101546f, 0.0618501343f,
    0.116819359f, -0.123472817f, 0.120945953f, 0.0673477724f, -0.0952510089f, 0.138155997f, -0.125008464f, -0.0971704051f,
    -0.0717997402f, -0.00730899768f, 0.0259185918f, -0.0423586257f, -0.136809275f, -0.0166610237f, 0.109510675f, 0.111130305f,
    0.0722538605f, 0.0209561139f, 0.0358640403f, -0.111270644f, 0.0584476925f, -0.143649191f, -0.0596067607f, -0.0379313044f,
    0.105991192f, -0.00420750072f, -0.0657467768f, 0.0252168998f, -0.119766429f, -0.0382142477f, 0.0399743989f, -0.00955919642f,
    -0.0151582053f, 0.0882150903f, -0.109642312f, -0.0728793666f, 0.139713928f, 0.0287214275f, -0.0233697239f, 0.0747644901f,
    0.0868307948f, -0.0241188537f, -0.0601222627f, -0.0235929582f, 0.0524099246f, -0.0184264593f, 0.0840041339f, -0.117704563f,
    -0.0708162263f, 0.110033706f, 0.0189354066f, 0.0290653445f, 0.047471717f, -0.034105815f, -0.0577214137f, 0.0414079577f,
    -0.0382537358f, -0.0596252382f, 0.0190694425f, 0.0349123962f, -0.013032401f, -0.0976143181f, -0.0218240488f, -0.0817996636f,
    0.0759669021f, -0.095637545f, 0.115084998f, 0.0574876629f, -0.123598099f, 0.107112497f, -0.142739922f, -0.00839191955f,
    -0.0901177302f, -0.124169417f, 0.0143008856f, -0.0699829832f, 0.104331836f, -0.113464609f, 0.119802855f, 0.0870779827f,
    0.126418859f, -0.042266462f, -0.0884719864f, -0.0958923548f, 0.120026253f, -0.0717896447f, -0.0177718252f, -0.0222475827f,
    0.0248313788f, -0.118439823f, 0.116384462f, -0.106800385f, 0.14196384f, -0.0564767271f, -0.0644351766f, -0.0198394563f,
    0.0427173786f, -0.026743412f, -0.144055158f, 0.101524174f, 0.142963946f, 0.0728220865f, 0.141237393f, 0.0393390618f,
    -0.0113101928f, -0.114963621f, -0.126151115f, -0.0993754789f, -0.0366215818f, 0.0840483606f, -0.0595510677f, -0.00560593791f,
    -0.0020370381f, -0.0943499506f, -0.00390722882f, 0.139364973f, 0.115361884f, 0.109929726f, -0.0142354248f, 0.00255981297f,
    0.0789070204f, -0.048010271f, -0.0584955625f, 0.123492993f, 0.00824039057f, -0.0974572003f, 0.121618971f, 0.0239566267f,
    0.0772285163f, -0.125358015f, 0.0267848223f, 0.0882836953f, -0.0208227634f, -0.0820417181f, 0.115478173f, 0.0671341047f,
    0.0411079563f, 0.034135215f, 0.00318574789f, 0.0827723742f, -0.0315531567f, -0.0849631205f, 0.0551147535f, 0.038508445f,
    0.0549560562f, -0.0160316471f, -0.0191541258f, -0.0114717502f, 0.038059134f, -0.110758126f, -0.134530514f, 0.0540102534f,
    -0.0790249556f, -0.0121420166f, 0.0400143042f, 0.0202446021f, 0.0930484757f, 0.0189201776f, 0.0357342362f, -0.0129197193f,
    0.0213055443f, 0.0529248156f, 0.0984686911f, -0.13676089f, -0.0601254068f, -0.129518986f, -0.0575462766f, 0.0879847929f,
    -0.13675943f, -0.12932843f, 0.0835743546f, -0.0852362588f, 0.105490901f, 0.0449737906f, 0.0362309329f, 0.114662997f,
    -0.133698523f, 0.105697162f, 0.0468080975f, -0.0967215076f, 0.0351188816f, -0.0402266085f, -0.0579354092f, -0.0156321786f,
    -0.0680497661f, 0.126213431f, 0.124231048f, -0.0153975161f, -0.127994552f, -0.00882987771f, 0.00953639764f, 0.0964777842f,
    0.0046439087f, 0.0420086682f, 0.038297642f, -0.0818969458f, -0.0895302296f, -0.129003957f, -0.00113345112f, 0.044705376f,
    -0.0102630341f, 0.140102878f, -0.0275340565f, -0.0941836834f, 0.0240562987f, -0.0406468548f, -0.0197870489f, 0.139855161f,
    -0.00414138427f, 0.126084268f, 0.0192755386f, -0.0536964536f, 0.105821885f, -0.0822184309f, 0.0047756643f, 0.0324431658f,
    0.0647833049f, -0.133173764f, 0.00708054937f, -0.0373716578f, 0.0935831442f, 0.0485612564f, 0.0578497723f, 0.0867839456f,
    -0.0323142819f, -0.00924758427f, 0.115794763f, -0.116333932f, -0.0997684672f, 0.0105589693f, -0.0571758039f, 0.00826631859f,
    0.127501383f, -0.0167320576f, -0.123066574f, -0.0656122938f, 0.132554159f, -0.031709265f, -0.0632885098f, 0.0649698377f,
    0.0178683549f, -0.127258837f, 0.120201789f, 0.0812796429f, 0.125455439f, 0.063161701f, -0.0486637317f, -0.0471183695f,
    0.0699488297f, -0.027980255f, 0.0282977447f, -0.13986069f, -0.0713489205f, 0.0536135733f, -0.00711564114f, -0.0693900287f,
    -0.125900343f, 0.0917347074f, -0.0290202014f, -0.141815707f, 0.139253929f, 0.0702381507f, -0.0863334984f, -0.105341546f,
    0.139474526f, 0.000602644635f, -0.0868074149f, 0.0830581635f, -0.0300652217f, 0.00988751184f, -0.0751899108f, -0.122252554f,
    -0.0958573818f, -0.0158486161f, -0.104492322f, 0.142259657f, 0.00156217034f, -0.0552567393f, 0.0570448302f, -0.127964541f,
    -0.0738271549f, 0.0542130731f, -0.12263763f, 0.0719379038f, 0.0121322563f, -0.120349102f, -0.143244535f, 0.0456177555f,
    0.0682234466f, -0.0288538523f, -0.127630636f, -0.0831880197f, 0.0153406095f, 0.00525111333f, 0.0369469002f, 0.0255216565f,
    -0.00756560965f, 0.0761703774f, 0.140008703f, 0.120205693f, 0.131155401f, -0.0487141646f, -0.0492642969f, -0.0159638468f,
    0.042660024f, 0.0584244765f, -0.0128656281f, -0.0932309553f, -0.108902149f, 0.138955757f, -0.0388057977f, -0.019509837f,
    -0.0884583071f, -0.0715564117f, 0.0317020901f, 0.0607927218f, -0.0570597462f, -0.053126391f, 0.114337765f, -0.0743358806f,
    -0.107687533f, -0.0225188043f, 0.13734287f, 0.0314060971f, 0.0199434794f, -0.0179717392f, 0.0901944712f, -0.0715406835f,
    0.0978619605f, 0.034098722f, 0.0160478298f, 0.0198703315f, -0.0890161693f, 0.107199937f, 0.0758068487f, -0.112888366f,
    -0.134389386f, -0.0371565074f, 0.0958904922f, -0.0710615888f, 0.133776709f, -0.0725690648f, -0.130379811f, 0.0634919778f,
    -0.0872291028f, -0.0227530133f, -0.045019228f, -0.0114688892f, -0.125771239f, -0.132385939f, 0.062047068f, -0.0163555965f,
    -0.0870683789f, -0.00367693254f, -0.131740928f, 0.0383131094f, 0.0685459971f, 0.139980271f, -0.117587335f, -0.0175018776f,
    0.078330867f, 0.132279068f, -0.102691628f, 0.0613377169f, 0.059591502f, 0.0870164782f, -0.0995081514f, 0.103001155f,
    -0.0628678873f, -0.0888463557f, 0.0286591109f, 0.122273549f, -0.0955829695f, 0.0770625919f, -0.0165302679f, 0.0460777059f,
    0.112592906f, 0.039190378f, -0.119822152f, -0.0434563532f, 0.0286475625f, -0.121761173f, 0.0239959639f, -0.0775044039f,
    -0.0286908727f, 0.051635202f, -0.116165131f, -0.092666328f, 0.0658326596f, -0.142755002f, 0.0993309245f, -0.111295134f,
    -0.00232409267f, 0.0296300054f, 0.0569542162f, -0.0895852149f, 0.0194238201f, 0.0621496141f, 0.123799093f, -0.108620606f,
    -0.0717602372f, 0.0420476757f, -0.0046335971f, -0.0974024162f, -0.121481203f, -0.128160909f, -0.100999437f, -0.0614540987f,
    -0.10022743f, -0.126619071f, 0.0112667857f, 0.0846472457f, -0.0680529326f, 0.014433356f, -0.00177933869f, 0.0674678609f,
    -0.100098588f, 0.00685260724f, 0.134723291f, 0.103044756f, -0.143054664f, -0.0217284001f, 0.0013454638f, -0.0476594716f,
    -0.0948272794f, -0.100433372f, 0.0959071219f, -0.0467285402f, -0.00928868167f, 0.0423528813f, -0.0885925293f, 0.0128650023f,
    0.0858533531f, -0.0843920484f, 0.0419929773f, -0.0049299798f, 0.0793615803f, 0.0959089845f, 0.0382933803f, 0.00436124997f,
    -0.124249585f, 0.0574683361f, 0.0879972652f, -0.0524268001f, -0.143318191f, 0.11696551f, -0.0338799134f, 0.0288777985f,
    -0.0405742936f, 0.0920478106f, 0.140768752f, 0.0904759094f, -0.0459342971f, 0.101149812f, 0.070426546f, 0.0140818246f,
    -0.116260543f, -0.0619772561f, -0.14280495f, 0.0965373293f, 0.142675638f, 0.0840782151f, 0.0461184159f, 0.0341127589f,
    0.13894482f, -0.0731757507f, -0.0484575517f, -0.129596934f, -0.0142927496f, 0.00990086328f, 0.0395107679f, -0.100412868f,
    -0.0167025682f, -0.118933693f, -0.117409319f, 0.0188133959f, -0.140894741f, 0.0384337455f, -0.132962897f, -0.100433305f,
    -0.0299493205f, -0.13773796f, 0.116571113f, 0.118263312f, -0.0753913149f, 0.030235691f, 0.0738391131f, 0.0458663628f,
    -0.0193347558f, -0.136140123f, 0.104952924f, -0.126597375f, -0.0267311484f, 0.00895343721f, -0.0475361869f, -0.0527918823f,
    -0.124746069f, 0.00795285869f, -0.0163887367f, 0.125833213f, -0.0475187376f, 0.111560114f, 0.00683290837f, -0.0648479685f,
    -0.0343259871f, -0.0163795128f, 0.00149507076f, -0.0237798691f, 0.0428352877f, 0.118863702f, 0.0226873811f, 0.0522806421f,
    0.0891309381f, 0.0311120674f, 0.0665350631f, 0.0757119879f, 0.135101184f, -0.131729573f, 0.0493908152f, -0.00654011685f,
    -0.0259215049f, -0.0556479208f, 0.0867753923f, 0.13203752f, -0.117791839f, 0.0779823065f, 0.0995274261f, 0.0252263173f,
    0.0017002587f, 0.111070938f, 0.00427938346f, -0.0360011235f, -0.0106584942f, 0.0463083163f, 0.0361331664f, -0.00778742693f,
    0.0455623083f, 0.0388728976f, -0.11692135f, 0.0359653831f, 0.0883116648f, 0.0165528134f, -0.0131746018f, 0.110566542f,
    -0.126104385f, -0.0658806041f, -0.0652389154f, 0.124714553f, -0.139605731f, 0.014314997f, -0.139817521f, -0.00474633882f,
    0.0537997484f, -0.0337538235f, 0.140112862f, 0.000459475006f, -0.073587276f, 0.0372195318f, 0.0750643909f, -0.00028675652f,
    0.123476394f, -0.091353111f, 0.0615854152f, 0.0819596127f, 0.0716908425f, -5.29435601e-05f, 0.0412029959f, -0.113233887f,
    -0.113269165f, -0.00897148252f, -0.0180901717f, 0.1071738f, 0.104806855f, 0.0978672504f, -0.0661110356f, -0.113309771f,
    -0.135387808f, 0.0522370711f, -0.130059361f, -0.144085482f, -0.0729449764f, -0.121864147f, -0.0568813905f, -0.090866752f,
    -0.0740498081f, 0.137224555f, -0.0271998104f, 0.119732976f, 0.00320246699f, -0.0185608082f, -0.0422592573f, -0.103175901f,
    -0.11596714f, 0.0999419764f, -0.0444787815f, -0.140725493f, 0.132462189f, 0.00267738244f, -0.0965830609f, -0.113456488f,
    -0.121211931f, -0.126562491f, 0.130613476f, 0.0995193198f, 0.0118053267f, -0.123014577f, -0.0377515517f, -0.135589257f,
    0.0497413762f, -0.0383242592f, -0.0308872927f, -0.0450350456f, 0.0676725432f, 0.0781280026f, 0.0316183642f, -0.0180745702f,
    -0.0142639456f, -0.00252209837f, -0.107482463f, 0.140839562f, -0.0622499585f, 0.0839761496f, -0.0809149295f, 0.000968958077f,
    0.0494104549f, -0.132527262f, 0.0662072897f, -0.110481881f, 0.0201416649f, -0.0286218952f, 0.0827372223f, 0.140281126f,
    0.0325285792f, -0.00412140228f, -0.0715109333f, 0.0538139939f, -0.0694725737f, 0.0596207827f, -0.0625595674f, 0.0979057103f,
    0.11071156f, 0.0885051861f, 0.00144582265f, 0.0669352934f, -0.131524444f, 0.117053278f, -0.0375004783f, 0.0526189394f,
    -0.0244417973f, -0.0484664254f, -0.0677813664f, 0.0931005552f, -0.0785263479f, -0.0254531503f, 0.0728107318f, 0.0145472456f,
    -0.121444933f, -0.143524915f, -0.0701726824f, 0.133124247f, -0.102627225f, 0.0795491263f, 0.103318579f, -0.0598272458f,
    -0.0637401268f, -0.103841156f, 0.0225139018f, -0.0201778002f, 0.00701258564f, 0.062607646f, 0.0605983548f, -0.045537848f,
    0.00991321635f, 0.0342867002f, 0.00307239546f, 0.0288832672f, -0.0584693737f, 0.11830911f, -0.0148046762f, -0.018467214f,
    -0.129544139f, -0.104625188f, 0.00448984653f, -0.0223221853f, -0.0725696534f, 0.0755532011f, -0.0129218502f, 0.0507615507f,
    0.121570066f, -0.0663584173f, -0.0710385814f, -0.0290040784f, -0.0122225862f, -0.0721918866f, -0.0346529894f, -0.00416036835f,
    0.0647438914f, 0.133535102f, 0.106882691f, 0.0152758788f, -0.00909563806f, 0.0369722769f, -0.00589206861f, -0.0189423058f,
    0.049633164f, -0.117432483f, -0.122749351f, 0.00058465905f, -0.0437482186f, -0.0713920891f, -0.134369344f, 0.0966854617f,
    -0.00575094018f, -0.0775486082f, -0.0587947629f, 0.0379466005f, -0.104678109f, 0.00927018933f, -0.00177993474f, 0.0491701886f,
    0.0572578125f, -0.0943067148f, 0.0623233169f, 0.108991347f, 0.00929233246f, 0.0735330358f, -0.0546441264f, 0.0286695268f,
    0.0421749912f, -0.066666618f, 0.0891160816f, -0.136470094f, -0.0542181246f, -0.0849260315f, -0.0856837034f, -0.0874611139f,
    -0.136007279f, 0.0247706268f, -0.0285522398f, -0.12153317f, -5.93659279e-05f, -0.0240438338f, 0.0595427901f, -0.11305704f,
    -0.0406056084f, 0.0297094882f, 0.0611824766f, 0.010919054f, 0.0391150229f, 0.14428404f, -0.0500000231f, 0.0983720422f,
    0.124330074f, -0.127682716f, 0.034914244f, 0.0817595199f, -0.0225146916f, 0.0796592683f, 0.0049094609f, 0.109881207f,
    0.00310778548f, -0.0924076885f, 0.109614953f, 0.0429263934f, 0.122797377f, 0.0358306617f, 0.0766438991f, 0.0899956822f,
    0.024304403f, -0.033553388f, 0.0298105329f, -0.100638866f, 0.00493100798f, -0.0463919491f, 0.00912560429f, -0.114279941f,
    0.0881930962f, -0.133166984f, 0.0618110038f, 0.0950545222f, -0.132284135f, 0.130409777f, -0.107297704f, -0.0283429101f,
    0.0747950524f, -0.045769617f, 0.128630832f, -0.063674584f, -0.0193244442f, -0.094350867f, -0.0669620931f, 0.140850529f,
    0.108550481f, 0.0106276041f, 0.0118677318f, -0.122483566f, 0.10896676f, -0.0216402002f, -0.0602020137f, -0.11486651f,
    0.11867103f, 0.0684427321f, 0.0869382471f, 0.0149454176f, -0.0979427099f, 0.0591253527f, 0.0166462418f, 0.0484358035f,
    -0.0359410867f, -0.0681147575f, 0.118490696f, 0.0483841114f, -0.0585804395f, 0.0128891272f, -0.0313752815f, -0.0123432111f,
    0.0809382349f, -0.114880346f, 0.130629629f, 0.0971467569f, 0.000124021739f, -0.05903868f, 0.0294290651f, -0.0955377668f,
    0.0937541053f, -0.0763340816f, 0.027579125f, -0.142003044f, 0.0691192597f, 0.0977085978f, 0.108336382f, 0.0117815146f,
    0.0852218792f, 0.049213253f, 0.0967945978f, 0.0814504102f, -0.126284361f, 0.0152161252f, -0.04920692f, -0.068920292f,
    0.10103029f, -0.0206581131f, 0.02242174f, 0.0908787176f, 0.0971563533f, 0.0770285428f, -0.0251996294f, -0.128661111f,
    -0.138561159f, 0.0453693233f, -0.00171286496f, -0.0911937431f, 0.0630366355f, 0.131013095f, 0.0834808052f, -0.0203613956f,
    0.0195035264f, -0.092067346f, 0.0681259632f, -0.111853652f, 0.0996490493f, -0.0659257397f, -0.0572458841f, -0.12089821f,
    -0.0349036343f, -0.013961588f, -0.0665293112f, 0.102746002f, 0.0828354657f, -0.127386466f, -0.0144381244f, 0.0485279374f,
    0.139255777f, -0.0345127806f, 0.0886127055f, -0.00808616448f, -0.0553593859f, 0.088328518f, -0.128617138f, 0.120925449f,
    0.144167811f, -0.0394074656f, 0.0570162199f, 0.143933326f, 0.0435153618f, 0.0564453155f, 0.0529995747f, -0.059051875f,
    0.0352323838f, -0.076927729f, 0.123251267f, -0.0618503951f, 0.032996133f, -0.0418113098f, 0.0721825138f, 0.00237915223f,
    0.0793640837f, -0.0390840061f, -0.084698543f, 0.0553377494f, -0.0812300593f, -0.118504964f, 0.05576602f, -0.0868087262f,
    -0.0542525612f, -0.0360402316f, 0.0102489972f, -0.0499895103f, -0.051947102f, -0.0362774022f, 0.101150081f, 0.0432184115f,
    -0.0694892257f, -0.0997699797f, 0.00334432535f, 0.0462405011f, -0.00302039064f, 0.0844933912f, 0.121403202f, 0.0423038267f,
    0.0476020277f, 0.0837389827f, -0.0494468585f, 0.025602689f, 0.116694108f, -0.0691177323f, 0.0112336166f, -0.0564298108f,
    -0.11098402f, 0.0764510557f, 0.115332976f, -0.0779758766f, 0.0540955625f, 0.044259984f, 0.0563584417f, 0.079452239f,
    0.134751603f, 0.109551713f, -0.126296237f, -0.0565839782f, 0.0766576976f, -0.0823977664f, 0.0283415243f, -0.0618777834f,
    0.0286667999f, 0.0704277977f, 0.0453667752f, 0.104851454f, -0.0173687954f, 0.0783563033f, 0.0466624834f, -0.0454880334f,
    -0.101940237f, 0.132050812f, -0.043034263f, 0.108718149f, 0.0909807906f, -0.00581219885f, -0.119223431f, 0.0116197783f,
    -0.0697753727f, 0.0375586227f, -0.0573721938f, 0.111247994f, -0.130225912f, -0.0388561264f, 0.0227617081f, 0.0137693044f,
    0.118577957f, -0.0456052981f, -0.115217552f, 0.0955630094f, 0.0403320417f, 0.0950808823f, -0.0854265615f, -0.0847755894f,
    -0.0583044365f, 0.0102619762f, 0.0489098653f, -0.0829438418f, -0.0135894632f, -0.0249462519f, 0.131698221f, -0.0520536974f,
    0.139872566f, -0.0885261372f, -0.0594756305f, -0.108561948f, 0.106332995f, -0.09925735f, 0.0597458035f, -0.0530383997f,
    0.143833011f, 0.020359667f, -0.125344545f, 0.0248409007f, 0.0175483692f, -0.139603779f, 0.0289670564f, 0.137711197f,
    0.0415367186f, -0.000767584774f, -0.0299213454f, 0.0383560956f, -0.0643043071f, 0.142137915f, 0.124773175f, 0.0674293861f,
    -0.0537623838f, -0.135525763f, -0.0830907971f, 0.140337959f, -0.132483676f, -0.137814671f, -0.0104028955f, 0.0459208116f,
    -0.143657342f, -0.134005442f, 0.000784721051f, -0.0484154932f, 0.100556582f, 0.0414406806f, -0.125287637f, -0.130092129f,
    0.0991235748f, -0.0255939644f, -0.063141197f, 0.0454633497f, -0.0283672586f, 0.0690287203f, 0.0366023891f, -0.062494047f
};

static const float resnetv2_stream_block2_conv1_bias[32] = {
    -0.115684457f, 0.0781356171f, -0.0867191255f, -0.0159642342f, 0.0197349247f, -0.0839992613f, 0.0786238238f, -0.101524748f,
    0.0354500562f, 0.0154369595f, 0.0529587604f, -0.141654655f, 0.00833769422f, 0.0703650787f, -0.0924069136f, 0.035716325f,
    0.00056555582f, 0.122448161f, -0.0305628665f, 0.000986094354f, -0.0627774894f, -0.0355722383f, 0.0413203239f, -0.139204919f,
    0.109494999f, 0.103792772f, 0.061126031f, 0.10805019f, -0.0449301228f, 0.0328763574f, 0.00734309154f, -0.099808149f
};

static const float resnetv2_stream_block2_conv2_weights[3072] = {
    -0.0392373204f, -0.0362330824f, -0.0252351984f, -0.0906248614f, -0.0717792213f, -0.00969209522f, -0.0155259967f, -0.0926464722f,
    0.0218073353f, 0.0555722415f, 0.084998697f, 0.0858958215f, -0.0713175237f, -0.0327090696f, -0.048417937f, 0.0187192559f,
    0.0273493826f, 0.0227074251f, 0.0596420467f, 0.0538456738f, -0.0547815003f, 0.0700637698f, 0.0688478798f, 0.0135063902f,
    -0.0887964666f, -0.0625972748f, 0.0284422636f, 0.0352871716f, 0.0951677859f, 0.0519447923f, 0.0369917303f, -0.00348103046f,
    0.069593057f, -0.0371491686f, 0.0415563583f, -0.0486108661f, -0.000952608883f, 0.0603181422f, 0.0468312353f, -0.0229032114f,
    -0.00129232556f, -0.0566580482f, 0.0472750068f, 0.0686756819f, 0.0351320505f, -0.0987616256f, -0.0730614811f, 0.068326056f,
    -0.0146137029f, 0.062679261f, 0.075230673f, -0.0298968107f, -0.059882056f, -0.0960193723f, 0.0390406549f, 0.0523460209f,
    -0.0176940858f, -0.0990844369f, -0.0657392442f, -0.00549916178f, 0.046581462f, -0.0341992155f, -0.0658869445f, -0.0710530728f,
    0.0913179517f, 0.0369590074f, -0.0828659087f, -0.0630307496f, -0.0866399854f, 0.0147665367f, -0.0414438732f, -0.000345498323f,
    -0.0161460415f, -0.0893392116f, -0.0912052989f, -0.0791622698f, -0.0427446663f, 0.0158741996f, -0.04799743f, -0.00363797694f,
    -0.012225315f, 0.0933398455f, -0.0465270281f, 0.0958907604f, -0.0783516914f, -0.0851539448f, 0.0331899375f, -0.0593996309f,
    0.0523501039f, -0.0564655699f, 0.0803702921f, 0.0988258868f, 0.00653397292f, 0.0218126923f, 0.0951545388f, 0.060504064f,
    -0.0890989676f, -0.00326710939f, -0.0921291411f, 0.0779638588f, -0.0186942965f, -0.000711426139f, -0.0627058744f, -0.0554966852f,
    0.013245672f, 0.0842084885f, -0.051301796f, 0.00964421779f, 0.0923872739f, 0.0914694071f, -0.0199537352f, 0.0956588537f,
    0.0371678174f, 0.0929543525f, 0.00302814692f, -0.0864970833f, -0.0277816951f, 0.0306115299f, 0.0544270575f, -0.101675048f,
    0.0793889463f, -0.0915574133f, 0.0598002672f, 0.100701183f, 0.0251515806f, -0.0192623064f, 0.0561959296f, -0.0302922726f,
    -0.0756007135f, -0.0724322051f, 0.0479877442f, 0.0779472589f, 0.00413277745f, -0.0989583656f, -0.100287005f, -0.0230463743f,
    0.0550950766f, -0.0680136755f, 0.0275098979f, -0.0557840765f, 0.0830391943f, -0.0267434344f, -0.0212696493f, -0.0895166546f,
    -0.0914161503f, 0.00689783692f, 0.0165025368f, 0.0551408082f, -0.0892460495f, 0.0178833827f, -0.0147438347f, 0.0598691851f,
    -0.0464072116f, 0.0304070413f, 0.0411279202f, 0.0512696207f, -0.0350061879f, 0.0328446776f, -0.0200023651f, 0.02748321f,
    -0.0627582818f, -0.0810994804f, -0.0834853873f, -0.064158991f, -0.0431954935f, 0.0151921436f, -0.0223247781f, -0.0581014752f,
    0.000857375562f, -0.0322308689f, 0.0629141629f, -0.0840588808f, -0.0376719981f, -0.0655884594f, 0.0125935301f, 0.0055680722f,
    -0.00587122142f, 0.101265609f, -0.038935028f, -0.0146692991f, 0.0263684839f, 0.0851822197f, 0.0773606449f, 0.011659421f,
    -0.0386128053f, 0.0335292816f, 0.064215973f, -0.00217813998f, 0.0560355186f, 0.0835297555f, -0.0546816476f, -0.0225635022f,
    -0.0918880627f, 0.0234286934f, 0.0727386475f, -0.0198195502f, 0.0162859336f, 0.032612294f, -0.00217691064f, 0.079347223f,
    0.0148726329f, -0.100321479f, -0.0842814445f, -0.10111957f, 0.00420662761f, 0.0551714748f, -0.013465099f, 0.0917653292f,
    -0.018361263f, 0.0208666325f, 0.0920335203f, 0.0516527891f, -0.00325607508f, 0.0983085334f, -0.0609784611f, 0.0380156338f,
    0.0644559711f, -0.0631959885f, -0.0958713591f, 0.0326457918f, -0.0387212113f, -0.0515047759f, 0.0203006938f, -0.0740387142f,
    0.0917950273f, -0.00916169584f, -0.03268563f, 0.0853219777f, 0.0284183174f, 0.0194451064f, -0.0487990379f, 0.0972727835f,
    -0.03108491f, 0.0848881006f, -0.00750242919f, 0.0511981696f, 0.0717621595f, -0.0759854615f, -0.0680246949f, -0.100924507f,
    0.0736135542f, 0.0877719223f, -0.0373005867f, -0.0499878861f, 0.0170841962f, 0.0549481064f, 0.0251925439f, -0.0212707445f,
    -0.0649191141f, 0.0872904211f, -0.0660967976f, -0.098622486f, -0.0407505855f, 0.0203519985f, 0.0379355401f, 0.0394640565f,
    -0.0591244325f, -0.0391703919f, -0.045384936f, -0.0494245291f, -0.0859641656f, 0.0208920687f, -0.0296814293f, -0.0982353687f,
    -0.0595958084f, -0.0612929724f, -0.0440257788f, -0.0630645826f, -0.0176995248f, 0.0365752578f, -0.0826002583f, -0.00874310732f,
    -0.0293724164f, -0.0521800779f, -0.0226627067f, -0.0432570949f, 0.00328106433f, -0.0736735165f, 0.019354932f, 0.0937064886f,
    0.0845697671f, -0.0457604639f, 0.0314584225f, -0.0964694992f, 0.0859304965f, -0.101711467f, -0.0912053436f, -0.0916138962f,
    -0.0947803482f, 0.0138222501f, -0.0269885436f, 0.0244282931f, -0.00631500781f, -0.00219240785f, -0.036873132f, -0.0605528913f,
    -0.0854520425f, 0.0514988601f, -0.0526231416f, -0.0207572654f, 0.0495710224f, -0.025276877f, -0.025733389f, -0.0680392236f,
    -0.0873243734f, 0.04898642f, -0.023027055f, 0.0641771406f, 0.00671736896f, -0.000129640102f, -0.0921417475f, 0.00225333124f,
    -0.0230656937f, -0.0582401268f, -0.0236210227f, 0.00533568114f, -0.0769019723f, 0.0169712529f, 0.0710163265f, 0.0201620758f,
    0.0974236429f, 0.0476264656f, -0.0804911479f, -0.040173091f, -0.0245605111f, 0.0305311084f, -0.00291096419f, 0.0821290165f,
    0.0118561685f, -0.0646369904f, -0.0374175683f, -0.0849116817f, -0.0281415284f, 0.0501795262f, 0.000985570252f, -0.0973268375f,
    -0.0883140862f, 0.0370022058f, -0.0895801485f, -0.0814067349f, -0.0608509295f, 0.097277239f, -0.0290209204f, -0.0420803279f,
    -0.0689136237f, 0.0652898401f, -0.0164798349f, 0.0196811259f, 0.0243816078f, 0.0287842304f, 0.0653287619f, 0.00529635698f,
    0.010557048f, -0.00662791729f, -0.0793091059f, -0.0233567357f, 0.0971380174f, -0.0723336786f, -0.0644123107f, -0.101277612f,
    0.00618880987f, -0.0954609439f, -0.052275598f, 0.0940441936f, 0.0422705263f, 0.0543757677f, 0.0174762085f, -0.0867302865f,
    -0.0474914983f, -0.0826252252f, -0.0631109923f, 0.0347566456f, -0.028307341f, 0.0997415185f, -0.0743988752f, -0.0871007964f,
    0.100776345f, -0.0881669298f, 0.0868478119f, 0.0274830461f, -0.0930246189f, 0.08889395f, -0.0277858078f, -0.0420840122f,
    -0.0796185434f, -0.0863287896f, 0.0227239057f, -0.100251533f, 0.0419399589f, -0.0252204761f, 0.0358182788f, -0.0249889791f,
    0.03529495f, -0.0027879402f, 0.029997766f, -0.041523248f, -0.0702029839f, 0.0129981264f, -0.0651440471f, -0.0632692873f,
    -0.0981396288f, -0.0325320587f, -0.0681966841f, 0.0794811547f, 0.07355088f, 0.0242157429f, 0.0829259604f, 0.0491443276f,
    -0.0961447805f, -0.0102118328f, -0.0165669471f, -0.0619683489f, 0.0290683955f, -0.0318549275f, -0.0488039255f, -0.00118977576f,
    -0.0678580254f, 0.0844718218f, 0.0645828992f, 0.0966113061f, -0.0180772319f, 0.0333329737f, -0.00410514325f, -0.0844542831f,
    0.0461746305f, -0.0712895468f, -0.0368424952f, -0.0457058735f, -0.0995686129f, 0.00366080552f, 0.0167201981f, -0.00758773088f,
    0.0750619173f, 0.00489362329f, -0.0185904354f, -0.0556690395f, -0.0606152005f, -0.0145102367f, -0.0599006712f, -0.0673275888f,
    -0.0134989843f, -0.018020682f, -0.0623010099f, 0.0596338212f, 0.0865564942f, -0.0695888102f, 0.0447041392f, -0.047357861f,
    -0.0105975196f, 0.0952754021f, 0.013059862f, -0.0973135009f, 0.0938245207f, -0.00431818515f, -0.05110595f, -0.0539000072f,
    0.0875215828f, 0.00172252953f, 0.0563724488f, 0.0670780689f, -0.0396135077f, 0.00866279751f, -0.066019401f, 0.0852273107f,
    -0.0539698303f, 0.0677917004f, 0.0258593708f, 0.0629587919f, -0.0719098598f, -0.00317401439f, 0.0528844595f, -0.00407384336f,
    -0.00146442652f, 0.0497353226f, -0.0762813836f, -0.0204623193f, 0.0464884341f, 0.0500562191f, 0.0947934687f, -0.0201895237f,
    0.0241824687f, -0.0502172783f, -0.0171295553f, -0.0512368977f, 0.0756351054f, 0.000621706247f, 0.0415201634f, 0.0561388433f,
    0.0190190971f, 0.0108613297f, -0.00747007877f, -0.0864542201f, 0.0164439827f, -0.022611253f, -0.0857860744f, 0.0950895846f,
    -0.0108806714f, -0.0509378277f, -0.0993591845f, -0.0940039158f, 0.0388655812f, -0.0465917923f, -0.0440880731f, -0.0590552986f,
    0.0823852271f, -0.0245345607f, 0.0661548227f, 0.0810251385f, -0.0791288987f, 0.0761429071f, -0.0194895491f, 0.0977518857f,
    0.0521315485f, -0.0988657773f, 0.0189609602f, 0.0358774364f, -0.0370253101f, 0.0773947388f, -0.0845201686f, -0.0323849022f,
    0.0972477794f, 0.0996786505f, 0.0509843081f, -0.0609255731f, -0.0878143385f, -0.0829834864f, -0.0255142301f, 0.057817772f,
    0.03231287f, -0.0123945102f, 0.0917895883f, 0.0801460743f, -0.0477019958f, -0.0441986173f, -0.00119744241f, 0.0211797059f,
    -0.000730641186f, 0.0394024551f, 0.0704175085f, -0.0184030309f, 0.0501218587f, 0.0138810053f, 0.0391767472f, 0.0420169532f,
    -0.0272794142f, -0.0455053896f, 0.0436249077f, -0.0653453916f, 0.0535828322f, -0.0654851571f, 0.0700181425f, 0.0409513265f,
    -0.0250036642f, 0.0583380312f, -0.0336116999f, 0.0217437446f, 0.0300495028f, 0.0104234442f, 0.0204957128f, -0.00202614069f,
    -0.0294853225f, 0.0569414198f, 0.0402564555f, 0.0380686522f, 0.0689036548f, -0.0534009151f, -0.0237129182f, -0.00290907174f,
    0.0823625177f, -0.0812731311f, -0.0585427396f, -0.0243111923f, -0.0871815085f, -0.0806361437f, 0.0699146688f, 0.00476107001f,
    -0.082106553f, -0.0168523937f, -0.00335548073f, -0.0362847075f, -0.0853696764f, 0.0555458963f, -0.0126058459f, 0.0996465683f,
    -0.0781660005f, -0.0560308062f, -0.0053024292f, -0.0710735917f, 0.0743800402f, 0.078927204f, 0.0924615562f, -0.0644278675f,
    0.0726172179f, 0.0708650947f, -0.0406100005f, 0.0111993179f, 0.048634693f, 0.0730345696f, -0.0953256637f, 0.101610437f,
    -0.0256606564f, 0.0415846705f, -0.0633896291f, -0.0785411894f, -0.0691199973f, 0.0601507872f, -0.0503438115f, 0.0593297631f,
    0.0308548063f, 0.0405979156f, -0.0227010697f, -0.03228461f, -0.0477528423f, -0.0570494644f, 0.0941044241f, -0.00554667413f,
    -0.0437678434f, -0.0949590579f, 0.0044400245f, -0.101310655f, -0.0012018159f, 0.0644427687f, -0.058784578f, 0.0560769737f,
    -0.032556802f, -0.0784969926f, -0.101086251f, 0.0507023484f, -0.0780869424f, 0.0498345494f, 0.0146131292f, 0.0554701686f,
    -0.0767191648f, 0.0892526805f, -0.101657018f, -0.0774687082f, 0.0612053722f, 0.0034686774f, -0.0573114268f, -0.0214090124f,
    -0.090828605f, -0.0888255462f, -0.021897018f, 0.0778582841f, 0.0304803252f, 0.01924593f, -0.0270493478f, 0.0928940922f,
    0.000977478921f, 0.034461543f, 0.00162219256f, 0.0159263685f, 0.0340343416f, 0.0783204734f, 0.0587477535f, 0.0130617693f,
    0.0408044159f, -0.0306932628f, 0.0697632581f, 0.0286507756f, 0.0770242512f, -0.0159353763f, -0.0833312124f, 0.0201619193f,
    0.0415104181f, 0.0824682862f, 0.0395583659f, 0.0377094895f, 0.0812215358f, -0.035074763f, 0.090113461f, 0.0523266345f,
    0.0681616962f, 0.0727896541f, -0.0833834261f, 0.0531598926f, 0.0950542539f, -0.0717007592f, -0.00874741375f, -0.0622878335f,
    -0.0246450007f, 0.0152100921f, 0.0545939058f, -0.0296302289f, -0.096644856f, 0.0551097542f, 0.0572599471f, -0.0185025558f,
    0.0873730034f, 0.0786791295f, -0.0224950761f, 0.00394126028f, 0.0179782659f, -0.019999966f, -0.0251443833f, -0.0460707881f,
    -0.058041323f, 0.0509711653f, -0.0303063467f, -0.0489630923f, 0.0899059474f, 0.0163180754f, 0.0736400485f, 0.0930084884f,
    -0.0143775046f, 0.0152239799f, 0.0946257412f, -0.0702222958f, -0.0306010023f, 0.0145232901f, -0.00692420453f, 0.0271728188f,
    0.0536670834f, -0.0419902317f, 0.00794705003f, 0.0923370272f, -0.0577521436f, -0.0692110509f, -0.0782715827f, 0.0610084981f,
    -0.0936145931f, -0.0496328846f, 0.0689321458f, -0.0611842498f, 0.0829983652f, -0.0477103554f, 0.0161462352f, 0.013360098f,
    -0.00250341743f, 0.0635687858f, 0.0866835564f, -0.0637237132f, 0.0572398156f, 0.0272696465f, -0.00190187991f, -0.0713626146f,
    0.0302755088f, 0.0740804821f, -0.087603882f, -0.0942598432f, -0.100335591f, 0.0235825926f, -0.029325977f, -0.0317032933f,
    0.0950359553f, -0.0260325074f, -0.0648142546f, 0.00918061286f, -0.0560179316f, -0.029903613f, 0.0539121628f, 0.0235552937f,
    -0.0700371042f, 0.0971670002f, 0.0690513849f, -0.0695741698f, 0.044456467f, 0.0419392586f, -0.0732347444f, -0.0717285573f,
    -0.0845098644f, 0.0454635322f, 0.0177817494f, 0.0431333631f, -0.0448282845f, 0.0767429173f, 0.0130322054f, -0.0814381093f,
    -0.0256891027f, 0.0520860553f, 0.0224416852f, -0.0156137124f, -0.0713063627f, -0.0634895936f, 0.0880318582f, -0.0584648103f,
    0.0723255128f, -0.0341617838f, 0.00102017075f, -0.0993870199f, -0.0331767276f, 0.0860362351f, -0.0916312933f, 0.0513537526f,
    -0.0858938545f, 0.0148860291f, -0.0925331861f, -0.0807958394f, -0.0823944658f, -0.0353900492f, 0.01389651f, -0.0748290643f,
    0.0258662254f, 0.0614709407f, 0.0832008868f, 0.0903704613f, 0.0671965629f, -0.030053556f, -0.00940594077f, 0.0903019458f,
    0.0507716835f, -0.0270661116f, 0.0770567656f, -0.0891945809f, 0.0873516649f, 0.0571043342f, -0.0748585761f, -0.0832431614f,
    0.0798151791f, 0.100685537f, 0.00890625268f, -0.0398792662f, 0.0581154525f, 0.0460446626f, -0.0127375647f, 0.0817126483f,
    0.0661540329f, 0.0254441649f, 0.0529935211f, -0.0956011787f, -0.0478067659f, 0.0111878812f, 0.0277550519f, -0.0139529705f,
    0.0385373533f, 0.0310911089f, -0.0943261757f, 0.0321922451f, -0.008298181f, -0.0702335536f, 0.00344439596f, -0.0251010731f,
    -0.0541990399f, -0.0930027366f, 0.0853813291f, -0.0619819388f, 0.0137080774f, 0.0817619115f, -0.0128580406f, -0.066892907f,
    -0.0987407342f, 0.0169579759f, -0.0512108877f, 0.00744297355f, 0.0326007903f, -0.0289176926f, 0.0692030638f, -0.0132813826f,
    -0.0407316424f, -0.0674832165f, 0.0309658051f, -0.0631003901f, 0.0214543194f, -0.0128812417f, 0.0701426715f, -0.0500352494f,
    -0.050278049f, -0.0131899565f, -0.0623376444f, 0.0389105529f, -0.0373852551f, 0.0418735594f, 0.059234038f, 0.0595976114f,
    -0.0187366828f, 0.0556989759f, -0.054044731f, -0.10168948f, -0.00971323997f, -0.0740018114f, -0.079070352f, 0.0259437859f,
    0.0872144997f, -0.040164832f, -0.0057734251f, -0.0739434063f, 0.0178381279f, 0.0290975869f, -0.0156670585f, 0.0776518285f,
    -0.0821423605f, -0.0136935264f, -0.056651637f, 0.0896166414f, 0.0864480585f, 0.100393757f, 0.0939016193f, 0.0404223651f,
    -0.0781504139f, -0.0692303255f, 0.0244666636f, -0.0911213458f, 0.0646138191f, 0.0443707407f, 0.0243514478f, -0.0890820324f,
    0.0742448568f, -0.0108017996f, -0.0428291038f, 0.0532876104f, 0.0086248219f, -0.0454013273f, 0.0238879323f, -0.0680609047f,
    0.0948579311f, 0.0894571245f, 0.047069177f, 0.0539936721f, -0.101455525f, -0.0567350276f, -0.098210983f, -0.0531953573f,
    -0.0846170187f, 0.075124979f, 0.0550637394f, 0.0601056963f, -0.0453089178f, 0.0777903944f, -0.0147479475f, -0.0264431238f,
    0.0549535304f, 0.0675887167f, -0.0733551383f, 0.0971661061f, -0.0103010759f, 0.0271832347f, -0.101626948f, 0.0113621131f,
    -0.050512176f, -0.0639052242f, -0.0426135845f, -0.000475414097f, -0.0290755704f, -0.0653803647f, 0.0730748773f, 0.0303633809f,
    -0.0949835107f, 0.0214093179f, 0.025071457f, 0.00375032425f, 0.0247832835f, -0.00854508579f, 0.0446361005f, -0.0718496218f,
    -0.0435174033f, 0.0764553249f, -0.0632316023f, 0.0500748605f, 0.094435215f, -0.093326658f, -0.0447138697f, 0.0870971531f,
    -0.00617139041f, 0.0201484412f, 0.0145254284f, 0.0420596898f, -0.0420528054f, 0.0132499263f, 0.0695227385f, -0.00861022621f,
    -0.0936374813f, 0.0352783054f, -0.0260550156f, -0.0215318799f, 0.0532289743f, 0.0178867355f, -0.0617426671f, -0.0470986255f,
    -0.0155144185f, -0.0252159834f, -0.0216065124f, -0.0697603524f, 0.0739364475f, 0.0529316217f, 0.020141542f, 0.0231090337f,
    0.0119482204f, 0.0763152987f, 0.0230947137f, 0.0155473277f, -0.0561046451f, 0.0340470374f, -0.0954838321f, 0.0321892053f,
    -0.0884663165f, -0.0422406122f, 0.0538825095f, -0.0607894026f, 0.081269294f, -0.056391377f, 0.0966722667f, 0.0314567536f,
    -0.0442290232f, 0.0622455031f, -0.0903854296f, -0.0646553859f, -0.0639429018f, 0.0134354457f, 0.0100268871f, -0.0877843276f,
    0.0984858871f, -9.75430012e-05f, -0.0545008108f, 0.00243787467f, -0.0438104868f, 0.0281581134f, 0.0369474143f, -0.0289510414f,
    0.00595002621f, 0.0607277602f, -0.0663843676f, -0.022758618f, -0.0150566697f, -0.0675255805f, 0.00831267238f, 0.00375104696f,
    -0.0824384615f, 0.0209366977f, 0.0974148363f, 0.0542861819f, -0.0553623512f, 0.0934242159f, -0.0701568574f, -0.0518930294f,
    0.0450188816f, 0.0811946094f, 0.0973964185f, 0.0878677368f, -0.0562000461f, 0.0233545154f, -0.0640862137f, 0.00225386769f,
    0.084558934f, 0.0502545238f, -0.0942414477f, -0.0439247191f, -0.086113967f, 0.0480785221f, -0.0129562691f, -0.0746097192f,
    -0.0326133221f, 0.0334931314f, 0.00944886357f, 0.0957655907f, -0.00135502219f, 0.0321043283f, -0.0309173614f, 0.0121788681f,
    0.00365621597f, 0.0876694173f, 0.0427650809f, -0.0581643656f, -0.09068802f, -0.0971058309f, -0.037064679f, 0.0131930709f,
    0.0960165411f, -0.0100280643f, 0.0399053246f, 0.0518705249f, -0.0781795904f, -0.0844273344f, 0.0386729538f, 0.0475720763f,
    -0.0475236923f, 0.0159939528f, -0.0999301001f, 0.00128646195f, 0.0250177383f, 0.000966079533f, -0.016200304f, 0.0424812585f,
    -0.0280534551f, 0.0759743601f, -0.0879090726f, -0.0583281554f, -0.0852047801f, -0.0923051983f, 0.0756640732f, -0.0252575949f,
    -0.0801725015f, 0.0211686566f, -0.0772871003f, 0.00527592748f, 0.0485184789f, -0.0215817019f, 0.0524676591f, 0.0209476948f,
    -0.0818987191f, 0.0200876519f, 0.0657934397f, -0.0236600041f, 0.00964581221f, 0.0130204782f, 0.00877653062f, 0.0265309215f,
    -0.0977202728f, 0.0774360597f, 0.0445138663f, 0.0126037076f, 0.0185712278f, -0.08230979f, -0.0291408598f, -0.00443936884f,
    0.0242611021f, -0.0559870638f, 0.0108292326f, -0.0316747278f, 0.0742888898f, -0.087606132f, 0.0106688365f, 0.0691465139f,
    -0.0792697892f, -0.0029252395f, 0.0471621305f, 0.0411846191f, 0.0120025203f, 0.041257143f, -0.0711471513f, 0.0850059986f,
    0.00227631629f, 0.0659736842f, 0.0225781649f, -0.0113541409f, 0.0437170118f, 0.0968875885f, 0.100675747f, -0.085910365f,
    0.00619000196f, -0.0733189732f, 0.0594663024f, 0.0732697994f, -0.0716677383f, -0.00589874387f, 0.0706247687f, 0.0674943328f,
    -0.0767373666f, 0.0685275644f, -0.0180690214f, -0.0868009627f, 0.0203306749f, 0.0475468636f, 0.0612087697f, -0.0693943501f,
    -0.0739217848f, -0.0685746074f, 0.0578398257f, -0.0892003253f, -0.000860638916f, -0.029992044f, 0.0445607752f, 0.0200433508f,
    -0.0515388548f, 0.0178268403f, 0.093924433f, 0.0168038756f, -0.0505762585f, 0.00341702998f, -0.0936161727f, -0.0654826313f,
    -0.0189578235f, -0.0636001527f, 0.0864277035f, 0.019811295f, 0.0790514201f, -0.023240447f, -0.0141943023f, 0.0257446766f,
    -0.0303470939f, -0.0347901955f, -0.100120395f, 0.076888144f, 0.0923691392f, -0.101053938f, -0.0337681025f, -0.0771985203f,
    -0.0414296016f, 0.0777009577f, 0.0545951426f, -0.00791919976f, 0.0435908884f, 0.0304798931f, 0.0557378978f, -0.0820171162f,
    0.0315481275f, -0.0966622904f, -0.0671227053f, -0.0380338505f, -0.00994384289f, -0.0963164642f, 0.00254003704f, 0.0162948743f,
    -0.0405049771f, 0.0331041664f, 0.0891842246f, -0.0174336955f, -0.0543560758f, -0.0904094875f, -0.0745260119f, -0.0564492568f,
    -0.0754518658f, -0.0401257388f, 0.0562244505f, 0.03193748f, 0.0919910073f, 0.101332009f, -0.0367532521f, -0.0399694555f,
    0.013966687f, -0.0812702104f, 0.0555135012f, -0.0183689147f, -0.0854595304f, -0.0770549923f, -0.0703277439f, 0.0280519873f,
    0.078237772f, 0.0808589458f, -0.0281032994f, -0.0592833646f, -0.0452987105f, -0.0697205812f, -0.026313819f, -0.0921765715f,
    0.0545519292f, -0.0960603431f, -0.0634881854f, 0.0684938878f, -0.0763433725f, 0.0243994445f, 0.0764469057f, 0.100603983f,
    0.0516423583f, -0.0273899883f, 0.0583218932f, -0.00336832553f, -0.0314698368f, 0.000332392752f, 0.0228934512f, 0.0684346408f,
    0.0428420007f, 0.0487336665f, 0.0152682364f, -0.00513694435f, 0.0428555459f, 0.0245482177f, -0.097662203f, 0.0165009052f,
    -0.045324944f, -0.0541233011f, 0.0394704938f, 0.0208705366f, 0.0172835365f, -0.0484165624f, 0.047160238f, 0.0957782865f,
    0.012485981f, 0.0419502109f, -0.0895419195f, 0.0606754124f, 0.0354551375f, 0.0459818244f, 0.0425611436f, -0.0268448368f,
    -0.0061262846f, 0.0987213403f, 0.074682489f, -0.0731569156f, 0.0809784681f, 0.10157539f, 0.0134223178f, -0.0796270072f,
    0.01978378f, -0.0206125379f, 0.0733812898f, -0.098059617f, 0.0261180401f, -0.00119707733f, 0.00803461671f, 0.0702076852f,
    0.00184372813f, -0.082168214f, -0.0595366284f, -0.0408660509f, 0.0108849555f, 0.0393857509f, -0.0190505832f, -0.0402816683f,
    0.0447854847f, -0.0992357656f, 0.0713190585f, -0.0118644312f, 0.0710177869f, 0.0771195292f, 0.0109029785f, 0.0322850198f,
    -0.0577269718f, 0.0731258541f, 0.0597364306f, -0.0160297528f, 0.0397814661f, -0.00571682304f, 0.0797400922f, 0.0420133322f,
    0.0744080395f, -0.0927722752f, 0.0994418114f, 0.0380264223f, 0.0496207476f, 0.022742413f, 0.0670330524f, 0.0960834324f,
    -0.00869470835f, -0.0837440044f, 0.093719855f, -0.0215240195f, -0.0492221117f, 0.0628279597f, 0.0569586605f, 0.0136642903f,
    -0.0064066723f, -0.0195245668f, 0.0935816914f, 0.0621848702f, 0.0607816279f, 0.0650827587f, -0.0534151383f, 0.0213100687f,
    -0.0882928446f, 0.0592959523f, -0.101164721f, -0.102001265f, -0.100886524f, 0.0629383624f, 0.0106215924f, 0.000232093036f,
    0.0162334591f, -0.038625516f, -0.0309925154f, -0.0687482059f, -0.0249252841f, -0.0628025234f, 0.00268530846f, 0.0801908076f,
    -0.0843739212f, 0.0501912087f, -0.0759135708f, -0.0422867611f, 0.0199576616f, 0.0175615326f, 0.0836986601f, -3.8176775e-05f,
    -0.0388722196f, -0.0422096364f, 0.00299225003f, -0.0765290856f, -0.0800226182f, -0.0436686091f, 0.00262179971f, -0.0689267218f,
    -0.0582604222f, 0.072871834f, 0.0943174958f, -0.031969443f, -0.0875628889f, -0.0390748233f, 0.0411924869f, 0.0331237316f,
    -0.0316392109f, -0.0898880512f, -0.0306888446f, -0.0228205472f, 0.058773756f, -0.0506095216f, 0.0612540692f, 0.0141578987f,
    -0.0171054229f, -0.0909556821f, 0.100762546f, -0.0181993842f, 0.0642173141f, -0.0527934879f, -0.0993911847f, -0.0813538805f,
    -0.052305311f, -0.0325035304f, -0.0144125372f, 0.0851212293f, -0.0941276178f, 0.0509408861f, 0.085877955f, 0.000656895339f,
    -0.0636502057f, 0.00326437503f, 0.0242130905f, 0.0451584607f, -0.0310237184f, -0.0350247845f, -0.0481499024f, -0.098715879f,
    0.0358451009f, -0.0771604404f, -0.0490307771f, -0.00105029345f, 0.0786800683f, 0.0907470584f, -0.0742358863f, 0.0885171145f,
    0.0914252698f, 0.0824494213f, 0.00888574123f, 0.0819707364f, 0.0495884866f, -0.0732356161f, -0.0537945926f, 0.00191944838f,
    -0.0723293051f, -0.0336071998f, 0.0822867006f, 0.0475180149f, 0.0888837427f, 0.000782430172f, -0.0520415343f, 0.0675495714f,
    0.00752424449f, 0.0171876326f, -0.0432434939f, 0.0419241339f, -0.0753775686f, 0.081443131f, 0.0892882645f, 0.0368262529f,
    0.079478398f, 0.0619484335f, -0.038979277f, -0.0885218531f, 0.0134303644f, 0.0640823394f, -0.0104411021f, 0.0085876286f,
    0.0756477118f, 0.0421406627f, 0.0763005763f, 0.0149865225f, 0.0114406273f, -0.0244129896f, -0.0172228366f, -0.054242488f,
    0.0682363212f, 0.0930856168f, 0.0378767699f, 0.00289996713f, -0.0336912051f, -0.10076914f, -0.0188983753f, -0.0724545047f,
    -0.0753485709f, -0.0202099681f, -0.0200777501f, 0.020588547f, -0.0739765912f, 0.073347792f, -0.0929225758f, -0.0483359098f,
    -0.0387480482f, 0.00629244745f, 0.0421904922f, -0.0268966183f, 0.0159287155f, -0.0241616741f, -0.0401420407f, -0.0142761245f,
    0.0205493718f, -0.0991381034f, -0.0710396171f, 0.0797361135f, 0.0461509377f, -0.00272889435f, 0.00322315097f, 0.0140881464f,
    0.0237215012f, -0.0696816891f, -0.0278208479f, -0.0936701149f, -0.0802397504f, -0.0192035213f, -0.013475962f, 0.0798274577f,
    0.0175797194f, -0.0165489316f, -0.00282757729f, 0.0570008904f, -0.0309171304f, -0.0190798715f, -0.0204743594f, -0.0823000893f,
    -0.0142644644f, -0.0943504423f, -0.0548602529f, -0.0649639219f, 0.0760286748f, -0.0940179676f, 0.0983400643f, 0.0382679105f,
    -0.0689728707f, 0.0845573694f, -0.0224903524f, -0.0864450559f, -0.0141735822f, 0.0504401177f, -0.099233821f, -0.00764834881f,
    0.0415273309f, -0.0397761762f, 0.00929559022f, -0.0400004573f, -0.0684732273f, 0.0799289644f, -0.0724689439f, -0.00119654834f,
    0.0339927673f, -0.0570371896f, 0.0492798239f, -0.0847583562f, 0.0974744856f, 0.0454542488f, -0.0144493282f, -0.0848992467f,
    0.00314747542f, 0.0362023711f, -0.0554308742f, -0.012853317f, -0.101712659f, -0.10203176f, -0.0110844076f, 0.0854000002f,
    -0.00480360538f, 0.0319976807f, -0.0407958217f, -0.0333259851f, -0.0112185106f, -0.0515956245f, 0.0624532253f, 0.0636458248f,
    -0.0793431103f, 0.0313044041f, -0.042162355f, -0.0586901866f, -0.0124514103f, -0.0316558108f, -0.0581131577f, 0.0150415078f,
    0.0582543463f, -0.0157488659f, -0.00713936239f, 0.00768025964f, -0.0438640825f, 0.0540328324f, 0.0941704959f, -0.00932807475f,
    0.00693798065f, 0.0822351128f, 0.0835948586f, -0.0759239867f, -0.0472652093f, -0.100115664f, 0.0625121444f, 0.0796597898f,
    -0.0371466652f, 0.0327388048f, 0.0247229189f, -0.087809898f, 0.0407568216f, 0.0500799417f, 0.00224459171f, 0.0104664713f,
    0.0237165987f, 0.0735263377f, 0.090179041f, 0.0146690682f, 0.0435046405f, -0.0267020538f, 0.0608498603f, -0.0401462764f,
    -0.0841286555f, 0.0478849262f, 0.0378534496f, 0.0224646553f, 0.043424204f, 0.0121450424f, 0.0347356945f, 0.0415885597f,
    -0.0550570153f, -0.00546850264f, 0.015380919f, -0.0154953599f, -0.0858121514f, 0.0096815303f, 0.0623742342f, -0.0545826443f,
    0.100205436f, 0.0232759714f, 0.0434076786f, -0.0394107997f, -0.0834880993f, -0.0379834548f, 0.00311817974f, -0.0465070046f,
    0.09089306f, -0.0653231591f, -0.0687413812f, -0.0362019986f, 0.0915651917f, -0.0466683954f, 0.0944208652f, 0.0490478277f,
    -0.0155076161f, 0.0527873039f, 0.0485211611f, -0.0519487746f, -0.0210120007f, 0.0988598317f, 0.0585142821f, -0.0498492084f,
    -0.0274433643f, 0.0572049767f, 0.0518133938f, 0.00809025764f, -0.0656711534f, -0.0752775148f, -0.0215421543f, 0.0375248641f,
    -0.0108808577f, -0.0853323117f, -0.0250133276f, 0.101874873f, -0.0843562707f, -0.0792098939f, 0.0641592443f, 0.101552486f,
    -0.0981799364f, -0.0923088714f, -0.031913355f, 0.101759449f, -0.0579259954f, 0.00872626156f, 0.0833160132f, -0.0361308828f,
    -0.0312989131f, -0.0685074627f, 0.00391872972f, 0.0952625424f, 0.0417345017f, 0.0717384219f, -0.00676174462f, -0.0162113905f,
    -0.0182338059f, 0.0582107753f, -0.0133831799f, -0.087180987f, -0.0358389169f, 0.039942503f, 0.0995077938f, -0.0185581818f,
    -0.0888617635f, -0.0751501322f, -0.0803031176f, 0.0411415845f, 0.0752328932f, 0.0301832855f, 0.035190478f, 0.0664914399f,
    0.0697819144f, 0.0609445721f, 0.0570730865f, 0.0276169628f, 0.0526806861f, -0.0700314492f, -0.0660601705f, 0.027448833f,
    0.0158831179f, -0.0897250175f, -0.0743520558f, -0.081249103f, 0.0810601562f, 0.0667280257f, -0.0537204109f, 0.0153992176f,
    -0.0234750211f, 0.088725239f, -0.0924411714f, -0.0744583905f, -0.0849733353f, 0.059397921f, -0.0510195643f, 0.0607891828f,
    0.0345003009f, -0.0498871803f, -0.0274945274f, -0.0413027517f, 0.0450271666f, -0.0409301817f, 0.0346367061f, 0.00729128718f,
    -0.0815074295f, -0.0641574413f, -0.0707671642f, 0.0534799993f, 0.02211494f, -0.00256624818f, -0.0607719682f, -0.101123862f,
    -0.0361183807f, -0.0781124383f, -0.101517446f, -0.0973427519f, -0.0666663796f, -0.0992186964f, 0.0318153799f, 0.03818883f,
    0.0411379337f, -0.101602271f, 0.0631110519f, 0.0198983848f, 0.0521882474f, -0.0250844881f, 0.0490116924f, -0.0967972055f,
    0.0347630829f, 0.0809315294f, 0.0429033637f, -0.0962050259f, -0.0286512151f, -0.0126744807f, 0.0534758121f, -0.0386205018f,
    0.0146792531f, -0.0358289778f, -0.0162134171f, -0.00203167647f, -0.0586057268f, -0.0708406195f, 0.0842560232f, 0.0857524723f,
    -0.00308990479f, 0.0883417726f, 0.0786475688f, -0.0642870143f, -0.0405552872f, -0.0701010227f, 0.0329976529f, 0.00258116424f,
    -0.0139964893f, 0.0757777095f, -0.0398930497f, -0.0558576472f, -0.0725534931f, -0.0519219488f, 0.0983703583f, -0.0496216193f,
    -0.0280827135f, 0.0460008383f, -0.0783870369f, -0.0619474575f, 0.0751185268f, -0.039145194f, -0.0529607572f, -0.0132046193f,
    -0.014543049f, 0.0186522081f, 0.0374181271f, -0.0786945745f, 0.0927501172f, -0.0970358476f, 0.0345668793f, -0.0287974626f,
    -0.0431003645f, 0.0954709649f, -0.0983524472f, 0.00697042793f, 0.0653998107f, 0.0912428945f, -0.0862848312f, 0.0122968331f,
    0.100978166f, -0.0999727696f, 0.0249288678f, -0.0639491305f, 0.0165684223f, -0.0923237652f, 0.0502148867f, -0.0226413682f,
    0.0609966815f, -0.00153476f, -0.0145478919f, -0.0247789547f, -0.093452245f, -0.0433519818f, 0.00338952243f, -0.0789599642f,
    0.0895697773f, -0.0663776845f, -0.0397625752f, -0.0136486441f, -0.0826766789f, -0.000806376338f, -0.0491472967f, -0.0854299366f,
    0.00250343233f, 0.0903543681f, 0.0251327157f, 0.0841797292f, -0.000998087227f, -0.0356236547f, 0.0822577477f, -0.0543498844f,
    -0.0944181457f, 0.0223375857f, 0.0508651584f, -0.061009109f, 0.0359222144f, -0.0362099111f, -0.0123835355f, -0.0225983858f,
    -0.0218303353f, -0.0830441564f, 0.0250137448f, -0.0268467888f, 0.0780402869f, 0.0170353204f, -0.0834685266f, -0.0776441544f,
    -0.053191036f, 0.0488751978f, -0.0658959299f, -0.0466906354f, 0.0185293257f, -0.0707594156f, -0.050257951f, 0.0925483704f,
    -0.0539595746f, -0.0340041965f, 0.072994858f, 0.0228704959f, 0.0801084787f, -0.089915663f, 0.0510152727f, -0.0156112015f,
    -0.0653856993f, -0.0437128246f, -0.0987220109f, 0.0706040114f, -0.0195837915f, -0.1000764f, 0.0872851908f, 0.0661061555f,
    0.0422008932f, 0.0998912454f, 0.0921675712f, 0.0953829885f, 0.0913991928f, 0.0829435438f, 0.0267187357f, -0.00854724646f,
    0.00388135016f, -0.0424147174f, 0.0479546487f, 0.00295680016f, 0.0240790993f, -0.065743044f, -0.0384292826f, 0.076516211f,
    0.00992670655f, 0.0352207869f, -0.0891009495f, -0.0437056459f, -0.00259754062f, -0.0107099414f, 0.0651507974f, -0.0308007821f,
    0.0851807445f, -0.019739598f, 0.0396969318f, -0.0718545616f, 0.0173233449f, -0.0995040908f, -0.0875680968f, -0.0653202683f,
    0.0285729915f, 0.00791052729f, 0.00987802446f, -0.0111644119f, 0.0857576281f, 0.0999800116f, 0.0433445871f, 0.0811653733f,
    -0.00504411757f, -0.0375212654f, 0.0198418126f, 0.0671094656f, -0.0157738626f, -0.0783665106f, 0.033704564f, -0.0260172263f,
    -0.0491297878f, 0.0644647032f, -0.0034642145f, -0.0583412088f, -0.0610710979f, 0.096118018f, 0.0663860291f, -0.0731845051f,
    4.87864017e-05f, -0.00220808387f, 0.0486493409f, -0.0874123499f, 0.0015168637f, 0.034006089f, 0.0519396961f, 0.0106719136f,
    -0.0505891889f, -0.0979810804f, 0.0551659167f, 0.0931789279f, -0.0308145657f, -0.0912081823f, 0.0298619121f, -0.0715555772f,
    -0.0666837916f, 0.0278206766f, -0.00969208032f, -0.00694232434f, 0.0915444046f, -0.0179019198f, 0.0621262044f, -0.031764105f,
    0.0759448111f, 0.031136319f, 0.09094733f, 0.0355971605f, -0.0361521766f, 0.0444841534f, 0.0869546831f, 0.0193441585f,
    0.0470535457f, -0.0718030483f, 0.055300951f, -0.0964781567f, 0.0902250707f, 0.0421540588f, 0.00671654195f, -0.0955253318f,
    0.0928112864f, 0.0650789887f, 0.0940878093f, 0.0401217043f, 0.0343722105f, -0.0264374912f, -0.0418252163f, 0.0404577106f,
    0.035395667f, -0.003308855f, 0.0162338465f, 0.0350597054f, -0.0986283645f, -0.0902579352f, -0.0271693245f, 0.0695104003f,
    0.0497942716f, -0.0974143669f, -0.0306439996f, -0.0107885003f, 0.0335213691f, 0.0834991485f, 0.002232261f, -0.0794436932f,
    0.00626242906f, -0.0394123867f, -0.062374413f, 0.056531176f, -0.0137122422f, 0.0482261777f, 0.0794714838f, 0.0100308284f,
    0.0574863255f, -0.048202429f, 0.0569726527f, 0.00407740474f, 0.067823261f, 0.097577408f, -0.0772053003f, 0.0968896598f,
    0.0779103041f, -0.0822180361f, 0.029918626f, -0.0830895454f, 0.0331075191f, 0.0157828778f, -0.0974296257f, 0.0370504558f,
    -0.0280344337f, 0.101733163f, 0.0996134132f, 0.0352328569f, 0.0804497153f, 0.0368628502f, 0.0965607017f, -0.0094230473f,
    0.0252246857f, -0.016858913f, -0.00178489834f, -0.0307886973f, -0.0403915569f, 0.0590406507f, 0.0437975973f, -0.0450540632f,
    -0.0899474621f, 0.0499039888f, -0.0938840136f, -0.00451637059f, -0.0878185779f, 0.0854597241f, 0.0831068009f, -0.0838788822f,
    -0.0948904976f, -0.0603439175f, 0.0281631351f, -0.0510387868f, -0.0243056789f, -0.0258706212f, 0.0187215433f, -0.0482759513f,
    0.0464193523f, -0.0730342716f, -0.00908493251f, 0.0855511129f, -0.0563564971f, 0.0783039033f, 0.0531192273f, -0.0329679102f,
    0.0353914946f, -0.0689506754f, 0.0082142204f, 0.0289101601f, 0.088279739f, -0.0571117848f, -0.0580449477f, -0.0509396791f,
    -0.0994260684f, 0.0206397548f, -0.0844839141f, -0.0273979455f, -0.0455382131f, 0.00570639968f, 0.0309604108f, -0.074167043f,
    -0.0301302224f, -0.00981213152f, -0.0590002835f, 0.0235775113f, 0.0377830118f, -0.0727377236f, 0.0802530944f, 0.0725253075f,
    -0.0306619555f, 0.0151859596f, 0.0124268755f, -0.014081724f, -0.0684977472f, 0.0841012299f, 0.0502250493f, -0.0852900892f,
    -0.0790997148f, 0.0970564336f, 0.0162896067f, -0.0234483182f, 0.0691713244f, 0.0293202996f, 0.0366373062f, 0.0809698552f,
    -0.00796572864f, 0.0972524285f, -0.0716919377f, -0.0621047877f, 0.0172932446f, -0.0123908222f, 0.058241874f, -0.02775345f,
    0.016049087f, -0.021207273f, 0.0766227394f, -0.00669451058f, 0.00156658888f, 0.0747700036f, 0.099222526f, 0.0976586044f,
    -0.0997885242f, -0.0576712713f, -0.0221626088f, -0.0210700333f, 0.0590365678f, 0.0460960269f, -0.00839478523f, 0.00241782516f,
    0.0218675733f, 0.0879832953f, 0.0528899282f, -0.0514810868f, -0.0522832163f, 0.0322768539f, -0.0103231594f, -0.0654769838f,
    -0.0987834036f, 0.0146194398f, -0.0298044905f, -0.0593833774f, 0.0191988945f, 0.0993864536f, 0.0847708881f, 0.058191821f,
    -0.0769754723f, 0.058249861f, 0.0527883619f, 0.0340523124f, -0.0254239738f, -0.00177720934f, -0.0553583242f, -0.0229902267f,
    -0.0168009028f, -0.014457792f, -0.101571053f, 0.0360062271f, -0.0835062787f, -0.0763254762f, 0.041474998f, -0.0835459083f,
    0.0973656029f, 0.0977291167f, -0.0324334949f, -0.0175894424f, -0.0780831054f, 0.00630971044f, 0.018660605f, -0.0559876747f,
    0.0320049822f, -0.00392786413f, -0.0300857499f, -0.000353105366f, -0.0989313051f, -0.0718958154f, 0.0135097131f, 0.0985636264f,
    -0.0604945049f, 0.0654301941f, 0.00934065878f, -0.0439103022f, 0.000111825764f, 0.0489311367f, 0.0121423751f, 0.0903472751f,
    -0.0193160102f, -0.0681551024f, 0.0922272056f, -0.0291489959f, 0.0647584349f, 0.0673198253f, 0.0180756524f, -0.0837671831f,
    -0.100198723f, 0.0484526157f, 0.0249532759f, 0.0593862087f, -0.0899581313f, -0.0140613019f, 0.0881817639f, 0.0536214411f,
    0.0848170668f, 0.0801311433f, -0.0250427052f, -0.069502607f, -0.0608584248f, 0.0346630067f, -0.0405120924f, 0.000404775143f,
    0.0162874535f, 0.0633577704f, 0.0569203794f, 0.0582509786f, 0.0041481033f, 0.0576190948f, -0.0477804467f, -0.0408501215f,
    -0.0161598101f, -0.0592700318f, 0.0910391659f, -0.0156395286f, 0.0296719372f, -0.00317319483f, -0.00139590353f, -0.0543981604f,
    -0.00749310851f, -0.0912940279f, -0.0488070659f, 0.0785429776f, -0.0957292318f, 0.0167954266f, 0.016259715f, -0.0976850912f,
    0.0199342296f, 0.047388941f, 0.0739217252f, 0.0191035494f, 0.0797795355f, 0.00384163857f, 0.038887918f, 0.0301296413f,
    -0.0752537102f, -0.0224040896f, -0.0718728304f, 0.0793020278f, 0.0486896038f, -0.0432851985f, -0.0186768696f, 0.0272459835f,
    -0.0889903083f, 0.00288192183f, 0.0486854762f, 0.0127884597f, -0.00939077139f, 0.0656159669f, 0.0443956852f, -0.0907326564f,
    0.060064882f, -0.0804991797f, 0.0573310107f, 0.0859410763f, 0.00940603018f, -0.03449402f, -0.052719757f, -0.0453196019f,
    -0.0188133046f, -0.0423130766f, 0.101318285f, -0.0440240018f, 0.0423750281f, -0.0946448743f, 0.0517303348f, 0.0868459493f,
    -0.0731649846f, -0.0260404423f, 0.0243254453f, -0.0976966023f, -0.0645766184f, 0.0354956239f, 0.0961062759f, -0.0304904282f,
    -0.000929489732f, -0.0985240191f, -0.097964026f, 0.0887610912f, 0.0866106302f, -0.0311053619f, -0.0403572358f, -0.00660704076f,
    0.0473558903f, -0.0986316279f, -0.0565343983f, -0.0336468965f, -0.0444235206f, -0.00269620866f, 0.07444489f, 0.0222840682f,
    -0.0923642665f, 0.094395414f, 0.082179293f, 0.0321347713f, 0.0499573648f, 0.0381534696f, 0.0836565942f, -0.0981629267f,
    -0.0635350794f, -0.0129612088f, -0.0194142461f, -0.0677823275f, -0.0978773385f, -0.077947326f, -0.0158516541f, 0.0866378546f,
    0.067665115f, 0.0294187218f, -0.0626848638f, -0.0410591736f, 0.00983212143f, -0.0946019292f, -0.00465914607f, 0.0207544491f,
    0.0922729522f, -0.0267911181f, 0.100181788f, 0.00769995898f, -0.0708092898f, 0.0964612961f, 0.0884855241f, -0.0806450695f,
    -0.0592056811f, 0.0488009602f, -0.0627994835f, 0.0693973154f, -0.0486970544f, -0.0316763595f, -0.0292986706f, 0.0973704755f,
    -0.0345132574f, -0.0198455378f, 0.061755389f, -0.0698302984f, -0.00049161911f, -0.0788351968f, -0.0942011327f, -0.023301959f,
    0.0112825185f, 0.0870352536f, -0.0978767052f, -0.0293678865f, 0.0268584043f, 0.0385397375f, 0.059630096f, -0.0820669979f,
    -0.024951458f, 0.0235999227f, -0.0818136632f, 0.0514303595f, -0.0973843262f, 0.0636852235f, 0.0331818759f, -0.0289905742f,
    0.0331110805f, 0.0864444226f, 0.075080961f, 0.0619060695f, -0.0594133921f, 0.0293284506f, 0.076591596f, 0.0180008113f,
    0.0675721318f, -0.0632971153f, 0.071734637f, -0.00338549167f, -0.0915686935f, -0.0264571011f, 0.0902072489f, -0.0356547236f,
    -0.0176768005f, -0.0408287719f, -0.0554939844f, 0.0176819339f, 0.0619142354f, 0.0120683461f, -0.00629494339f, 0.00590397418f,
    -0.0765353441f, -0.0537762828f, 0.00510714203f, -0.0815776438f, 0.0505515784f, 0.0155562833f, 0.00107468665f, -0.00654966384f,
    0.0862012804f, 0.0931443423f, 0.0498342365f, 0.0506912172f, -0.0494877473f, 0.0417214632f, -0.0690312386f, 0.0441087186f,
    -0.0724724829f, -0.000558257103f, 0.0739730746f, 0.0677723736f, 0.090243876f, 0.034815684f, 0.0396182388f, 0.0273696184f,
    0.0745271742f, 0.0535573363f, 0.0301154107f, -0.0356111452f, -0.049394343f, -0.025233373f, 0.0487079769f, -0.0555566065f,
    0.0278841406f, 0.0892943591f, 0.0864207298f, -0.07514292f, 0.0290911645f, 0.0667355806f, -0.0927051753f, 0.0652295798f,
    -0.0635939091f, -0.0737958625f, -0.0432633981f, -0.0383890569f, -0.0421967134f, 0.02938357f, 0.0395389497f, 0.0396660864f,
    0.0704666078f, -0.0645755976f, -0.0969109461f, -0.0818770751f, -0.0560958833f, -0.0466841161f, 0.0448474288f, -0.0738583654f,
    -0.0746217296f, 0.0546574891f, -0.0649411455f, 0.0191430002f, -0.0778212547f, 0.0389422774f, 0.0637754798f, -0.0858494192f,
    0.0347167701f, -0.0535082743f, 0.0647725314f, 0.0917952955f, -0.0861020088f, 0.0381761491f, 0.06892699f, 0.0927918404f,
    0.0770831406f, 0.020072639f, 0.00596667081f, 0.0210287496f, -0.060847424f, -0.0199969262f, -0.00157400221f, -0.0645835698f,
    -0.00452533364f, -0.0135582313f, -0.0357303917f, -0.0313473567f, -0.101646304f, 0.0972646922f, 0.0503066778f, 0.0737874657f,
    -0.086879082f, -0.0999193937f, 0.0759000033f, -0.0179223865f, 0.0159093216f, 0.0511779338f, 0.00652199984f, -0.0033801645f,
    0.0606451482f, 0.0815355927f, -0.0284421965f, -0.0871364847f, -0.0559644215f, 0.0729361326f, 0.00887481868f, 0.0873898715f,
    -0.0357028246f, -0.0967061073f, 0.0316948742f, -0.0434925221f, -0.061018683f, 0.0636297613f, 0.00709759444f, -0.00871506333f,
    0.0993951559f, 0.0889099389f, -0.0833766907f, -0.093821317f, -0.0504697636f, -0.0792430937f, -0.0536503941f, 0.0688566864f,
    -0.0679117888f, 0.0936066061f, 0.0318438411f, 0.00443295389f, 0.0174576864f, 0.0215424076f, 0.0328390151f, -0.083006531f,
